/*!
 * The following copyright notice may not be removed under any circumstances.
 * 
 * Copyright:
 * Llicència gratuïta / Free License (La Tipomatika)
 * 
 * Trademark:
 * Please refer to the Copyright section for the font trademark attribution
 * notices.
 * 
 * Full name:
 * CicleGordita
 * 
 * Manufacturer:
 * La Tipomatika
 * 
 * Designer:
 * La Tipomatika (Digital Type Foundry)
 */
Cufon.registerFont({"w":690,"face":{"font-family":"Cicle Gordita","font-weight":700,"font-stretch":"normal","units-per-em":"1000","panose-1":"2 0 0 0 0 0 0 0 0 0","ascent":"800","descent":"-200","x-height":"188","bbox":"-70 -828 915 188","underline-thickness":"50","underline-position":"-50","unicode-range":"U+0020-U+00FF"},"glyphs":{" ":{"w":257},"e":{"d":"390,-39v-53,26,-93,48,-157,48v-116,0,-216,-111,-215,-259v0,-142,93,-258,204,-258v125,1,212,128,200,292r-329,0v10,88,68,152,140,153v37,0,93,-22,129,-39xm95,-286r255,0v-11,-86,-63,-149,-128,-149v-61,0,-113,66,-127,149","w":456},"f":{"d":"314,-680r-22,73v-25,-6,-36,-6,-45,-6v-47,2,-85,55,-82,122r123,0r0,73r-123,0r0,418r-69,0r0,-418r-71,0r0,-73r70,0v-6,-106,68,-192,152,-194v15,0,28,0,67,5","w":328},"g":{"d":"265,-152v-31,1,-53,-9,-76,-11v-6,0,-15,2,-15,9v3,26,33,11,55,11v115,0,205,73,205,164v0,91,-90,167,-205,167v-110,0,-204,-76,-204,-167v0,-56,38,-108,92,-137v-9,-28,-3,-62,8,-84v-40,-32,-62,-78,-62,-129v0,-97,90,-178,202,-178v33,0,54,5,76,10r194,0r-68,72r-29,0v18,27,31,61,31,96v0,100,-91,177,-204,177xm96,21v0,52,61,97,133,97v76,0,136,-45,136,-97v0,-51,-60,-96,-136,-96v-72,0,-133,45,-133,96xm134,-329v0,59,59,107,131,107v76,0,134,-48,134,-107v0,-60,-58,-108,-134,-108v-72,0,-131,48,-131,108","w":551},"p":{"d":"101,-399r0,297v7,19,61,38,124,38v94,0,171,-85,171,-189v0,-101,-77,-184,-171,-184v-68,0,-124,18,-124,38xm101,-500r0,16v32,-13,82,-26,124,-26v135,3,242,118,242,257v0,145,-107,261,-242,261v-46,0,-91,-9,-123,-24r0,199r-72,0r0,-582v0,0,-2,-71,-30,-101r101,0","w":506},"y":{"d":"40,180r11,-83v19,20,33,20,43,20v38,0,78,-27,98,-77r35,-87r-27,-69r-160,-391r77,0r146,368r146,-368r77,0r-205,508v-7,20,-17,43,-25,65v-28,77,-100,122,-163,122v-17,0,-34,-3,-53,-8","w":535},"R":{"d":"375,0r-270,-303r0,303r-73,0r0,-691r205,0v113,0,203,79,203,179v0,101,-90,182,-203,182r-58,0r291,330r-95,0xm235,-621r-130,0r0,218r132,0v71,0,130,-48,130,-109v0,-59,-59,-109,-132,-109","w":474},"d":{"d":"112,-253v0,101,75,188,172,188v67,0,121,-22,121,-41r0,-291v-8,-19,-58,-38,-122,-38v-95,0,-171,85,-171,182xm405,-3r0,-15v-33,13,-78,25,-121,25v-133,0,-242,-118,-242,-260v0,-140,109,-253,241,-254v50,0,86,5,122,24r0,-198r72,0r0,575v0,0,0,74,36,103r-108,0","w":534},"h":{"d":"35,-683r71,0r0,219v32,-30,69,-44,115,-44v97,0,172,83,173,187r3,318r-71,0r0,-318v-3,-65,-52,-116,-111,-116v-49,0,-95,51,-109,104r0,333r-71,0r0,-683","w":455},"i":{"d":"49,0r0,-501r70,0r0,501r-70,0xm41,-626v0,-22,18,-41,43,-41v23,0,44,19,44,41v0,22,-21,42,-44,42v-25,0,-43,-20,-43,-42","w":177},"j":{"d":"173,-621v0,-25,17,-41,43,-41v19,0,40,16,40,41v0,22,-21,42,-40,42v-26,0,-43,-20,-43,-42xm43,113v27,0,34,0,45,3r2,-3v52,0,91,-49,91,-109r0,-506r71,0r0,515v-9,105,-77,187,-189,171v-3,-1,-7,-2,-27,-2","w":354},"k":{"d":"121,-681r0,318r155,-133r113,0r-167,139r205,357r-85,0r-176,-309v-15,13,-29,26,-45,39r0,270r-100,0v12,-12,28,-39,28,-59r0,-622r72,0","w":440},"l":{"d":"49,0r0,-681r71,0r0,681r-71,0","w":162},"m":{"d":"106,-501r0,39v31,-30,68,-44,112,-44v62,0,114,33,146,83v34,-61,93,-85,145,-85v95,0,172,82,173,187r2,319r-72,0r0,-319v-2,-63,-48,-115,-107,-115v-52,0,-98,51,-110,103r0,331r-72,0r0,-317v-1,-65,-49,-115,-109,-115v-50,0,-95,51,-108,103r0,331r-72,0r0,-440v0,-17,-16,-50,-28,-61r100,0","w":739},"n":{"d":"99,-497r0,32v32,-32,67,-44,115,-44v95,0,173,83,174,188r2,321r-72,0r0,-321v-1,-65,-50,-116,-109,-116v-51,0,-97,50,-110,104r0,333r-71,0r0,-442v0,-17,-17,-44,-28,-55r99,0","w":433},"o":{"d":"86,-248v0,102,73,185,163,185v89,0,162,-83,162,-185v0,-103,-73,-187,-162,-187v-90,0,-163,84,-163,187xm13,-248v0,-143,107,-259,236,-259v131,0,235,116,235,259v0,141,-104,258,-235,258v-129,0,-236,-117,-236,-258","w":513},"q":{"d":"381,-486r0,-10r71,0r0,679r-71,0r0,-217v-32,17,-75,24,-120,24v-126,0,-233,-112,-233,-248v0,-136,107,-249,233,-249v47,0,89,7,120,21xm381,-117r0,-282v0,-20,-54,-38,-120,-38v-90,0,-163,80,-163,179v0,98,73,179,163,179v62,0,112,-17,120,-38","w":513},"r":{"d":"259,-498r-18,70v-22,-7,-25,-7,-30,-7v-51,0,-96,50,-108,104r0,331r-72,0r0,-440v0,-17,-15,-44,-43,-62r115,0r0,39v30,-29,69,-44,113,-44v9,0,21,0,43,9","w":279},"s":{"d":"383,-430r-58,42v-31,-29,-74,-46,-117,-46v-54,0,-96,26,-96,64v0,37,43,73,102,83v91,14,161,82,161,155v0,83,-77,140,-169,140v-60,0,-130,-29,-171,-80r54,-42v29,29,73,50,114,50v55,0,101,-28,101,-68v0,-35,-50,-76,-103,-87v-86,-17,-162,-84,-162,-152v0,-81,80,-135,173,-135v63,0,128,32,171,76","w":417},"t":{"d":"107,-681r73,0r0,186r126,0r0,73r-126,0r0,422r-71,0r0,-422r-71,0r0,-73r69,0r0,-186","w":340},"u":{"d":"107,-185v3,64,49,120,111,120v51,0,96,-52,107,-104r0,-332r72,0r0,439v0,20,16,50,28,62r-100,0r0,-36v-31,28,-69,45,-114,45v-93,0,-168,-81,-172,-184r-3,-3r0,-321r71,0r0,314","w":450},"v":{"d":"209,0r-202,-501r76,0r159,387r156,-387r79,0r-205,501r-63,0","w":500},"w":{"d":"668,-501r-205,501r-63,-3r-63,-157r-68,160r-61,-3r-203,-498r77,0r157,384r22,-51r35,-88r-97,-245r80,0r154,386r156,-386r79,0","w":705},"x":{"d":"211,-323r116,-178r86,0r-157,249r157,252r-85,0r-119,-188r-26,41r1,0r-90,147r-86,0r158,-260r-153,-241r87,0","w":444},"z":{"d":"34,0r0,-63r276,-366r-273,0r0,-72r374,0r0,62r-276,367r276,0r0,72r-377,0","w":452},"A":{"d":"219,-346r157,0r-79,-210v-10,25,-21,55,-30,80xm15,0r255,-691r55,0r255,691r-76,0r-101,-273r-210,0r-103,273r-75,0","w":596},"B":{"d":"269,-2v-71,3,-152,0,-227,2r0,-691r226,0v106,2,190,84,190,178v0,61,-29,112,-76,146v54,36,90,98,90,164v0,108,-88,197,-203,201xm386,-513v0,-56,-52,-107,-119,-107r-153,0r0,217r154,0v66,-2,118,-48,118,-110xm268,-73v73,-4,131,-62,131,-130v0,-66,-58,-127,-132,-127r-153,0r0,257r154,0","w":512},"C":{"d":"562,-587r-51,50v-51,-53,-113,-85,-176,-85v-133,0,-242,123,-242,277v0,152,103,280,242,280v63,0,123,-32,175,-84r50,50v-63,66,-143,108,-225,108v-167,0,-316,-161,-316,-354v0,-186,140,-350,316,-350v83,0,166,42,227,108","w":590},"D":{"d":"286,-618r-187,0r0,545r189,-2v94,-3,171,-124,171,-272v0,-149,-77,-271,-173,-271xm26,0r0,-691r260,0v137,2,246,155,246,344v0,190,-107,347,-244,347r-262,0","w":575},"E":{"d":"395,-403r0,73r-290,0r0,257r340,0r0,73r-412,0r0,-691r412,0r0,71r-340,0r0,217r290,0","w":485},"F":{"d":"399,-403r0,73r-290,0r0,330r-72,0r0,-691r412,0r0,70r-340,0r0,218r290,0","w":487},"G":{"d":"554,-98r-2,10v-59,61,-136,97,-219,97v-175,0,-317,-159,-317,-351v0,-194,142,-353,317,-353v83,0,164,41,228,108r-51,51v-51,-53,-114,-85,-177,-85v-135,0,-245,123,-245,279v0,153,110,280,245,280v55,0,108,-24,148,-59r0,-165r-181,0r0,-71r254,0r0,259","w":604},"H":{"d":"441,-330r-330,0r0,330r-73,0r0,-691r73,0r0,288r330,0r0,-288r72,0r0,691r-72,0r0,-330","w":558},"I":{"d":"106,-691r0,691r-73,0r0,-691r73,0","w":138},"J":{"d":"253,-691r0,514v0,100,-65,186,-139,186v-36,0,-71,-24,-100,-57r48,-50v18,19,36,34,52,34v36,0,65,-47,65,-111r0,-516r74,0","w":305},"K":{"d":"178,-333r-72,85r0,248r-73,0r0,-691r73,0r0,328r283,-328r98,0r-260,303r333,388r-96,0","w":583},"L":{"d":"104,-691r0,618r322,0r0,73r-394,0r0,-691r72,0","w":453},"M":{"d":"299,-340r204,-351r67,0r0,691r-74,0r0,-536r-176,303r-45,0r-178,-303r0,536r-73,0r0,-691r66,0","w":623},"N":{"d":"36,-691r65,0r315,533r0,-533r73,0r0,691r-66,0r-315,-536r0,536r-72,0r0,-691","w":537},"O":{"d":"502,-548v-43,-46,-102,-73,-166,-73v-134,0,-242,122,-242,276v0,155,107,280,242,280v139,0,244,-125,244,-280v0,-81,-30,-153,-78,-203xm651,-345v0,192,-131,354,-315,354v-169,0,-316,-153,-316,-354v0,-194,141,-350,316,-350v181,0,315,155,315,350"},"P":{"d":"246,-329r-133,0r0,329r-72,0r0,-691r205,0v113,0,203,81,203,178v0,103,-90,184,-203,184xm245,-620r-132,0r0,218r133,0v71,0,130,-48,130,-111v0,-58,-60,-107,-131,-107","w":480},"Q":{"d":"544,-367v1,-135,-93,-261,-224,-261v-122,0,-223,117,-223,261v0,117,66,217,160,249r0,-65v56,-1,98,29,112,69v96,-29,175,-132,175,-253xm265,-116r-8,0r0,-2v2,1,5,1,8,2xm615,-367v0,158,-102,290,-239,320v5,25,13,41,24,41v8,0,18,-14,25,-32r55,48v-25,33,-51,54,-80,54v-44,0,-81,-47,-93,-106v-149,-13,-279,-149,-279,-325v0,-187,136,-328,292,-328v159,0,295,143,295,328","w":665},"S":{"d":"29,-100r57,-46v33,51,85,82,146,82v73,0,137,-50,137,-114v0,-61,-59,-116,-132,-127v-114,-16,-204,-99,-204,-197v0,-110,97,-192,218,-192v79,0,143,33,195,90r-60,48v-34,-43,-81,-68,-135,-68v-75,0,-144,53,-144,118v0,65,59,121,137,129v114,12,200,99,200,196v0,106,-96,190,-214,190v-84,0,-158,-45,-201,-109","w":485},"T":{"d":"534,-620r-214,0r0,620r-73,0r0,-620r-216,0r0,-71r503,0r0,71","w":575},"U":{"d":"108,-691r0,509v10,61,90,117,187,117v92,0,181,-55,181,-117r0,-509r73,0r0,510v-4,103,-119,190,-254,190v-142,0,-263,-86,-263,-189r0,-511r76,0","w":598},"V":{"d":"281,0r-254,-691r75,0r212,569r210,-569r76,0r-255,691r-64,0","w":639},"W":{"d":"857,-691r-255,691r-65,0r-93,-251r-91,251r-65,0r-255,-691r75,0r212,570r86,-235r-123,-335r75,0r101,273r56,147r55,150r210,-570r77,0","w":915},"X":{"d":"220,-353r-197,-338r84,0r161,270r160,-270r85,0r-201,344r201,347r-85,0r-166,-280r-164,280r-84,0","w":541},"Y":{"d":"561,-691r94,0r-286,382r0,309r-74,0r0,-309r-285,-382r95,0r226,310","w":681},"Z":{"d":"525,-691r-383,618r337,0r0,73r-468,0r385,-618r-345,0r0,-73r474,0","w":548},"{":{"d":"160,-305r0,234r16,0r0,71v-35,0,-88,-24,-88,-61r0,-226v0,-29,-31,-27,-61,-26r0,-72v30,1,61,4,61,-26r0,-219v5,-30,45,-51,88,-51r0,74v-8,0,-15,3,-16,1r0,208v-8,22,-18,40,-41,44r0,10v20,6,35,20,41,39","w":223},"}":{"d":"14,-681v53,1,91,23,91,59r0,211v0,15,8,26,22,26r36,0r0,72r-36,0v-14,0,-22,11,-22,26r0,226v0,36,-50,61,-91,61r0,-71v11,0,16,1,18,0r0,-232v5,-23,18,-38,38,-42v0,-4,1,-7,1,-10v-19,-7,-35,-23,-39,-41r0,-211r-18,0r0,-74","w":188},",":{"d":"59,-21r0,-72r77,0r0,84r-96,83r-20,-32","w":173},".":{"d":"26,0r0,-93r93,0r0,93r-93,0","w":145},"0":{"d":"106,-338v0,152,81,274,182,274v101,0,181,-122,181,-274v0,-152,-80,-274,-181,-274v-101,0,-182,122,-182,274xm33,-338v0,-192,116,-347,255,-347v140,0,252,155,252,347v0,190,-112,347,-252,347v-139,0,-255,-157,-255,-347","w":586},"1":{"d":"140,-579r-74,61r-51,-50r136,-113r61,0r0,681r-72,0r0,-579","w":263},"2":{"d":"371,-321r-220,250r279,0r0,71r-385,0r0,-62r277,-310v23,-25,37,-59,37,-96v0,-81,-66,-144,-149,-144v-39,0,-80,19,-114,52r-52,-52v48,-42,107,-73,166,-73v122,0,220,99,220,217v0,57,-25,109,-59,147","w":475},"3":{"d":"9,-72r50,-50v32,35,79,61,125,61v78,0,142,-57,142,-127v0,-57,-67,-109,-132,-123r-101,0r0,-72r103,0v74,-4,132,-55,132,-114v0,-65,-64,-116,-141,-116v-47,0,-94,21,-128,60r-49,-53v46,-50,111,-79,177,-79v118,0,216,83,216,188v0,64,-39,119,-94,152v54,36,89,90,89,157v0,111,-95,199,-214,199v-68,0,-132,-34,-175,-83","w":431},"4":{"d":"264,-238r-238,0r2,-61r224,-387r63,34r-198,342r147,0r0,-144r73,0r0,144r92,0r0,72r-92,0r0,238r-73,0r0,-238","w":473},"5":{"d":"104,-330r-67,0r25,-351r377,0r0,73r-308,0r-15,150v35,-25,78,-39,125,-39v125,0,224,110,224,247v0,138,-99,250,-224,250v-73,0,-143,-43,-186,-110r52,-52v33,55,82,91,134,91v84,0,152,-80,152,-179v0,-98,-68,-176,-152,-176v-58,0,-111,38,-137,96","w":504},"6":{"d":"251,-415v118,0,217,86,217,214v0,118,-93,209,-212,209v-113,0,-203,-89,-209,-206v-5,-100,-9,-218,9,-306v19,-100,104,-181,209,-181v72,0,141,35,192,103r-69,40v-30,-43,-77,-71,-122,-71v-69,0,-131,54,-143,127v-7,42,-11,86,-12,132v34,-35,84,-61,140,-61xm398,-200v1,-84,-63,-143,-142,-143v-78,0,-138,67,-138,144v0,76,65,136,140,136v77,0,140,-61,140,-137","w":506},"7":{"d":"23,0r284,-608r-253,0r0,-73r369,0r-318,681r-82,0","w":443},"8":{"d":"21,-196v0,-70,38,-133,91,-170v-45,-32,-69,-79,-69,-140v0,-98,83,-179,182,-179v104,0,185,81,185,179v0,59,-25,108,-69,140v56,36,89,98,89,170v0,112,-89,205,-205,205v-111,0,-204,-93,-204,-205xm114,-506v0,59,50,106,111,106v62,0,112,-47,112,-106v0,-59,-50,-106,-112,-106v-61,0,-111,47,-111,106xm94,-196v0,72,60,132,131,132v74,0,134,-60,134,-132v0,-73,-60,-133,-134,-133v-71,0,-131,60,-131,133","w":459},"9":{"d":"238,-265v-113,-1,-209,-89,-209,-209v0,-115,93,-211,211,-211v114,0,206,95,213,207v6,100,8,215,-9,304v-20,107,-114,181,-222,181v-66,0,-134,-39,-179,-96r64,-53v32,48,78,75,122,75v75,0,135,-54,148,-123v8,-40,9,-87,10,-133v-38,35,-91,58,-149,58xm241,-612v-80,0,-143,66,-143,142v0,74,65,134,140,134v79,0,142,-62,142,-140v0,-74,-66,-136,-139,-136","w":489},"\u00bf":{"d":"161,-681r76,0r92,315r0,61r-109,0v-63,2,-114,54,-114,121v0,65,53,120,119,120v43,0,84,-30,112,-76r52,52v-39,58,-98,98,-164,98v-104,0,-189,-89,-189,-194v0,-112,90,-206,214,-194xm222,-753v0,24,-20,42,-41,42v-26,0,-42,-18,-42,-42v0,-26,16,-43,42,-43v21,0,41,17,41,43","w":432},"\u00e6":{"d":"661,-39v-50,26,-93,48,-158,48v-48,0,-94,-21,-130,-51v5,14,14,29,33,42r-108,0r0,-19v-28,18,-61,29,-97,29v-91,0,-167,-71,-167,-158v0,-89,76,-160,167,-160r94,0r3,-15v-1,-64,-39,-112,-84,-112v-37,0,-77,6,-120,19r-18,-70v47,-13,94,-21,139,-21v53,0,100,34,128,83v38,-52,92,-84,150,-84v124,1,213,128,201,292r-326,0r0,23v19,72,74,130,135,130v39,0,94,-22,129,-39xm369,-286r252,0v-12,-86,-64,-149,-128,-149v-64,0,-119,62,-124,149xm298,-148v0,-34,-8,-55,-8,-88r-89,0v-53,0,-94,39,-94,88v0,47,41,84,94,84v53,0,97,-37,97,-84","w":743},"a":{"d":"293,0r0,-19v-28,18,-62,29,-97,29v-91,0,-167,-71,-167,-158v0,-93,80,-160,173,-160r91,0v1,-69,-33,-127,-84,-127v-35,0,-76,6,-120,19r-18,-70v46,-13,93,-21,139,-21v85,0,155,81,155,186v0,0,-2,81,-2,158v0,68,9,142,28,163r-98,0xm293,-148r0,-88r-91,0v-55,0,-101,35,-101,88v0,47,43,84,95,84v54,0,97,-37,97,-84","w":406},"b":{"d":"119,-399r0,295v0,22,57,41,126,41v92,0,169,-85,169,-187v0,-99,-77,-185,-169,-185v-63,0,-117,17,-126,36xm119,-15r0,15r-93,0v20,-29,24,-104,24,-104r0,-577r72,0r0,197v34,-15,75,-23,123,-23v134,0,241,118,241,257v0,141,-108,260,-242,260v-51,0,-92,-10,-125,-25","w":523},"c":{"d":"438,-417r-52,53v-36,-43,-84,-71,-132,-71v-93,0,-169,83,-169,186v0,102,76,185,169,185v46,0,92,-25,129,-67r53,51v-52,54,-115,89,-182,89v-130,0,-240,-117,-240,-258v0,-142,110,-258,240,-258v69,0,136,37,184,90","w":478},"?":{"d":"247,0r-78,0r-88,-312r0,-60r105,0v63,-2,114,-53,114,-119v0,-67,-53,-122,-117,-122v-43,0,-83,32,-110,78r-51,-51v37,-59,96,-99,161,-99v104,0,187,88,187,194v0,111,-87,201,-213,190xm184,74v0,-25,20,-41,41,-41v25,0,41,16,41,41v0,23,-16,44,-41,44v-21,0,-41,-21,-41,-44","w":410},"\u00b4":{"d":"213,-632r-142,113r-58,0r85,-113r115,0","w":209},"`":{"d":"131,-519r-144,-113r117,0r85,113r-58,0","w":204},"\u00e0":{"d":"293,0r0,-19v-28,18,-62,29,-97,29v-91,0,-167,-71,-167,-158v0,-93,80,-160,173,-160r91,0v1,-69,-33,-127,-84,-127v-35,0,-76,6,-120,19r-18,-70v46,-13,93,-21,139,-21v85,0,155,81,155,186v0,0,-2,81,-2,158v0,68,9,142,28,163r-98,0xm293,-148r0,-88r-91,0v-55,0,-101,35,-101,88v0,47,43,84,95,84v54,0,97,-37,97,-84xm191,-519r-144,-113r117,0r85,113r-58,0","w":406},"\u00e1":{"d":"293,0r0,-19v-28,18,-62,29,-97,29v-91,0,-167,-71,-167,-158v0,-93,80,-160,173,-160r91,0v1,-69,-33,-127,-84,-127v-35,0,-76,6,-120,19r-18,-70v46,-13,93,-21,139,-21v85,0,155,81,155,186v0,0,-2,81,-2,158v0,68,9,142,28,163r-98,0xm293,-148r0,-88r-91,0v-55,0,-101,35,-101,88v0,47,43,84,95,84v54,0,97,-37,97,-84xm348,-632r-142,113r-58,0r85,-113r115,0","w":406},"\u00c0":{"d":"219,-346r157,0r-79,-210v-10,25,-21,55,-30,80xm15,0r255,-691r55,0r255,691r-76,0r-101,-273r-210,0r-103,273r-75,0xm291,-710r-144,-113r117,0r85,113r-58,0","w":596},"\u00c1":{"d":"219,-346r157,0r-79,-210v-10,25,-21,55,-30,80xm15,0r255,-691r55,0r255,691r-76,0r-101,-273r-210,0r-103,273r-75,0xm460,-823r-142,113r-58,0r85,-113r115,0","w":596},"\u00c2":{"d":"219,-346r157,0r-79,-210v-10,25,-21,55,-30,80xm15,0r255,-691r55,0r255,691r-76,0r-101,-273r-210,0r-103,273r-75,0","w":596},"\u00c8":{"d":"395,-403r0,73r-290,0r0,257r340,0r0,73r-412,0r0,-691r412,0r0,71r-340,0r0,217r290,0xm222,-710r-144,-113r117,0r85,113r-58,0","w":485},"\u00c9":{"d":"395,-403r0,73r-290,0r0,257r340,0r0,73r-412,0r0,-691r412,0r0,71r-340,0r0,217r290,0xm377,-823r-142,113r-58,0r85,-113r115,0","w":485},"\u00d2":{"d":"502,-548v-43,-46,-102,-73,-166,-73v-134,0,-242,122,-242,276v0,155,107,280,242,280v139,0,244,-125,244,-280v0,-81,-30,-153,-78,-203xm651,-345v0,192,-131,354,-315,354v-169,0,-316,-153,-316,-354v0,-194,141,-350,316,-350v181,0,315,155,315,350xm313,-710r-144,-113r117,0r85,113r-58,0"},"\u00d3":{"d":"502,-548v-43,-46,-102,-73,-166,-73v-134,0,-242,122,-242,276v0,155,107,280,242,280v139,0,244,-125,244,-280v0,-81,-30,-153,-78,-203xm651,-345v0,192,-131,354,-315,354v-169,0,-316,-153,-316,-354v0,-194,141,-350,316,-350v181,0,315,155,315,350xm515,-823r-142,113r-58,0r85,-113r115,0"},"\u00d9":{"d":"108,-691r0,509v10,61,90,117,187,117v92,0,181,-55,181,-117r0,-509r73,0r0,510v-4,103,-119,190,-254,190v-142,0,-263,-86,-263,-189r0,-511r76,0xm285,-710r-144,-113r117,0r85,113r-58,0","w":598},"\u00da":{"d":"108,-691r0,509v10,61,90,117,187,117v92,0,181,-55,181,-117r0,-509r73,0r0,510v-4,103,-119,190,-254,190v-142,0,-263,-86,-263,-189r0,-511r76,0xm456,-823r-142,113r-58,0r85,-113r115,0","w":598},"\u00dd":{"d":"561,-691r94,0r-286,382r0,309r-74,0r0,-309r-285,-382r95,0r226,310xm506,-823r-142,113r-58,0r85,-113r115,0","w":681},"\u00e8":{"d":"390,-39v-53,26,-93,48,-157,48v-116,0,-216,-111,-215,-259v0,-142,93,-258,204,-258v125,1,212,128,200,292r-329,0v10,88,68,152,140,153v37,0,93,-22,129,-39xm95,-286r255,0v-11,-86,-63,-149,-128,-149v-61,0,-113,66,-127,149xm220,-519r-144,-113r117,0r85,113r-58,0","w":456},"\u00e9":{"d":"390,-39v-53,26,-93,48,-157,48v-116,0,-216,-111,-215,-259v0,-142,93,-258,204,-258v125,1,212,128,200,292r-329,0v10,88,68,152,140,153v37,0,93,-22,129,-39xm95,-286r255,0v-11,-86,-63,-149,-128,-149v-61,0,-113,66,-127,149xm377,-632r-142,113r-58,0r85,-113r115,0","w":456},"\u00ec":{"d":"77,0r0,-501r70,0r0,501r-70,0xm118,-535r-144,-113r117,0r85,113r-58,0","w":211},"\u00ed":{"d":"49,0r0,-501r72,0r0,501r-72,0xm224,-648r-142,113r-58,0r85,-113r115,0","w":211},"\u00f2":{"d":"86,-248v0,102,73,185,163,185v89,0,162,-83,162,-185v0,-103,-73,-187,-162,-187v-90,0,-163,84,-163,187xm13,-248v0,-143,107,-259,236,-259v131,0,235,116,235,259v0,141,-104,258,-235,258v-129,0,-236,-117,-236,-258xm256,-519r-144,-113r117,0r85,113r-58,0","w":527},"\u00f3":{"d":"86,-248v0,102,73,185,163,185v89,0,162,-83,162,-185v0,-103,-73,-187,-162,-187v-90,0,-163,84,-163,187xm13,-248v0,-143,107,-259,236,-259v131,0,235,116,235,259v0,141,-104,258,-235,258v-129,0,-236,-117,-236,-258xm419,-632r-142,113r-58,0r85,-113r115,0","w":527},"\u00f9":{"d":"107,-185v3,64,49,120,111,120v51,0,96,-52,107,-104r0,-332r72,0r0,439v0,20,16,50,28,62r-100,0r0,-36v-31,28,-69,45,-114,45v-93,0,-168,-81,-172,-184r-3,-3r0,-321r71,0r0,314xm219,-519r-144,-113r117,0r85,113r-58,0","w":450},"\u00fa":{"d":"107,-185v3,64,49,120,111,120v51,0,96,-52,107,-104r0,-332r72,0r0,439v0,20,16,50,28,62r-100,0r0,-36v-31,28,-69,45,-114,45v-93,0,-168,-81,-172,-184r-3,-3r0,-321r71,0r0,314xm366,-632r-142,113r-58,0r85,-113r115,0","w":450},"\u00fd":{"d":"40,180r11,-83v19,20,33,20,43,20v38,0,78,-27,98,-77r35,-87r-27,-69r-160,-391r77,0r146,368r146,-368r77,0r-205,508v-7,20,-17,43,-25,65v-28,77,-100,122,-163,122v-17,0,-34,-3,-53,-8xm429,-632r-142,113r-58,0r85,-113r115,0","w":535},":":{"d":"44,0r0,-93r93,0r0,93r-93,0xm44,-409r0,-92r93,0r0,92r-93,0","w":182},";":{"d":"44,-409r0,-92r91,0r0,92r-91,0xm49,-21r0,-72r78,0r0,84r-98,83r-20,-32","w":169},"=":{"d":"57,-369r0,-74r346,0r0,74r-346,0xm57,-188r0,-73r346,0r0,73r-346,0","w":440},"\u00c7":{"d":"587,-585r-52,48v-50,-55,-115,-87,-176,-87v-136,0,-245,128,-245,282v0,150,108,280,245,280v61,0,124,-33,174,-85r52,49v-63,66,-138,102,-219,106v19,11,40,34,40,59v0,22,-17,49,-65,76r-80,-59v17,0,81,-4,81,-19v-6,-16,-36,-13,-57,-13r1,-52v-137,-37,-244,-174,-244,-342v0,-199,142,-353,317,-353v84,0,164,41,228,110","w":634},"\u00e7":{"d":"292,8v20,9,45,33,45,62v0,22,-17,48,-64,77r-71,-56v26,-3,70,-11,70,-19v-5,-23,-33,-15,-56,-16r2,-53v-110,-24,-190,-126,-190,-253v0,-140,107,-257,242,-257v68,0,134,35,184,91r-50,50v-39,-42,-88,-69,-134,-69v-94,0,-170,83,-170,185v0,103,76,186,170,186v45,0,92,-24,129,-64r52,49v-43,46,-101,79,-159,87","w":493},"\u00a2":{"d":"217,-503r0,-66r76,0r0,66v53,9,105,43,145,86r-52,53v-26,-33,-58,-58,-93,-66r0,363v31,-10,65,-34,92,-63r51,50v-44,47,-89,78,-143,86r0,64r-76,0r0,-65v-109,-23,-203,-130,-203,-254v0,-129,88,-237,203,-254xm85,-249v0,88,55,164,132,182r0,-363v-77,17,-132,93,-132,181","w":478},"|":{"d":"40,-1r0,-704r57,0r0,704r-57,0","w":131},"$":{"d":"190,-382r0,-224v-53,17,-91,59,-91,109v0,50,34,97,91,115xm262,-294r0,226v54,-12,94,-53,94,-107v0,-53,-40,-102,-94,-119xm190,-724r72,0r0,40v67,4,124,39,169,90r-57,46v-30,-35,-69,-60,-112,-65r0,248v99,23,168,95,168,187v0,89,-76,164,-168,183r0,57r-72,0r0,-55v-69,-8,-132,-49,-170,-105r57,-46v26,37,66,74,113,79r0,-241v-101,-22,-166,-96,-166,-188v0,-91,72,-164,166,-185r0,-45","w":466},"\"":{"d":"32,-529r-11,-152r76,0r9,77r-47,102xm102,-529r-11,-152r77,0r8,77r-47,102","w":217},"\u00aa":{"d":"192,-300r-76,-1v-53,20,-106,-18,-105,-67v0,-43,37,-73,91,-69v-2,-8,-7,-14,-11,-14v-15,0,-29,3,-56,11r-11,-57v23,-6,42,-10,67,-10v35,0,66,33,68,81v0,0,-1,26,-1,53v0,20,16,56,34,73xm104,-382v-17,-2,-37,2,-37,14v0,7,9,15,19,15v15,-1,20,-12,18,-29","w":179},"\u00ba":{"d":"69,-397v0,24,22,49,45,49v20,0,40,-25,40,-49v0,-28,-20,-54,-40,-54v-23,0,-45,26,-45,54xm13,-397v0,-64,43,-110,101,-110v53,0,97,46,97,110v0,59,-44,105,-97,105v-58,0,-101,-46,-101,-105","w":232},"\u00b2":{"d":"114,-358r134,0r0,61r-228,0r0,-51r150,-168v39,-39,3,-109,-49,-107v-15,0,-38,12,-63,36r-46,-47v35,-30,70,-51,109,-51v72,0,127,57,127,126v0,32,-15,68,-34,89","w":280},"\u00b3":{"d":"33,-383r20,0v16,17,39,30,58,30v30,0,61,-24,61,-53v0,-29,-29,-56,-57,-56r-65,0r0,-61r67,0v27,-1,55,-26,55,-50v0,-24,-29,-47,-60,-47v-19,0,-44,14,-68,40r-44,-48v33,-35,71,-53,112,-53v68,0,123,48,123,108v0,36,-11,65,-38,84v20,22,36,53,36,83v0,64,-54,113,-122,113v-44,0,-81,-21,-113,-55","w":265},"\u00a8":{"d":"25,-626v0,-22,20,-41,43,-41v22,0,43,19,43,41v0,22,-21,42,-43,42v-23,0,-43,-20,-43,-42xm150,-626v0,-22,20,-41,43,-41v23,0,44,19,44,41v0,22,-21,42,-44,42v-23,0,-43,-20,-43,-42","w":263},"\u00e4":{"d":"100,-626v0,-22,19,-41,44,-41v22,0,43,19,43,41v0,22,-21,42,-43,42v-25,0,-44,-20,-44,-42xm226,-626v0,-22,20,-41,43,-41v23,0,43,19,43,41v0,22,-20,42,-43,42v-23,0,-43,-20,-43,-42xm300,-16r0,-19v-28,18,-62,29,-97,29v-91,0,-167,-71,-167,-158v0,-93,80,-160,173,-160r91,0v1,-69,-33,-127,-84,-127v-35,0,-76,6,-120,19r-18,-70v46,-13,93,-21,139,-21v85,0,155,81,155,186v0,0,-2,81,-2,158v0,68,9,142,28,163r-98,0xm300,-164r0,-88r-91,0v-55,0,-101,35,-101,88v0,47,43,84,95,84v54,0,97,-37,97,-84","w":406},"\u00eb":{"d":"390,-39v-53,26,-93,48,-157,48v-116,0,-216,-111,-215,-259v0,-142,93,-258,204,-258v125,1,212,128,200,292r-329,0v10,88,68,152,140,153v37,0,93,-22,129,-39xm95,-286r255,0v-11,-86,-63,-149,-128,-149v-61,0,-113,66,-127,149xm118,-626v0,-22,20,-41,43,-41v22,0,43,19,43,41v0,22,-21,42,-43,42v-23,0,-43,-20,-43,-42xm243,-626v0,-22,20,-41,43,-41v23,0,44,19,44,41v0,22,-21,42,-44,42v-23,0,-43,-20,-43,-42","w":456},"\u00f6":{"d":"86,-248v0,102,73,185,163,185v89,0,162,-83,162,-185v0,-103,-73,-187,-162,-187v-90,0,-163,84,-163,187xm13,-248v0,-143,107,-259,236,-259v131,0,235,116,235,259v0,141,-104,258,-235,258v-129,0,-236,-117,-236,-258xm159,-626v0,-22,20,-41,43,-41v22,0,43,19,43,41v0,22,-21,42,-43,42v-23,0,-43,-20,-43,-42xm284,-626v0,-22,20,-41,43,-41v23,0,44,19,44,41v0,22,-21,42,-44,42v-23,0,-43,-20,-43,-42","w":527},"\u00fc":{"d":"107,-185v3,64,49,120,111,120v51,0,96,-52,107,-104r0,-332r72,0r0,439v0,20,16,50,28,62r-100,0r0,-36v-31,28,-69,45,-114,45v-93,0,-168,-81,-172,-184r-3,-3r0,-321r71,0r0,314xm115,-626v0,-22,20,-41,43,-41v22,0,43,19,43,41v0,22,-21,42,-43,42v-23,0,-43,-20,-43,-42xm240,-626v0,-22,20,-41,43,-41v23,0,44,19,44,41v0,22,-21,42,-44,42v-23,0,-43,-20,-43,-42","w":450},"\u00ff":{"d":"40,180r11,-83v19,20,33,20,43,20v38,0,78,-27,98,-77r35,-87r-27,-69r-160,-391r77,0r146,368r146,-368r77,0r-205,508v-7,20,-17,43,-25,65v-28,77,-100,122,-163,122v-17,0,-34,-3,-53,-8xm168,-626v0,-22,20,-41,43,-41v22,0,43,19,43,41v0,22,-21,42,-43,42v-23,0,-43,-20,-43,-42xm293,-626v0,-22,20,-41,43,-41v23,0,44,19,44,41v0,22,-21,42,-44,42v-23,0,-43,-20,-43,-42","w":535},"\u00ef":{"d":"49,0r0,-501r70,0r0,501r-70,0xm-2,-626v0,-22,20,-41,43,-41v23,0,43,19,43,41v0,22,-20,42,-43,42v-23,0,-43,-20,-43,-42xm86,-626v0,-22,19,-41,44,-41v22,0,43,19,43,41v0,22,-21,42,-43,42v-25,0,-44,-20,-44,-42","w":177},"\u00f1":{"d":"161,-646v46,-1,44,16,85,16v22,0,52,-12,73,-30r30,58v-30,21,-70,34,-104,34v-36,0,-54,-15,-87,-16v-23,0,-51,13,-74,28r-25,-58v27,-18,64,-32,102,-32xm105,-513r0,32v32,-32,67,-44,115,-44v95,0,173,83,174,188r2,321r-72,0r0,-321v-1,-65,-50,-116,-109,-116v-51,0,-97,50,-110,104r0,333r-71,0r0,-442v0,-17,-17,-44,-28,-55r99,0","w":433},"\u00f5":{"d":"86,-248v0,102,73,185,163,185v89,0,162,-83,162,-185v0,-103,-73,-187,-162,-187v-90,0,-163,84,-163,187xm13,-248v0,-143,107,-259,236,-259v131,0,235,116,235,259v0,141,-104,258,-235,258v-129,0,-236,-117,-236,-258xm198,-631v52,-1,72,25,119,27v19,0,42,-9,63,-22r21,60v-62,34,-116,32,-180,-8r20,12v-35,-12,-70,-8,-104,14r-23,-60v28,-15,58,-23,84,-23","w":513},"\u00f8":{"d":"13,-248v0,-143,107,-259,236,-259v68,0,132,36,181,92r-56,49v-37,-43,-82,-69,-125,-69v-90,0,-163,84,-163,187v0,33,8,69,26,102r-55,49v-27,-51,-44,-101,-44,-151xm411,-248v0,-38,-13,-78,-37,-116r57,-48v32,51,53,109,53,164v0,141,-104,258,-235,258v-72,0,-140,-40,-189,-104r53,-49v36,49,86,80,136,80v89,0,162,-83,162,-185","w":513},"!":{"d":"79,-68v24,0,36,16,37,38v0,20,-16,39,-37,39v-23,0,-39,-19,-39,-39v0,-22,16,-38,39,-38xm46,-93r0,-588r65,0r0,588r-65,0","w":176},"\u00a1":{"d":"79,-607v-27,0,-38,-17,-38,-39v0,-20,15,-39,38,-39v20,0,38,19,38,39v0,22,-18,39,-38,39xm111,-584r0,584r-65,0r0,-584r65,0","w":160},"'":{"d":"38,-604r-9,-71r77,-6r9,80r-86,92r-25,-25","w":121},"(":{"d":"158,-698r31,78v-49,60,-80,188,-80,333v0,159,39,295,95,348r-42,67v-76,-75,-130,-234,-130,-415v0,-174,52,-333,126,-411","w":260},")":{"d":"53,-620r29,-78v75,80,129,239,129,411v0,181,-55,340,-130,414r-42,-67v56,-53,94,-188,94,-347v0,-145,-30,-273,-80,-333","w":246},"~":{"d":"322,-307v-44,32,-116,47,-169,19v-41,-10,-74,0,-106,26r-31,-60v46,-31,105,-45,158,-23r-1,-1v15,2,31,10,43,9v25,0,57,-11,80,-30","w":347},"\u00bc":{"d":"256,-361r46,24r-97,165r53,0r0,-71r52,0r0,71r46,0r0,52r-46,0r0,120r-52,0r0,-120r-119,0r0,-40xm52,-407r-37,-36r77,-64r42,0r0,307r-53,0r0,-232v-13,12,-13,9,-29,25","w":382},"\u00bd":{"d":"40,-408r-37,-35r77,-65r42,0r0,308r-52,0r0,-233v-14,12,-14,9,-30,25xm294,-162r-99,111r132,0r0,51r-209,0r0,-41r141,-159v9,-9,16,-26,16,-41v0,-37,-30,-65,-67,-65v-17,0,-36,11,-57,29r-36,-36v30,-27,63,-45,93,-45v67,0,119,51,119,117v0,30,-15,58,-33,79","w":355},"\u00b7":{"d":"46,-310v0,-31,29,-64,66,-64v36,0,67,33,67,64v0,31,-31,61,-67,61v-37,0,-66,-30,-66,-61","w":225},"\u00b0":{"d":"72,-576v0,26,25,50,52,50v22,0,46,-24,46,-50v0,-27,-24,-53,-46,-53v-27,0,-52,26,-52,53xm13,-576v0,-62,47,-109,111,-109v58,0,105,47,105,109v0,59,-47,106,-105,106v-64,0,-111,-47,-111,-106","w":250},"\u00a6":{"d":"97,-385r-57,0r0,-320r57,0r0,320xm40,-355r57,0r0,354r-57,0r0,-354","w":131},"\u00a7":{"d":"286,-472r-31,66v-33,-16,-62,-24,-84,-24v-11,0,-7,-3,-15,0v13,18,31,33,57,46v102,48,154,161,79,246v7,95,-67,146,-147,147v-31,0,-69,-11,-112,-32r32,-61v31,14,58,21,79,21v32,0,62,-13,73,-35v-57,9,-93,-2,-147,-27r31,-64v41,17,67,27,106,19v-13,-20,-34,-35,-61,-49v-69,-35,-118,-101,-118,-159v0,-36,10,-64,37,-86v-7,-92,60,-139,145,-141v29,0,68,9,111,28r-31,68v-32,-17,-61,-25,-82,-25v-30,0,-58,13,-69,35v56,-7,87,3,147,27xm178,-281v31,17,59,37,78,61v6,-41,-30,-80,-76,-104v-30,-16,-59,-34,-78,-60v-6,45,26,76,76,103xm250,-198r6,-22v5,6,9,12,12,18","w":356},"\u00be":{"d":"15,-196r39,-34v17,20,39,33,60,33v35,0,64,-25,64,-55v0,-40,-58,-60,-117,-51r0,-55r59,0v33,-2,59,-22,59,-48v0,-28,-28,-51,-63,-51v-22,0,-45,13,-64,33r-36,-37v28,-30,64,-47,100,-47v63,0,116,44,116,102v0,32,-16,58,-41,75v24,20,39,48,39,79v0,60,-51,107,-116,107v-37,0,-72,-20,-99,-51xm330,-121r-119,0r0,-41r118,-200r46,23r-94,165r49,0r0,-71r53,0r0,71r46,0r0,53r-46,0r0,119r-53,0r0,-119","w":458},"\u00b6":{"d":"334,-680r0,678r-70,0r0,-678r70,0xm274,-681r0,681r-106,0r0,-340v-84,-11,-153,-84,-153,-170v0,-95,75,-171,169,-171r90,0xm156,-416r0,-196v-42,6,-71,47,-71,98v0,50,29,93,71,98","w":382},"\u00c4":{"d":"219,-346r157,0r-79,-210v-10,25,-21,55,-30,80xm15,0r255,-691r55,0r255,691r-76,0r-101,-273r-210,0r-103,273r-75,0xm188,-739v0,-22,20,-41,43,-41v22,0,43,19,43,41v0,22,-21,42,-43,42v-23,0,-43,-20,-43,-42xm313,-739v0,-22,20,-41,43,-41v23,0,44,19,44,41v0,22,-21,42,-44,42v-23,0,-43,-20,-43,-42","w":596},"\u00cb":{"d":"395,-403r0,73r-290,0r0,257r340,0r0,73r-412,0r0,-691r412,0r0,71r-340,0r0,217r290,0xm132,-740v0,-22,20,-41,43,-41v22,0,43,19,43,41v0,22,-21,42,-43,42v-23,0,-43,-20,-43,-42xm257,-740v0,-22,20,-41,43,-41v23,0,44,19,44,41v0,22,-21,42,-44,42v-23,0,-43,-20,-43,-42","w":485},"\u00cf":{"d":"106,-691r0,691r-73,0r0,-691r73,0xm-41,-739v0,-22,20,-41,43,-41v22,0,43,19,43,41v0,22,-21,42,-43,42v-23,0,-43,-20,-43,-42xm84,-739v0,-22,20,-41,43,-41v23,0,44,19,44,41v0,22,-21,42,-44,42v-23,0,-43,-20,-43,-42","w":138},"\u00d6":{"d":"502,-548v-43,-46,-102,-73,-166,-73v-134,0,-242,122,-242,276v0,155,107,280,242,280v139,0,244,-125,244,-280v0,-81,-30,-153,-78,-203xm651,-345v0,192,-131,354,-315,354v-169,0,-316,-153,-316,-354v0,-194,141,-350,316,-350v181,0,315,155,315,350xm235,-740v0,-22,20,-41,43,-41v22,0,43,19,43,41v0,22,-21,42,-43,42v-23,0,-43,-20,-43,-42xm360,-740v0,-22,20,-41,43,-41v23,0,44,19,44,41v0,22,-21,42,-44,42v-23,0,-43,-20,-43,-42"},"\u00dc":{"d":"108,-691r0,509v10,61,90,117,187,117v92,0,181,-55,181,-117r0,-509r73,0r0,510v-4,103,-119,190,-254,190v-142,0,-263,-86,-263,-189r0,-511r76,0xm189,-739v0,-22,20,-41,43,-41v22,0,43,19,43,41v0,22,-21,42,-43,42v-23,0,-43,-20,-43,-42xm314,-739v0,-22,20,-41,43,-41v23,0,44,19,44,41v0,22,-21,42,-44,42v-23,0,-43,-20,-43,-42","w":598},"\u00ce":{"d":"106,-691r0,691r-73,0r0,-691r73,0","w":138},"\u00cd":{"d":"106,-691r0,691r-73,0r0,-691r73,0xm231,-823r-142,113r-58,0r85,-113r115,0","w":154},"\u00cc":{"d":"114,-691r0,691r-73,0r0,-691r73,0xm74,-710r-144,-113r117,0r85,113r-58,0","w":131},"\u00d1":{"d":"36,-691r65,0r315,533r0,-533r73,0r0,691r-66,0r-315,-536r0,536r-72,0r0,-691xm204,-789v52,-1,72,25,119,27v19,0,42,-9,63,-22r21,60v-62,34,-116,32,-180,-8r20,12v-35,-12,-70,-8,-104,14r-23,-60v28,-15,58,-23,84,-23","w":537},"\u00b9":{"d":"140,-579r-74,61r-51,-50r136,-113r61,0r0,315r-72,0r0,-213","w":263},"+":{"d":"257,-256r0,142r-72,0r0,-142r-141,0r0,-72r141,0r0,-142r72,0r0,142r142,0r0,72r-142,0","w":452},"-":{"d":"386,-256r-356,0r0,-72r356,0r0,72","w":421},"\/":{"d":"351,-681r-249,681r-76,0r249,-681r76,0","w":378},"&":{"d":"434,-93v-52,58,-119,93,-193,93v-121,0,-209,-90,-209,-193v0,-74,59,-146,157,-195v1,0,3,-1,5,-1v-61,-70,-78,-113,-78,-149v0,-74,64,-147,162,-147v91,0,153,65,153,141v0,62,-43,115,-129,162r126,160v14,-24,24,-49,35,-96r80,16v-20,59,-40,111,-61,144r-2,10v18,29,25,39,62,70r0,84v-63,-41,-78,-59,-108,-99xm462,-138r-2,-7r20,0r1,5xm264,-430v67,-37,89,-69,89,-113v0,-44,-32,-81,-80,-81v-43,0,-80,35,-80,78v1,44,46,86,71,116xm233,-341v-80,46,-119,94,-119,143v0,63,52,131,127,131v53,0,111,-37,144,-83","w":597},"\u00d5":{"d":"502,-548v-43,-46,-102,-73,-166,-73v-134,0,-242,122,-242,276v0,155,107,280,242,280v139,0,244,-125,244,-280v0,-81,-30,-153,-78,-203xm651,-345v0,192,-131,354,-315,354v-169,0,-316,-153,-316,-354v0,-194,141,-350,316,-350v181,0,315,155,315,350xm280,-790v52,-1,72,25,119,27v19,0,42,-9,63,-22r21,60v-62,34,-116,32,-180,-8r20,12v-35,-12,-70,-8,-104,14r-23,-60v28,-15,58,-23,84,-23"},"\u00d0":{"d":"98,-261r-64,0r0,-72r64,0r0,-358r259,0v137,2,246,155,246,344v0,190,-107,347,-244,347r-261,0r0,-261xm357,-618r-186,0r0,285r166,0r0,72r-166,0r0,188r188,-2v95,-3,171,-124,171,-272v0,-149,-76,-271,-173,-271","w":653},"\u00b1":{"d":"257,-431r0,142r-72,0r0,-142r-141,0r0,-72r141,0r0,-142r72,0r0,142r142,0r0,72r-142,0xm398,-145r-355,0r0,-71r355,0r0,71","w":452},"*":{"d":"265,-457r0,94r-71,0r0,-92v-20,20,-48,47,-64,64r-52,-50r66,-65r-91,0r0,-71r91,0r-65,-65r51,-51r64,64r0,-91r71,0r0,91r65,-64r51,50r-64,65r91,0r0,72r-93,0r66,65r-50,50","w":471},"\u00d7":{"d":"173,-261r-101,101r-51,-50r101,-101r-100,-100r50,-51r101,100r100,-100r51,50r-101,101r101,101r-50,50","w":367},"_":{"d":"458,0r-428,0r0,-71r428,0r0,71","w":513},"\\":{"d":"274,0r-248,-681r75,0r250,681r-77,0","w":371},"\u00f7":{"d":"157,-131r0,-93r93,0r0,93r-93,0xm157,-362r0,-93r93,0r0,93r-93,0xm387,-272r-356,0r0,-72r356,0r0,72","w":425},"@":{"d":"469,-266v0,28,-15,59,22,60v23,0,70,-36,93,-84v13,-27,24,-85,24,-116v0,-107,-91,-198,-224,-198v-151,0,-263,119,-263,276v0,154,100,246,272,246v107,0,188,-45,226,-103r92,0r-14,32v-43,79,-150,152,-303,152v-207,0,-352,-110,-352,-321v0,-205,137,-363,345,-363v158,0,301,104,301,280v0,121,-83,273,-202,273v-19,0,-52,-2,-73,-21v-21,13,-50,24,-77,24v-76,0,-135,-62,-135,-139v0,-78,61,-137,138,-137r59,0v-1,-39,-6,-72,-28,-72v-26,0,-38,1,-61,9r-22,1r-18,-74r23,-1v25,-8,46,-10,79,-10v67,2,92,67,100,144v0,0,-2,74,-2,142xm404,-268r0,-67r-65,0v-40,0,-73,28,-73,67v0,38,31,68,70,68v37,0,68,-30,68,-68","w":754},"\u00a5":{"d":"156,-139r0,-73r137,0r0,-4r-137,0r0,-73r137,0r0,-15r-281,-377r94,0r222,306r227,-306r93,0r-281,377r0,15r137,0r0,73r-137,0r0,4r137,0r0,73r-137,0r0,139r-74,0r0,-139r-137,0","w":681},"\u00a3":{"d":"372,-282r-171,0r0,211r316,0r0,71r-388,0r0,-282r-113,0r0,-72r113,0r0,-327r72,0r0,327r171,0r0,72","w":556},"\u00fe":{"d":"124,-682r0,198v33,-16,73,-25,122,-25v135,0,242,118,242,257v0,145,-107,261,-242,261v-50,0,-88,-12,-123,-27r0,202r-72,0r0,-866r73,0xm121,-398r3,295v-2,20,53,39,122,39v92,0,170,-84,170,-187v0,-99,-78,-185,-170,-185v-62,0,-114,18,-125,38","w":517},"\u00d8":{"d":"651,-345v0,192,-131,352,-315,354v-28,0,-58,-5,-82,-12r0,3r-82,0r12,-34v-98,-56,-164,-173,-164,-311v0,-194,141,-350,316,-350v28,0,59,5,86,13v1,-5,3,-9,3,-9r74,0r-11,37v100,63,163,177,163,309xm580,-345v2,-103,-50,-191,-117,-238r-55,147r-132,363v175,42,302,-98,304,-272xm336,-621v-134,0,-242,122,-242,276v0,105,45,192,115,241r187,-509v-19,-6,-38,-8,-60,-8"},"\u00ac":{"d":"610,-395r0,242r-71,0r0,-171r-505,0r0,-71r576,0","w":662},"\u00bb":{"d":"60,-509r272,230r-228,272r-53,-47r182,-215r-139,-118r-82,-67xm219,-509r272,230r-228,272r-53,-47r182,-215r-139,-118r-82,-67","w":524},">":{"d":"71,-502r251,253r-251,251r-51,-52r201,-199v-32,-32,-62,-60,-94,-94v-31,-31,-80,-80,-107,-109","w":336},"<":{"d":"10,-249r250,-253r52,50r-201,203r201,199r-51,52","w":330},"\u00de":{"d":"123,-692r0,201v33,-15,77,-26,125,-26v137,0,246,120,246,261v0,147,-109,265,-246,265v-51,0,-90,-12,-126,-27r0,205r-71,0r0,-879r72,0xm121,-405r2,300v-2,21,55,41,125,41v94,0,172,-87,172,-191v0,-101,-78,-188,-172,-188v-64,0,-119,17,-127,38","w":535},"^":{"d":"15,-437r254,-250r251,251r-52,51r-200,-201r-202,201","w":551},"\u00ea":{"d":"390,-39v-53,26,-93,48,-157,48v-116,0,-216,-111,-215,-259v0,-142,93,-258,204,-258v125,1,212,128,200,292r-329,0v10,88,68,152,140,153v37,0,93,-22,129,-39xm95,-286r255,0v-11,-86,-63,-149,-128,-149v-61,0,-113,66,-127,149xm99,-549r124,-122r124,123r-47,47r-77,-78r-79,78","w":456},"\u00c3":{"d":"154,-784v43,-29,102,-44,153,-25v41,15,84,5,114,-19r27,57v-30,22,-66,33,-102,33v-34,0,-56,-15,-89,-16v-25,0,-53,11,-74,26xm226,-363r157,0r-79,-210v-10,25,-21,55,-30,80xm22,-17r255,-691r55,0r255,691r-76,0r-101,-273r-210,0r-103,273r-75,0","w":596},"\u00c6":{"d":"502,-346r9,-274r-190,0r-98,274r279,0xm274,-691r641,0r0,71r-340,0r0,217r291,0r0,73r-291,0r0,257r340,0r0,73r-413,0r0,-273r-306,0r-101,273r-77,0","w":1081},"\u00e2":{"d":"293,0r0,-19v-28,18,-62,29,-97,29v-91,0,-167,-71,-167,-158v0,-93,80,-160,173,-160r91,0v1,-69,-33,-127,-84,-127v-35,0,-76,6,-120,19r-18,-70v46,-13,93,-21,139,-21v85,0,155,81,155,186v0,0,-2,81,-2,158v0,68,9,142,28,163r-98,0xm293,-148r0,-88r-91,0v-55,0,-101,35,-101,88v0,47,43,84,95,84v54,0,97,-37,97,-84xm74,-549r124,-122r124,123r-47,47r-77,-78r-79,78","w":406},"\u00df":{"d":"382,-505v0,-54,-51,-105,-117,-105r-150,0r0,213r151,0v65,-2,116,-47,116,-108xm179,-2r-64,-65r0,229r-73,0r0,-843r224,0v104,2,188,83,188,176v0,61,-29,110,-76,143v56,35,89,96,89,162v0,106,-87,196,-201,198r-87,0xm115,-326r0,255r151,0v71,-4,129,-62,129,-129v0,-65,-58,-126,-146,-126r-134,0","w":520},"\u00ab":{"d":"173,-279r273,-230r47,55r-220,185r182,215r-53,47xm14,-279r273,-230r47,55r-220,185r84,100r98,114r-53,48","w":532},"\u00fb":{"d":"107,-185v3,64,49,120,111,120v51,0,96,-52,107,-104r0,-332r72,0r0,439v0,20,16,50,28,62r-100,0r0,-36v-31,28,-69,45,-114,45v-93,0,-168,-81,-172,-184r-3,-3r0,-321r71,0r0,314xm96,-549r124,-122r124,123r-47,47r-77,-78r-79,78","w":450},"\u00f4":{"d":"86,-248v0,102,73,185,163,185v89,0,162,-83,162,-185v0,-103,-73,-187,-162,-187v-90,0,-163,84,-163,187xm13,-248v0,-143,107,-259,236,-259v131,0,235,116,235,259v0,141,-104,258,-235,258v-129,0,-236,-117,-236,-258xm128,-549r124,-122r124,123r-47,47r-77,-78r-79,78","w":513},"\u00f0":{"d":"238,-265v-113,-1,-209,-89,-209,-209v0,-115,93,-211,211,-211v114,0,206,95,213,207v6,100,8,215,-9,304v-20,107,-114,181,-222,181v-66,0,-134,-39,-179,-96r64,-53v32,48,78,75,122,75v75,0,135,-54,148,-123v8,-40,9,-87,10,-133v-38,35,-91,58,-149,58xm241,-612v-80,0,-143,66,-143,142v0,74,65,134,140,134v79,0,142,-62,142,-140v0,-74,-66,-136,-139,-136","w":489},"\u00ee":{"d":"49,0r0,-501r70,0r0,501r-70,0xm-34,-565r124,-122r124,123r-47,47r-77,-78r-79,78","w":177},"#":{"d":"8,-207r60,-74r95,0r38,-102r-194,0r59,-73r160,0r70,-180r75,0r-67,180r191,0r68,-180r76,0r-67,180r122,0r-59,73r-87,0v-12,37,-28,66,-40,102r187,0r-61,74r-152,0r-75,207r-78,0r77,-207r-193,0r-75,207r-77,0r77,-207r-130,0xm279,-383r-39,102r193,0v10,-35,25,-66,37,-102r-191,0","w":714},"\u00e3":{"d":"335,-565v-43,33,-102,49,-157,26r0,1v-38,-13,-72,2,-101,25r-32,-57v42,-28,100,-45,152,-28r-3,0v41,18,82,3,114,-23xm300,-16r0,-19v-28,18,-62,29,-97,29v-91,0,-167,-71,-167,-158v0,-93,80,-160,173,-160r91,0v1,-69,-33,-127,-84,-127v-35,0,-76,6,-120,19r-18,-70v46,-13,93,-21,139,-21v85,0,155,81,155,186v0,0,-2,81,-2,158v0,68,9,142,28,163r-98,0xm300,-164r0,-88r-91,0v-55,0,-101,35,-101,88v0,47,43,84,95,84v54,0,97,-37,97,-84","w":406},"[":{"d":"160,-305r0,234r16,0r0,71v-35,0,-88,-24,-88,-61r0,-226v0,-29,-31,-27,-61,-26r0,-72v30,1,61,4,61,-26r0,-219v5,-30,45,-51,88,-51r0,74v-8,0,-15,3,-16,1r0,208v-8,22,-18,40,-41,44r0,10v20,6,35,20,41,39","w":210},"]":{"d":"14,-681v53,1,91,23,91,59r0,211v0,15,8,26,22,26r36,0r0,72r-36,0v-14,0,-22,11,-22,26r0,226v0,36,-50,61,-91,61r0,-71v11,0,16,1,18,0r0,-232v5,-23,18,-38,38,-42v0,-4,1,-7,1,-10v-19,-7,-35,-23,-39,-41r0,-211r-18,0r0,-74","w":183},"\u00a0":{"w":257}}});
