/*!
 * The following copyright notice may not be removed under any circumstances.
 * 
 * Copyright:
 * Llicència gratuïta / Free License (La Tipomatika)
 * 
 * Trademark:
 * Please refer to the Copyright section for the font trademark attribution
 * notices.
 * 
 * Full name:
 * CicleGorditaItalic
 * 
 * Manufacturer:
 * La Tipomatika
 * 
 * Designer:
 * La Tipomatika (Digital Type Foundry)
 */
Cufon.registerFont({"w":690,"face":{"font-family":"Cicle","font-weight":700,"font-style":"italic","font-stretch":"normal","units-per-em":"1000","panose-1":"2 0 0 0 0 0 0 0 0 0","ascent":"800","descent":"-200","x-height":"188","bbox":"-8 -828 1061 188","underline-thickness":"50","underline-position":"-50","unicode-range":"U+0020-U+00FF"},"glyphs":{" ":{"w":257},"e":{"d":"398,-39v-58,26,-100,46,-167,48v-118,2,-191,-123,-160,-259v32,-142,147,-258,258,-258v114,0,177,110,147,253r-9,39r-329,0v-8,88,36,152,108,153v37,0,98,-22,137,-39xm155,-286r255,0v8,-86,-31,-149,-96,-149v-61,0,-127,66,-159,149","w":456},"f":{"d":"458,-680r-37,73v-24,-6,-35,-6,-44,-6v-48,2,-96,57,-108,122r123,0r-16,73r-123,0r-88,418r-69,0r88,-418r-71,0r16,-73r70,0v16,-106,109,-192,193,-194v15,0,28,0,66,5","w":328},"g":{"d":"297,-152v-31,1,-50,-9,-74,-11v-6,0,-15,2,-17,9v-1,26,32,11,53,11v115,0,189,73,170,164v-19,91,-125,167,-240,167v-110,0,-188,-76,-169,-167v12,-56,61,-108,121,-137v-2,-31,11,-63,26,-84v-33,-32,-46,-78,-35,-129v25,-117,170,-209,314,-168r194,0r-83,72r-29,0v12,27,18,61,10,96v-21,100,-128,177,-241,177xm91,21v-11,52,40,97,112,97v76,0,146,-45,157,-97v11,-51,-40,-96,-116,-96v-72,0,-142,45,-153,96xm203,-329v-12,59,37,107,109,107v76,0,144,-48,156,-107v13,-60,-35,-108,-111,-108v-72,0,-141,48,-154,108","w":551},"p":{"d":"185,-399r-63,297v3,19,54,38,116,38v95,0,189,-85,211,-189v22,-101,-38,-184,-132,-184v-68,0,-127,18,-132,38xm207,-500r-4,16v35,-13,88,-26,130,-26v134,3,218,118,187,257v-40,182,-226,318,-415,237r-42,199r-71,0r122,-582v0,0,13,-71,-8,-101r101,0","w":506},"y":{"d":"1,180r29,-83v15,20,29,20,39,20v38,0,84,-27,114,-77r53,-87r-12,-69r-77,-391r77,0r68,368r224,-368r77,0r-352,573v-45,77,-125,122,-188,122v-17,0,-34,-3,-52,-8","w":535},"R":{"d":"375,0r-206,-303r-64,303r-73,0r146,-691r205,0v113,0,186,79,165,179v-22,101,-128,182,-241,182r-58,0r97,146v37,58,88,131,124,184r-95,0xm366,-621r-130,0r-46,218r132,0v71,0,140,-48,153,-109v13,-59,-36,-109,-109,-109","w":474},"d":{"d":"165,-253v-21,101,36,188,132,188v68,0,126,-22,130,-41r62,-291v-4,-19,-50,-38,-114,-38v-96,0,-189,85,-210,182xm405,-3r3,-15v-35,13,-82,25,-126,25v-132,0,-217,-118,-187,-260v30,-140,163,-253,295,-254v50,0,85,5,117,24r42,-198r72,0r-122,575v0,0,-16,74,14,103r-108,0","w":534},"h":{"d":"180,-683r71,0r-47,219v39,-30,78,-44,124,-44v97,0,155,83,134,187r-65,318r-71,0r68,-318v11,-65,-28,-116,-87,-116v-49,0,-105,51,-131,104r-70,333r-71,0","w":455},"i":{"d":"49,0r106,-501r70,0r-106,501r-70,0xm174,-626v4,-22,26,-41,51,-41v23,0,40,19,36,41v-5,22,-30,42,-53,42v-25,0,-39,-20,-34,-42","w":177},"j":{"d":"304,-621v5,-25,26,-41,52,-41v19,0,36,16,31,41v-5,22,-29,42,-48,42v-26,0,-40,-20,-35,-42xm18,113v27,0,34,0,45,3r2,-3v52,0,102,-49,115,-109r107,-506r71,0r-109,515v-25,94,-105,170,-190,173r-61,-4","w":354},"k":{"d":"265,-681r-67,318r183,-133r113,0r-197,139r130,357r-85,0r-111,-309v-18,13,-34,26,-53,39r-57,270r-100,0v14,-12,36,-39,40,-59r132,-622r72,0","w":440},"l":{"d":"49,0r144,-681r71,0r-144,681r-71,0","w":162},"m":{"d":"212,-501r-8,39v37,-30,77,-44,121,-44v62,0,107,33,128,83v47,-61,111,-85,163,-85v95,0,156,83,134,187r-66,319r-72,0r68,-319v11,-63,-24,-115,-83,-115v-52,0,-109,51,-132,103r-70,331r-72,0r67,-317v13,-65,-24,-115,-84,-115v-50,0,-106,51,-130,103r-70,331r-72,0r93,-440v4,-17,-5,-50,-15,-61r100,0","w":739},"n":{"d":"204,-497r-7,32v39,-32,77,-44,125,-44v95,0,155,83,134,188r-66,321r-72,0r68,-321v13,-65,-26,-116,-85,-116v-51,0,-107,50,-132,104r-70,333r-71,0r93,-442v4,-17,-7,-44,-16,-55r99,0","w":433},"o":{"d":"138,-248v-21,102,34,185,124,185v89,0,180,-83,201,-185v22,-103,-33,-187,-122,-187v-90,0,-181,84,-203,187xm65,-248v31,-143,162,-259,291,-259v131,0,211,116,180,259v-30,141,-159,258,-290,258v-129,0,-211,-117,-181,-258","w":513},"q":{"d":"484,-486r2,-10r71,0r-144,679r-71,0r46,-217v-36,17,-80,24,-125,24v-126,0,-212,-112,-181,-248v39,-173,219,-302,402,-228xm405,-117r60,-282v5,-20,-46,-38,-112,-38v-90,0,-180,80,-201,179v-20,98,36,179,125,179v62,0,116,-17,128,-38","w":513},"r":{"d":"364,-498r-33,70v-20,-7,-23,-7,-28,-7v-51,0,-118,47,-130,104r-70,331r-72,0r93,-440v4,-17,-6,-44,-30,-62r115,0r-8,39v36,-29,78,-44,122,-44v9,0,21,0,41,9","w":279},"s":{"d":"474,-430r-67,42v-25,-29,-64,-46,-107,-46v-54,0,-102,26,-110,64v-8,37,28,73,85,83v88,14,143,82,128,155v-18,83,-107,140,-199,140v-60,0,-124,-29,-154,-80r63,-42v23,29,62,50,103,50v55,0,107,-28,116,-68v7,-35,-35,-77,-85,-87v-83,-18,-145,-84,-130,-152v17,-81,109,-135,202,-135v63,0,121,32,155,76","w":417},"t":{"d":"251,-681r73,0r-39,186r126,0r-16,73r-126,0r-89,422r-71,0r89,-422r-71,0r16,-73r69,0","w":340},"u":{"d":"325,0r7,-36v-37,28,-78,45,-123,45v-93,0,-151,-81,-133,-184r-3,-3r69,-321r71,0r-67,314v-10,66,24,119,85,120v51,0,117,-49,129,-104r71,-332r72,0r-93,439v-5,20,5,50,15,62r-100,0","w":450},"v":{"d":"209,0r-96,-501r76,0r77,387r238,-387r79,0r-311,501r-63,0","w":500},"w":{"d":"774,-501r-311,501r-63,-3r-29,-157r-102,160r-61,-3r-97,-498r77,0r75,384r33,-51r54,-88r-45,-245r80,0r72,386r238,-386r79,0","w":705},"x":{"d":"279,-323r154,-178r86,0r-210,249r104,252r-85,0r-80,-188r-34,41r1,0r-121,147r-86,0r213,-260r-102,-241r87,0","w":444},"z":{"d":"34,0r13,-63r354,-366r-273,0r15,-72r374,0r-13,62r-354,367r276,0r-15,72r-377,0","w":452},"A":{"d":"292,-346r157,0r-34,-210xm15,0r401,-691r55,0r109,691r-76,0r-43,-273r-210,0r-161,273r-75,0","w":596},"B":{"d":"269,-2v-71,3,-152,0,-227,2r146,-691r226,0v106,2,173,84,153,178v-13,61,-53,112,-107,146v46,36,69,98,55,164v-23,108,-131,197,-246,201xm495,-513v12,-56,-31,-107,-97,-107r-153,0r-46,217r154,0v67,-2,129,-48,142,-110xm283,-73v74,-4,144,-62,159,-130v14,-66,-32,-127,-105,-127r-153,0r-55,257r154,0","w":512},"C":{"d":"686,-587r-61,50v-40,-53,-95,-85,-158,-85v-133,0,-268,123,-301,277v-32,152,43,280,182,280v63,0,130,-32,193,-84r40,50v-77,66,-166,108,-248,108v-167,0,-282,-161,-241,-354v39,-186,214,-350,390,-350v83,0,157,42,204,108","w":590},"D":{"d":"417,-618r-187,0r-116,545r189,-2v95,-3,198,-124,229,-272v32,-149,-20,-271,-115,-271xm26,0r146,-691r260,0v137,2,213,155,173,344v-40,190,-179,347,-317,347r-262,0","w":575},"E":{"d":"480,-403r-15,73r-290,0r-55,257r340,0r-15,73r-412,0r146,-691r412,0r-15,71r-340,0r-46,217r290,0","w":485},"F":{"d":"484,-403r-15,73r-290,0r-70,330r-72,0r146,-691r412,0r-15,70r-340,0r-46,218r290,0","w":487},"G":{"d":"574,-98r-4,10v-72,61,-156,97,-239,97v-175,0,-284,-159,-243,-351v41,-194,217,-353,392,-353v83,0,156,41,205,108r-62,51v-39,-53,-96,-85,-159,-85v-135,0,-271,123,-304,279v-32,153,51,280,186,280v55,0,113,-24,160,-59r35,-165r-181,0r15,-71r254,0","w":604},"H":{"d":"511,-330r-330,0r-70,330r-73,0r146,-691r73,0r-61,288r330,0r61,-288r72,0r-146,691r-72,0","w":558},"I":{"d":"252,-691r-146,691r-73,0r146,-691r73,0","w":138},"J":{"d":"399,-691r-109,514v-21,100,-104,186,-178,186v-36,0,-66,-24,-88,-57r58,-50v14,19,29,34,45,34v36,0,75,-47,89,-111r109,-516r74,0","w":305},"K":{"d":"179,-691r73,0r-69,328r352,-328r98,0r-324,303r251,388r-96,0r-216,-333r-90,85r-52,248r-73,0","w":583},"L":{"d":"250,-691r-131,618r322,0r-15,73r-394,0r146,-691r72,0","w":453},"M":{"d":"371,-340r278,-351r67,0r-146,691r-74,0r113,-536r-240,303r-45,0r-114,-303r-113,536r-73,0r146,-691r66,0","w":623},"N":{"d":"182,-691r65,0r202,533r113,-533r73,0r-146,691r-66,0r-202,-536r-113,536r-72,0","w":537},"O":{"d":"653,-345v33,-151,-46,-276,-186,-276v-134,0,-267,122,-300,276v-33,155,47,280,182,280v139,0,271,-125,304,-280xm573,-88v-70,62,-153,97,-239,97v-169,0,-284,-153,-241,-354v41,-194,215,-350,390,-350v181,0,282,155,241,350v-22,104,-76,192,-151,257"},"P":{"d":"315,-329r-133,0r-69,329r-72,0r146,-691r205,0v113,0,186,81,166,178v-22,103,-130,184,-243,184xm376,-620r-132,0r-46,218r133,0v71,0,140,-48,154,-111v12,-58,-38,-107,-109,-107","w":480},"Q":{"d":"622,-367v29,-138,-41,-261,-169,-261v-122,0,-248,117,-278,261v-25,117,19,217,107,249r13,-65v57,-1,92,29,98,69v102,-29,203,-132,229,-253xm289,-116r-8,0v1,-4,4,0,8,0xm693,-367v-33,152,-155,285,-308,320v0,59,28,45,48,9r44,48v-32,33,-62,54,-91,54v-44,0,-71,-47,-71,-106v-146,-13,-246,-149,-209,-325v40,-187,205,-328,361,-328v159,0,266,143,226,328","w":665},"S":{"d":"50,-100r67,-46v22,51,67,82,128,82v73,0,148,-50,161,-114v13,-61,-34,-116,-105,-127v-110,-16,-183,-99,-162,-197v24,-110,138,-192,259,-192v79,0,136,33,176,90r-70,48v-25,-43,-67,-68,-121,-68v-75,0,-155,53,-169,118v-14,65,33,121,110,129v111,12,179,99,158,196v-23,106,-136,190,-254,190v-84,0,-149,-45,-178,-109","w":485},"T":{"d":"665,-620r-214,0r-131,620r-73,0r131,-620r-216,0r15,-71r503,0","w":575},"U":{"d":"254,-691r-108,509v-3,61,65,117,162,117v92,0,193,-54,206,-117r108,-509r73,0r-108,510v-26,103,-159,190,-294,190v-142,0,-245,-87,-223,-189r108,-511r76,0","w":598},"V":{"d":"281,0r-108,-691r75,0r91,569r331,-569r76,0r-401,691r-64,0","w":639},"W":{"d":"1003,-691r-401,691r-65,0r-40,-251r-144,251r-65,0r-109,-691r75,0r91,570r62,-108r0,1r74,-128r-52,-335r75,0r43,273v8,52,17,98,25,147r23,150r331,-570r77,0","w":915},"X":{"d":"295,-353r-126,-338r84,0r104,270r217,-270r85,0r-274,344r59,164r69,183r-85,0r-107,-280r-223,280r-84,0","w":541},"Y":{"d":"707,-691r94,0r-367,382r-65,309r-74,0r65,-309r-204,-382r95,0r160,310","w":681},"Z":{"d":"671,-691r-514,618r337,0r-15,73r-468,0r516,-618r-345,0r15,-73r474,0","w":548},"{":{"d":"224,-305r-49,234r16,0r-15,71v-35,0,-83,-24,-76,-61r49,-226v3,-15,-7,-26,-20,-26r-36,0r15,-72v33,1,61,2,67,-26r46,-219v12,-30,56,-51,99,-51r-15,74v-8,0,-16,3,-17,1r-44,208v-13,22,-26,40,-50,44r-2,10v18,6,30,20,32,39","w":223},"}":{"d":"47,-71r49,-232v10,-23,26,-38,47,-42v1,-4,2,-7,3,-10v-18,-7,-30,-23,-30,-41r45,-211r-18,0r15,-74v53,2,87,24,79,59r-45,211v-3,15,2,26,16,26r36,0r-15,72r-36,0v-14,0,-24,11,-27,26r-49,226v-7,36,-62,61,-103,61r15,-71v11,0,15,1,18,0","w":188},",":{"d":"63,-21r15,-72r77,0r-18,84r-113,83r-13,-32","w":173},".":{"d":"26,0r19,-93r93,0r-19,93r-93,0","w":145},"0":{"d":"177,-338v-32,152,23,274,124,274v101,0,207,-122,239,-274v33,-152,-21,-274,-122,-274v-101,0,-208,122,-241,274xm104,-338v41,-192,190,-347,329,-347v140,0,219,155,178,347v-40,190,-185,347,-325,347v-139,0,-222,-157,-182,-347","w":586},"1":{"d":"176,-518r-41,-50r160,-113r61,0r-144,681r-72,0r123,-579r-75,52v-3,1,-9,6,-12,9","w":263},"2":{"d":"439,-321r-273,250r279,0r-15,71r-385,0r13,-62r343,-310v28,-25,49,-59,57,-96v17,-81,-35,-144,-118,-144v-39,0,-84,19,-125,52r-41,-52v57,-42,122,-73,181,-73v122,0,199,99,174,217v-12,57,-48,109,-90,147","w":475},"3":{"d":"24,-72r60,-50v25,35,66,61,112,61v78,0,154,-57,169,-127v12,-57,-43,-109,-105,-123r-101,0r15,-72r103,0v75,-4,144,-55,156,-114v14,-65,-39,-116,-116,-116v-47,0,-99,21,-141,60r-38,-53v57,-50,128,-79,194,-79v118,0,198,83,176,188v-13,64,-64,119,-126,152v46,36,69,90,55,157v-24,111,-137,199,-256,199v-68,0,-125,-34,-157,-83","w":431},"4":{"d":"314,-238r-238,0r15,-61r306,-387r56,34r-271,342r147,0r31,-144r73,0r-31,144r92,0r-15,72r-92,0r-50,238r-73,0","w":473},"5":{"d":"174,-330r-67,0r99,-351r377,0r-15,73r-308,0r-22,67v-9,32,-12,46,-25,83v40,-25,86,-39,133,-39v125,0,201,110,172,247v-30,138,-152,250,-277,250v-73,0,-134,-43,-163,-110r63,-52v21,55,63,91,115,91v84,0,169,-80,190,-179v20,-98,-31,-176,-115,-176v-58,0,-119,38,-157,96","w":504},"6":{"d":"339,-415v118,-3,200,91,171,214v-27,117,-137,209,-256,209v-113,0,-185,-89,-165,-206r-1,1v16,-105,40,-221,75,-307v41,-100,142,-181,247,-181v72,0,134,35,170,103r-77,40v-21,-43,-62,-71,-107,-71v-69,0,-143,54,-170,127v-16,42,-29,86,-40,132v41,-35,96,-60,153,-61xm271,-63v80,0,157,-64,171,-145v13,-76,-37,-135,-114,-135v-78,0,-152,67,-168,144v-16,76,36,136,111,136","w":506},"7":{"d":"23,0r413,-608r-253,0r15,-73r369,0r-462,681r-82,0","w":443},"8":{"d":"62,-196v15,-70,66,-133,127,-170v-38,-32,-52,-79,-39,-140v21,-98,121,-179,220,-179v104,0,168,81,147,179v-12,59,-48,108,-99,140v49,36,68,98,53,170v-24,112,-132,205,-248,205v-111,0,-185,-93,-161,-205xm221,-506v-12,59,28,106,89,106v62,0,122,-47,134,-106v13,-59,-27,-106,-89,-106v-61,0,-121,47,-134,106xm135,-196v-15,72,32,132,103,132v74,0,147,-60,162,-132v16,-73,-32,-133,-106,-133v-71,0,-143,60,-159,133","w":459},"9":{"d":"294,-265v-113,0,-191,-92,-165,-209v25,-115,138,-211,256,-211v114,0,185,95,169,207v-15,104,-39,217,-74,304v-43,107,-152,181,-260,181v-66,0,-126,-39,-159,-96r76,-53v21,48,62,75,106,75v75,0,146,-53,174,-123v16,-40,27,-87,38,-133v-45,35,-103,58,-161,58xm371,-612v-80,0,-160,65,-174,142v-14,73,37,134,112,134v79,0,156,-62,172,-140v16,-74,-37,-136,-110,-136","w":489},"\u00bf":{"d":"305,-681r76,0r25,315r-13,61r-109,0v-63,2,-125,54,-139,121v-14,65,27,120,93,120v43,0,90,-30,128,-76r41,52v-51,58,-119,98,-185,98v-104,0,-170,-89,-147,-194v22,-103,126,-194,225,-194r30,0v-2,-27,-6,-59,-6,-88v0,-68,-14,-154,-19,-215xm382,-753v-5,24,-29,42,-50,42v-26,0,-38,-18,-33,-42v6,-26,25,-43,51,-43v21,0,38,17,32,43","w":432},"\u00e6":{"d":"298,0r4,-19v-32,18,-68,29,-104,29v-91,0,-152,-71,-133,-158v19,-89,110,-160,201,-160r94,0r6,-15v13,-64,-15,-112,-60,-112v-37,0,-78,6,-124,19r-3,-70v50,-13,98,-21,143,-21v53,0,93,34,111,83v49,-52,109,-84,167,-84v113,0,178,110,148,253r-9,39r-326,0r-4,23v3,72,46,130,107,130v39,0,99,-22,137,-39r16,63v-46,24,-95,40,-142,47v-63,9,-110,-15,-146,-50v2,14,8,29,25,42r-108,0xm429,-286r252,0v7,-86,-32,-149,-96,-149v-64,0,-132,62,-156,149xm329,-148v6,-27,3,-56,11,-88r-89,0v-53,0,-103,39,-113,88v-10,47,23,84,76,84v53,0,104,-37,115,-84","w":743},"a":{"d":"293,0r4,-19v-32,18,-69,29,-104,29v-91,0,-152,-71,-133,-158v20,-93,114,-160,207,-160r91,0v16,-65,-6,-126,-57,-127v-35,0,-77,6,-124,19r-3,-70v49,-13,97,-21,143,-21v86,1,138,88,116,186r-36,158v-14,68,-21,142,-6,163r-98,0xm324,-148r19,-88r-91,0v-55,0,-109,35,-120,88v-10,47,25,84,77,84v54,0,105,-37,115,-84","w":406},"b":{"d":"203,-399r-62,295v-5,22,48,41,117,41v92,0,187,-85,209,-187v21,-99,-38,-185,-130,-185v-63,0,-121,17,-134,36xm122,-15r-3,15r-93,0v26,-29,46,-104,46,-104r122,-577r72,0r-42,197v38,-15,80,-23,128,-23v134,0,216,118,187,257v-30,141,-163,260,-298,260v-50,0,-89,-10,-119,-25","w":523},"c":{"d":"526,-417r-63,53v-27,-43,-69,-71,-117,-71v-93,0,-187,83,-209,186v-21,102,37,185,130,185v46,0,97,-25,143,-67r43,51v-64,54,-134,89,-201,89v-130,0,-216,-117,-186,-258v31,-142,165,-258,295,-258v69,0,128,37,165,90","w":478},"?":{"d":"247,0r-78,0r-22,-312r13,-60r105,0v63,-2,125,-53,139,-119v14,-67,-27,-122,-91,-122v-43,0,-90,32,-127,78r-40,-51v50,-59,117,-99,182,-99v104,0,168,88,146,194v-22,102,-122,190,-225,190r-29,0xm168,74v5,-25,28,-41,49,-41v25,0,38,16,33,41v-5,23,-26,44,-51,44v-21,0,-36,-21,-31,-44","w":410},"\u00b4":{"d":"347,-632r-166,113r-58,0r109,-113r115,0","w":209},"`":{"d":"241,-519r-120,-113r117,0r61,113r-58,0","w":204},"\u00e0":{"d":"293,0r4,-19v-32,18,-69,29,-104,29v-91,0,-152,-71,-133,-158v20,-93,114,-160,207,-160r91,0v16,-65,-6,-126,-57,-127v-35,0,-77,6,-124,19r-3,-70v49,-13,97,-21,143,-21v86,1,138,88,116,186r-36,158v-14,68,-21,142,-6,163r-98,0xm324,-148r19,-88r-91,0v-55,0,-109,35,-120,88v-10,47,25,84,77,84v54,0,105,-37,115,-84xm301,-519r-120,-113r117,0r61,113r-58,0","w":406},"\u00e1":{"d":"293,0r4,-19v-32,18,-69,29,-104,29v-91,0,-152,-71,-133,-158v20,-93,114,-160,207,-160r91,0v16,-65,-6,-126,-57,-127v-35,0,-77,6,-124,19r-3,-70v49,-13,97,-21,143,-21v86,1,138,88,116,186r-36,158v-14,68,-21,142,-6,163r-98,0xm324,-148r19,-88r-91,0v-55,0,-109,35,-120,88v-10,47,25,84,77,84v54,0,105,-37,115,-84xm482,-632r-166,113r-58,0r109,-113r115,0","w":406},"\u00c0":{"d":"292,-346r157,0r-34,-210xm15,0r401,-691r55,0r109,691r-76,0r-43,-273r-210,0r-161,273r-75,0xm441,-710r-120,-113r117,0r61,113r-58,0","w":596},"\u00c1":{"d":"292,-346r157,0r-34,-210xm15,0r401,-691r55,0r109,691r-76,0r-43,-273r-210,0r-161,273r-75,0xm634,-823r-166,113r-58,0r109,-113r115,0","w":596},"\u00c2":{"d":"292,-346r157,0r-34,-210xm15,0r401,-691r55,0r109,691r-76,0r-43,-273r-210,0r-161,273r-75,0","w":596},"\u00c8":{"d":"480,-403r-15,73r-290,0r-55,257r340,0r-15,73r-412,0r146,-691r412,0r-15,71r-340,0r-46,217r290,0xm372,-710r-120,-113r117,0r61,113r-58,0","w":485},"\u00c9":{"d":"480,-403r-15,73r-290,0r-55,257r340,0r-15,73r-412,0r146,-691r412,0r-15,71r-340,0r-46,217r290,0xm551,-823r-166,113r-58,0r109,-113r115,0","w":485},"\u00d2":{"d":"653,-345v33,-151,-46,-276,-186,-276v-134,0,-267,122,-300,276v-33,155,47,280,182,280v139,0,271,-125,304,-280xm573,-88v-70,62,-153,97,-239,97v-169,0,-284,-153,-241,-354v41,-194,215,-350,390,-350v181,0,282,155,241,350v-22,104,-76,192,-151,257xm463,-710r-120,-113r117,0r61,113r-58,0"},"\u00d3":{"d":"653,-345v33,-151,-46,-276,-186,-276v-134,0,-267,122,-300,276v-33,155,47,280,182,280v139,0,271,-125,304,-280xm573,-88v-70,62,-153,97,-239,97v-169,0,-284,-153,-241,-354v41,-194,215,-350,390,-350v181,0,282,155,241,350v-22,104,-76,192,-151,257xm689,-823r-166,113r-58,0r109,-113r115,0"},"\u00d9":{"d":"254,-691r-108,509v-3,61,65,117,162,117v92,0,193,-54,206,-117r108,-509r73,0r-108,510v-26,103,-159,190,-294,190v-142,0,-245,-87,-223,-189r108,-511r76,0xm435,-710r-120,-113r117,0r61,113r-58,0","w":598},"\u00da":{"d":"254,-691r-108,509v-3,61,65,117,162,117v92,0,193,-54,206,-117r108,-509r73,0r-108,510v-26,103,-159,190,-294,190v-142,0,-245,-87,-223,-189r108,-511r76,0xm630,-823r-166,113r-58,0r109,-113r115,0","w":598},"\u00dd":{"d":"707,-691r94,0r-367,382r-65,309r-74,0r65,-309r-204,-382r95,0r160,310xm680,-823r-166,113r-58,0r109,-113r115,0","w":681},"\u00e8":{"d":"398,-39v-58,26,-100,46,-167,48v-118,2,-191,-123,-160,-259v32,-142,147,-258,258,-258v114,0,177,110,147,253r-9,39r-329,0v-8,88,36,152,108,153v37,0,98,-22,137,-39xm155,-286r255,0v8,-86,-31,-149,-96,-149v-61,0,-127,66,-159,149xm330,-519r-120,-113r117,0r61,113r-58,0","w":456},"\u00e9":{"d":"398,-39v-58,26,-100,46,-167,48v-118,2,-191,-123,-160,-259v32,-142,147,-258,258,-258v114,0,177,110,147,253r-9,39r-329,0v-8,88,36,152,108,153v37,0,98,-22,137,-39xm155,-286r255,0v8,-86,-31,-149,-96,-149v-61,0,-127,66,-159,149xm511,-632r-166,113r-58,0r109,-113r115,0","w":456},"\u00ec":{"d":"77,0r106,-501r70,0r-106,501r-70,0xm232,-535r-120,-113r117,0r61,113r-58,0","w":211},"\u00ed":{"d":"49,0r106,-501r72,0r-106,501r-72,0xm361,-648r-166,113r-58,0r109,-113r115,0","w":211},"\u00f2":{"d":"138,-248v-21,102,34,185,124,185v89,0,180,-83,201,-185v22,-103,-33,-187,-122,-187v-90,0,-181,84,-203,187xm65,-248v31,-143,162,-259,291,-259v131,0,211,116,180,259v-30,141,-159,258,-290,258v-129,0,-211,-117,-181,-258xm366,-519r-120,-113r117,0r61,113r-58,0","w":527},"\u00f3":{"d":"138,-248v-21,102,34,185,124,185v89,0,180,-83,201,-185v22,-103,-33,-187,-122,-187v-90,0,-181,84,-203,187xm65,-248v31,-143,162,-259,291,-259v131,0,211,116,180,259v-30,141,-159,258,-290,258v-129,0,-211,-117,-181,-258xm553,-632r-166,113r-58,0r109,-113r115,0","w":527},"\u00f9":{"d":"325,0r7,-36v-37,28,-78,45,-123,45v-93,0,-151,-81,-133,-184r-3,-3r69,-321r71,0r-67,314v-10,66,24,119,85,120v51,0,117,-49,129,-104r71,-332r72,0r-93,439v-5,20,5,50,15,62r-100,0xm329,-519r-120,-113r117,0r61,113r-58,0","w":450},"\u00fa":{"d":"325,0r7,-36v-37,28,-78,45,-123,45v-93,0,-151,-81,-133,-184r-3,-3r69,-321r71,0r-67,314v-10,66,24,119,85,120v51,0,117,-49,129,-104r71,-332r72,0r-93,439v-5,20,5,50,15,62r-100,0xm500,-632r-166,113r-58,0r109,-113r115,0","w":450},"\u00fd":{"d":"1,180r29,-83v15,20,29,20,39,20v38,0,84,-27,114,-77r53,-87r-12,-69r-77,-391r77,0r68,368r224,-368r77,0r-352,573v-45,77,-125,122,-188,122v-17,0,-34,-3,-52,-8xm563,-632r-166,113r-58,0r109,-113r115,0","w":535},":":{"d":"44,0r19,-93r93,0r-19,93r-93,0xm130,-409r20,-92r93,0r-20,92r-93,0","w":182},";":{"d":"130,-409r20,-92r91,0r-20,92r-91,0xm53,-21r15,-72r78,0r-18,84r-115,83r-13,-32","w":169},"=":{"d":"135,-369r16,-74r346,0r-16,74r-346,0xm96,-188r16,-73r346,0r-16,73r-346,0","w":440},"\u00c7":{"d":"711,-585r-62,48v-39,-55,-97,-87,-158,-87v-136,0,-272,128,-305,282v-32,150,49,280,186,280v61,0,131,-33,192,-85r41,49v-77,66,-159,102,-241,106v16,11,32,34,27,59v-5,22,-27,49,-81,76r-67,-59v17,0,81,-4,85,-19v-3,-16,-34,-13,-55,-13r13,-52v-130,-37,-208,-174,-172,-342v42,-199,217,-353,392,-353v84,0,156,41,205,110","w":634},"\u00e7":{"d":"290,8v18,9,38,33,32,62v-5,22,-28,48,-81,77r-59,-56v27,-3,72,-11,74,-19v0,-23,-29,-15,-52,-16r13,-53v-105,-24,-163,-126,-136,-253v29,-140,161,-257,296,-257v68,0,127,35,165,91r-61,50v-30,-42,-73,-69,-119,-69v-94,0,-188,83,-209,185v-22,103,36,186,130,186v45,0,97,-24,143,-64r41,49v-52,46,-117,79,-177,87","w":493},"\u00a2":{"d":"323,-503r14,-66r76,0r-14,66v52,9,96,43,127,86r-63,53v-19,-33,-46,-58,-79,-66r-77,363v33,-10,72,-34,105,-63r41,50v-54,47,-106,78,-162,86r-13,64r-76,0r13,-65v-104,-23,-175,-130,-149,-254v28,-129,139,-237,257,-254xm137,-249v-18,88,21,164,94,182r77,-363v-81,17,-152,93,-171,181","w":478},"|":{"d":"40,-1r149,-704r57,0r-149,704r-57,0","w":131},"$":{"d":"271,-382r47,-224v-56,17,-103,59,-114,109v-10,50,14,97,67,115xm324,-294r-48,226v57,-12,105,-53,117,-107v11,-53,-19,-102,-69,-119xm343,-724r72,0r-8,40v66,4,116,39,150,90r-67,46v-23,-35,-56,-60,-98,-65r-53,248v94,23,148,95,128,187v-19,89,-111,164,-207,183r-12,57r-72,0r12,-55v-67,-8,-122,-49,-148,-105r67,-46v18,37,50,74,96,79r52,-241v-97,-22,-146,-96,-126,-188v19,-91,106,-164,205,-185","w":466},"\"":{"d":"144,-529r21,-152r76,0r-7,77r-69,102xm214,-529r21,-152r77,0r-8,77r-69,102","w":217},"\u00aa":{"d":"255,-300r-76,-1v-53,19,-103,-16,-90,-67v11,-43,50,-73,105,-69v0,-8,-4,-14,-8,-14v-15,0,-29,3,-58,11r1,-57v24,-6,44,-10,69,-10v35,0,62,34,51,81r-12,53v-4,20,4,56,18,73xm185,-382v-18,-2,-37,2,-40,14v-2,7,6,15,16,15v15,-1,23,-14,24,-29","w":179},"\u00ba":{"d":"153,-397v-5,24,11,49,34,49v20,0,46,-25,51,-49v6,-28,-9,-54,-29,-54v-23,0,-50,26,-56,54xm97,-397v13,-64,66,-110,124,-110v53,0,87,46,74,110v-13,59,-66,105,-119,105v-58,0,-92,-46,-79,-105","w":232},"\u00b2":{"d":"190,-358r134,0r-13,61r-228,0r10,-51r186,-168v13,-10,23,-29,26,-43v8,-35,-18,-64,-52,-64v-15,0,-41,12,-71,36r-36,-47v42,-30,81,-51,120,-51v72,0,115,57,100,126v-6,32,-30,68,-53,89","w":280},"\u00b3":{"d":"114,-383r20,0v12,17,33,30,52,30v30,0,66,-24,72,-53v6,-29,-18,-56,-45,-56r-65,0r13,-61r67,0v27,-1,60,-26,65,-50v5,-24,-19,-47,-50,-47v-19,0,-47,14,-76,40r-34,-48v40,-35,82,-53,123,-53v68,0,113,48,100,108v-7,36,-25,65,-56,84v16,22,25,53,19,83v-14,64,-78,113,-146,113v-44,0,-77,-21,-102,-55","w":265},"\u00a8":{"d":"158,-626v4,-22,28,-41,51,-41v22,0,39,19,35,41v-5,22,-30,42,-52,42v-23,0,-39,-20,-34,-42xm283,-626v4,-22,28,-41,51,-41v23,0,40,19,36,41v-5,22,-30,42,-53,42v-23,0,-39,-20,-34,-42","w":263},"\u00e4":{"d":"233,-626v4,-22,27,-41,52,-41v22,0,39,19,35,41v-5,22,-30,42,-52,42v-25,0,-40,-20,-35,-42xm359,-626v4,-22,28,-41,51,-41v23,0,39,19,35,41v-5,22,-29,42,-52,42v-23,0,-39,-20,-34,-42xm303,-16r4,-19v-32,18,-69,29,-104,29v-91,0,-152,-71,-133,-158v20,-93,114,-160,207,-160r91,0v16,-65,-6,-126,-57,-127v-35,0,-77,6,-124,19r-3,-70v49,-13,97,-21,143,-21v86,1,138,88,116,186r-36,158v-14,68,-21,142,-6,163r-98,0xm334,-164r19,-88r-91,0v-55,0,-109,35,-120,88v-10,47,25,84,77,84v54,0,105,-37,115,-84","w":406},"\u00eb":{"d":"398,-39v-58,26,-100,46,-167,48v-118,2,-191,-123,-160,-259v32,-142,147,-258,258,-258v114,0,177,110,147,253r-9,39r-329,0v-8,88,36,152,108,153v37,0,98,-22,137,-39xm155,-286r255,0v8,-86,-31,-149,-96,-149v-61,0,-127,66,-159,149xm251,-626v4,-22,28,-41,51,-41v22,0,39,19,35,41v-5,22,-30,42,-52,42v-23,0,-39,-20,-34,-42xm376,-626v4,-22,28,-41,51,-41v23,0,40,19,36,41v-5,22,-30,42,-53,42v-23,0,-39,-20,-34,-42","w":456},"\u00f6":{"d":"138,-248v-21,102,34,185,124,185v89,0,180,-83,201,-185v22,-103,-33,-187,-122,-187v-90,0,-181,84,-203,187xm65,-248v31,-143,162,-259,291,-259v131,0,211,116,180,259v-30,141,-159,258,-290,258v-129,0,-211,-117,-181,-258xm292,-626v4,-22,28,-41,51,-41v22,0,39,19,35,41v-5,22,-30,42,-52,42v-23,0,-39,-20,-34,-42xm417,-626v4,-22,28,-41,51,-41v23,0,40,19,36,41v-5,22,-30,42,-53,42v-23,0,-39,-20,-34,-42","w":527},"\u00fc":{"d":"325,0r7,-36v-37,28,-78,45,-123,45v-93,0,-151,-81,-133,-184r-3,-3r69,-321r71,0r-67,314v-10,66,24,119,85,120v51,0,117,-49,129,-104r71,-332r72,0r-93,439v-5,20,5,50,15,62r-100,0xm248,-626v4,-22,28,-41,51,-41v22,0,39,19,35,41v-5,22,-30,42,-52,42v-23,0,-39,-20,-34,-42xm373,-626v4,-22,28,-41,51,-41v23,0,40,19,36,41v-5,22,-30,42,-53,42v-23,0,-39,-20,-34,-42","w":450},"\u00ff":{"d":"1,180r29,-83v15,20,29,20,39,20v38,0,84,-27,114,-77r53,-87r-12,-69r-77,-391r77,0r68,368r224,-368r77,0r-352,573v-45,77,-125,122,-188,122v-17,0,-34,-3,-52,-8xm301,-626v4,-22,28,-41,51,-41v22,0,39,19,35,41v-5,22,-30,42,-52,42v-23,0,-39,-20,-34,-42xm426,-626v4,-22,28,-41,51,-41v23,0,40,19,36,41v-5,22,-30,42,-53,42v-23,0,-39,-20,-34,-42","w":535},"\u00ef":{"d":"49,0r106,-501r70,0r-106,501r-70,0xm131,-626v4,-22,28,-41,51,-41v23,0,39,19,35,41v-5,22,-29,42,-52,42v-23,0,-39,-20,-34,-42xm219,-626v4,-22,27,-41,52,-41v22,0,39,19,35,41v-5,22,-30,42,-52,42v-25,0,-40,-20,-35,-42","w":177},"\u00f1":{"d":"298,-646v45,0,41,16,81,16v22,0,55,-12,80,-30r17,58v-34,21,-77,34,-111,34v-37,0,-51,-15,-83,-16v-23,0,-54,13,-80,28r-13,-58v31,-18,71,-32,109,-32xm213,-513r-7,32v39,-32,77,-44,125,-44v95,0,155,83,134,188r-66,321r-72,0r68,-321v13,-65,-26,-116,-85,-116v-51,0,-107,50,-132,104r-70,333r-71,0r93,-442v4,-17,-7,-44,-16,-55r99,0","w":433},"\u00f5":{"d":"138,-248v-21,102,34,185,124,185v89,0,180,-83,201,-185v22,-103,-33,-187,-122,-187v-90,0,-181,84,-203,187xm65,-248v31,-143,162,-259,291,-259v131,0,211,116,180,259v-30,141,-159,258,-290,258v-129,0,-211,-117,-181,-258xm332,-631v52,-1,66,25,113,27v19,0,44,-9,68,-22r8,60v-64,32,-119,35,-178,-8r17,12v-36,-13,-69,-7,-107,14r-10,-60v31,-15,63,-23,89,-23","w":513},"\u00f8":{"d":"65,-248v31,-143,162,-259,291,-259v68,0,125,36,162,92r-67,49v-28,-43,-67,-69,-110,-69v-90,0,-181,84,-203,187v-7,33,-6,69,5,102r-66,49v-16,-51,-22,-101,-12,-151xm262,-63v118,0,250,-150,189,-301r67,-48v21,51,30,109,18,164v-30,141,-159,258,-290,258v-72,0,-131,-40,-167,-104r64,-49v25,49,69,80,119,80","w":513},"!":{"d":"93,-68v25,0,33,16,29,38v-4,20,-24,39,-45,39v-23,0,-35,-19,-31,-39v5,-22,24,-38,47,-38xm65,-93r125,-588r65,0r-125,588r-65,0","w":176},"\u00a1":{"d":"208,-607v-27,0,-35,-19,-30,-39v5,-20,23,-39,46,-39v20,0,34,19,30,39v-5,22,-26,39,-46,39xm235,-584r-124,584r-65,0r124,-584r65,0","w":160},"'":{"d":"166,-604r6,-71r78,-6r-8,80r-105,92r-20,-25","w":121},"(":{"d":"306,-698r14,78v-61,60,-120,188,-150,333v-34,159,-24,295,21,348r-57,67v-60,-75,-79,-234,-41,-415v37,-174,122,-333,213,-411","w":260},")":{"d":"184,-620r46,-78v58,80,79,239,42,411v-38,181,-128,340,-218,414r-28,-67v67,-53,134,-188,168,-347v30,-145,28,-273,-10,-333","w":246},"~":{"d":"387,-307v-48,31,-120,48,-173,19v-43,-10,-74,1,-112,26r-18,-60v52,-30,109,-46,163,-23r-1,-1v15,2,29,10,41,9v25,0,59,-11,87,-30","w":347},"\u00bc":{"d":"332,-361r41,24r-132,165r53,0r15,-71r52,0r-15,71r46,0r-11,52r-46,0r-25,120r-52,0r25,-120r-119,0r9,-40xm138,-407r-29,-36r90,-64r42,0r-65,307r-53,0r49,-232v-15,12,-15,9,-34,25","w":382},"\u00bd":{"d":"126,-408r-29,-35r90,-65r42,0r-65,308r-52,0r50,-233v-17,12,-16,9,-36,25xm328,-162r-123,111r132,0r-10,51r-209,0r8,-41r175,-159v11,-9,22,-26,25,-41v8,-37,-16,-65,-53,-65v-17,0,-39,11,-64,29r-28,-36v36,-27,73,-45,103,-45v67,0,108,51,94,117v-7,30,-28,58,-50,79","w":355},"\u00b7":{"d":"111,-310v7,-31,43,-64,80,-64v36,0,60,33,53,64v-6,31,-44,61,-80,61v-37,0,-59,-30,-53,-61","w":225},"\u00b0":{"d":"194,-576v-6,26,14,50,41,50v22,0,51,-24,57,-50v6,-27,-13,-53,-35,-53v-27,0,-57,26,-63,53xm135,-576v13,-62,70,-109,134,-109v58,0,95,47,82,109v-13,59,-70,106,-128,106v-64,0,-101,-47,-88,-106","w":250},"\u00a6":{"d":"178,-385r-57,0r68,-320r57,0xm115,-355r57,0r-75,354r-57,0","w":131},"\u00a7":{"d":"386,-472r-45,66v-36,-20,-69,-26,-94,-24v9,18,24,33,48,46r-1,0v64,34,95,97,82,158v-8,35,-28,65,-55,88v-13,90,-97,148,-178,147v-31,0,-67,-11,-106,-32r45,-61v56,31,120,28,155,-14v-55,8,-93,-1,-141,-27r45,-64v38,18,63,27,102,19v-9,-20,-27,-35,-51,-49v-99,-54,-118,-184,-29,-245v20,-126,161,-178,280,-113r-45,68v-29,-17,-56,-25,-77,-25v-30,0,-61,13,-76,35v55,-7,86,3,141,27xm183,-384v-15,40,9,77,54,103v28,16,51,37,65,61v16,-37,-13,-81,-54,-104v-27,-16,-51,-34,-65,-60xm292,-198v2,-8,8,-13,10,-22v4,6,7,12,8,18","w":356},"\u00be":{"d":"56,-196r46,-34v13,20,32,33,53,33v35,0,70,-25,76,-55v9,-40,-45,-60,-106,-51r12,-55r59,0v33,-2,63,-22,69,-48v6,-28,-17,-51,-52,-51v-22,0,-48,13,-71,33r-29,-37v35,-30,74,-47,110,-47v63,0,107,44,95,102v-7,32,-29,58,-57,75v20,20,29,48,22,79v-13,60,-74,107,-139,107v-37,0,-67,-20,-88,-51xm355,-121r-119,0r9,-41r160,-200r42,23r-130,165r49,0r16,-71r53,0r-16,71r46,0r-11,53r-46,0r-25,119r-53,0","w":458},"\u00b6":{"d":"478,-680r-144,678r-70,0r144,-678r70,0xm418,-681r-144,681r-106,0r72,-340v-82,-11,-135,-84,-117,-170v20,-95,111,-171,205,-171r90,0xm244,-416r42,-196v-44,6,-81,47,-92,98v-11,50,9,93,50,98","w":382},"\u00c4":{"d":"292,-346r157,0r-34,-210xm15,0r401,-691r55,0r109,691r-76,0r-43,-273r-210,0r-161,273r-75,0xm345,-739v4,-22,28,-41,51,-41v22,0,39,19,35,41v-5,22,-30,42,-52,42v-23,0,-39,-20,-34,-42xm470,-739v4,-22,28,-41,51,-41v23,0,40,19,36,41v-5,22,-30,42,-53,42v-23,0,-39,-20,-34,-42","w":596},"\u00cb":{"d":"480,-403r-15,73r-290,0r-55,257r340,0r-15,73r-412,0r146,-691r412,0r-15,71r-340,0r-46,217r290,0xm289,-740v4,-22,28,-41,51,-41v22,0,39,19,35,41v-5,22,-30,42,-52,42v-23,0,-39,-20,-34,-42xm414,-740v4,-22,28,-41,51,-41v23,0,40,19,36,41v-5,22,-30,42,-53,42v-23,0,-39,-20,-34,-42","w":485},"\u00cf":{"d":"252,-691r-146,691r-73,0r146,-691r73,0xm117,-739v4,-22,28,-41,51,-41v22,0,39,19,35,41v-5,22,-30,42,-52,42v-23,0,-39,-20,-34,-42xm242,-739v4,-22,28,-41,51,-41v23,0,40,19,36,41v-5,22,-30,42,-53,42v-23,0,-39,-20,-34,-42","w":138},"\u00d6":{"d":"653,-345v33,-151,-46,-276,-186,-276v-134,0,-267,122,-300,276v-33,155,47,280,182,280v139,0,271,-125,304,-280xm573,-88v-70,62,-153,97,-239,97v-169,0,-284,-153,-241,-354v41,-194,215,-350,390,-350v181,0,282,155,241,350v-22,104,-76,192,-151,257xm392,-740v4,-22,28,-41,51,-41v22,0,39,19,35,41v-5,22,-30,42,-52,42v-23,0,-39,-20,-34,-42xm517,-740v4,-22,28,-41,51,-41v23,0,40,19,36,41v-5,22,-30,42,-53,42v-23,0,-39,-20,-34,-42"},"\u00dc":{"d":"254,-691r-108,509v-3,61,65,117,162,117v92,0,193,-54,206,-117r108,-509r73,0r-108,510v-26,103,-159,190,-294,190v-142,0,-245,-87,-223,-189r108,-511r76,0xm346,-739v4,-22,28,-41,51,-41v22,0,39,19,35,41v-5,22,-30,42,-52,42v-23,0,-39,-20,-34,-42xm471,-739v4,-22,28,-41,51,-41v23,0,40,19,36,41v-5,22,-30,42,-53,42v-23,0,-39,-20,-34,-42","w":598},"\u00ce":{"d":"252,-691r-146,691r-73,0r146,-691r73,0","w":138},"\u00cd":{"d":"252,-691r-146,691r-73,0r146,-691r73,0xm405,-823r-166,113r-58,0r109,-113r115,0","w":154},"\u00cc":{"d":"260,-691r-146,691r-73,0r146,-691r73,0xm225,-710r-120,-113r117,0r61,113r-58,0","w":131},"\u00d1":{"d":"182,-691r65,0r202,533r113,-533r73,0r-146,691r-66,0r-202,-536r-113,536r-72,0xm371,-789v52,-1,66,25,113,27v19,0,44,-9,68,-22r8,60v-64,32,-119,35,-178,-8r17,12v-36,-13,-69,-7,-107,14r-10,-60v31,-15,63,-23,89,-23","w":537},"\u00b9":{"d":"176,-518r-41,-50r160,-113r61,0r-67,315r-72,0r46,-213r-75,52v-3,1,-9,6,-12,9","w":263},"+":{"d":"311,-256r-30,142r-72,0r30,-142r-141,0r15,-72r141,0r30,-142r72,0r-30,142r142,0r-15,72r-142,0","w":452},"-":{"d":"440,-256r-356,0r15,-72r356,0","w":421},"\/":{"d":"495,-681r-393,681r-76,0r393,-681r76,0","w":378},"&":{"d":"453,-93v-64,57,-139,93,-212,93v-121,0,-190,-90,-168,-193v15,-74,90,-146,198,-195v1,0,3,-1,5,-1r-1,-4v-52,-73,-53,-108,-45,-145v16,-74,95,-147,193,-147v91,0,138,65,123,141v-12,62,-67,114,-163,162r92,160v19,-25,34,-49,55,-96r77,16v-33,59,-64,111,-92,144r-4,10v12,29,17,39,47,70r-18,84v-54,-41,-65,-59,-87,-99xm491,-138r-1,-7r20,0r0,5xm355,-430v75,-38,105,-69,113,-113v8,-44,-15,-81,-63,-81v-68,0,-128,81,-80,149xm305,-341v-91,47,-140,94,-149,143v-12,63,24,131,99,131v53,0,118,-37,161,-83r-66,-115","w":597},"\u00d5":{"d":"653,-345v33,-151,-46,-276,-186,-276v-134,0,-267,122,-300,276v-33,155,47,280,182,280v139,0,271,-125,304,-280xm573,-88v-70,62,-153,97,-239,97v-169,0,-284,-153,-241,-354v41,-194,215,-350,390,-350v181,0,282,155,241,350v-22,104,-76,192,-151,257xm447,-790v52,-1,66,25,113,27v19,0,44,-9,68,-22r8,60v-64,32,-119,35,-178,-8r17,12v-36,-13,-69,-7,-107,14r-10,-60v31,-15,63,-23,89,-23"},"\u00d0":{"d":"153,-261r-64,0r15,-72r64,0r76,-358r259,0v137,2,213,155,173,344v-40,190,-179,347,-317,347r-261,0xm488,-618r-186,0r-61,285r166,0r-15,72r-166,0r-40,188r188,-2v96,-3,198,-124,229,-272v32,-149,-19,-271,-115,-271","w":653},"\u00b1":{"d":"348,-431r-30,142r-72,0r30,-142r-141,0r15,-72r141,0r31,-142r72,0r-31,142r142,0r-15,72r-142,0xm428,-145r-355,0r15,-71r355,0","w":452},"*":{"d":"362,-457r-20,94r-71,0r19,-92v-24,20,-58,47,-77,64r-42,-50r80,-65r-91,0r15,-71r91,0r-51,-65r62,-51r50,64r20,-91r71,0r-20,91r79,-64r40,50r-78,65r91,0r-15,72r-93,0v5,8,11,13,18,21r34,44r-60,50","w":471},"\u00d7":{"d":"228,-261r-122,101r-41,-50r123,-101r-79,-100r61,-51r79,100r122,-100r40,50r-122,101r79,101r-60,50","w":367},"_":{"d":"458,0r-428,0r15,-71r428,0","w":513},"\\":{"d":"274,0r-104,-681r75,0r106,681r-77,0","w":371},"\u00f7":{"d":"184,-131r20,-93r93,0r-20,93r-93,0xm233,-362r20,-93r93,0r-20,93r-93,0xm444,-272r-356,0r15,-72r356,0","w":425},"@":{"d":"534,-206v23,0,78,-36,111,-84v19,-27,42,-85,49,-116v23,-107,-49,-198,-182,-198v-151,0,-288,119,-322,276v-33,154,48,246,220,246v107,0,197,-45,248,-103r92,0v-61,103,-184,184,-356,184v-207,0,-329,-110,-284,-321v44,-205,214,-363,422,-363v158,0,279,104,242,280v-26,121,-138,273,-260,273v-19,0,-52,-2,-69,-21v-24,13,-55,24,-82,24v-76,0,-122,-62,-106,-139v17,-78,91,-137,168,-137r59,0v7,-39,9,-72,-13,-72v-32,0,-51,9,-85,10r-3,-74r24,-1v26,-8,48,-10,81,-10v66,2,86,68,69,144r-38,165v-7,18,-12,37,15,37xm460,-268r15,-67r-65,0v-40,0,-79,28,-88,67v-8,38,17,68,56,68v37,0,74,-30,82,-68","w":754},"\u00a5":{"d":"185,-139r16,-73r137,0r0,-4r-137,0r16,-73r137,0r3,-15r-201,-377r94,0r157,306r292,-306r93,0r-361,377r-3,15r137,0r-16,73r-137,0r0,4r137,0r-16,73r-137,0r-29,139r-74,0r29,-139r-137,0","w":681},"\u00a3":{"d":"431,-282r-171,0r-44,211r316,0r-15,71r-388,0r59,-282r-113,0r16,-72r113,0r69,-327r72,0r-69,327r171,0","w":556},"\u00fe":{"d":"268,-682r-42,198v37,-16,79,-25,128,-25v134,0,217,118,187,257v-40,182,-230,321,-415,234r-43,202r-72,0r184,-866r73,0xm205,-398r-60,295v-6,20,46,39,114,39v93,0,188,-84,210,-187v21,-99,-39,-185,-131,-185v-62,0,-118,18,-133,38","w":517},"\u00d8":{"d":"573,-88v-91,77,-193,118,-319,85r0,3r-82,0r19,-34v-86,-56,-128,-173,-98,-311v41,-194,215,-350,390,-350v28,0,58,5,83,13v3,-5,5,-9,5,-9r74,0r-18,37v86,63,125,177,97,309v-22,104,-76,192,-151,257xm653,-345v22,-103,-9,-191,-67,-238r-295,510v18,6,36,8,58,8v139,0,270,-125,304,-280xm467,-621v-134,0,-267,122,-300,276v-22,105,4,192,64,241r295,-509v-18,-6,-37,-8,-59,-8"},"\u00ac":{"d":"693,-395r-51,242r-71,0r36,-171r-505,0r15,-71r576,0","w":662},"\u00bb":{"d":"168,-509r223,230r-286,272r-43,-47r228,-215r-114,-118r-68,-67xm327,-509r223,230r-286,272r-43,-47r228,-215r-114,-118r-68,-67","w":524},">":{"d":"177,-502r197,253r-304,251r-40,-52r243,-199v-25,-32,-49,-60,-74,-94v-24,-31,-63,-80,-83,-109","w":336},"<":{"d":"62,-249r304,-253r42,50r-245,203r159,199r-62,52","w":330},"\u00de":{"d":"270,-692r-43,201v36,-15,82,-26,130,-26v137,0,221,120,191,261v-41,185,-234,325,-423,238r-43,205r-71,0r187,-879r72,0xm207,-405r-62,300v-7,21,47,41,116,41v95,0,191,-87,213,-191v21,-101,-38,-188,-132,-188v-64,0,-123,17,-135,38","w":535},"^":{"d":"107,-437r308,-250r197,251r-63,51r-157,-201r-245,201","w":551},"\u00ea":{"d":"398,-39v-58,26,-100,46,-167,48v-118,2,-191,-123,-160,-259v32,-142,147,-258,258,-258v114,0,177,110,147,253r-9,39r-329,0v-8,88,36,152,108,153v37,0,98,-22,137,-39xm155,-286r255,0v8,-86,-31,-149,-96,-149v-61,0,-127,66,-159,149xm215,-549r150,-122r98,123r-57,47r-60,-78r-96,78","w":456},"\u00c3":{"d":"502,-738v-35,0,-52,-15,-85,-16v-25,0,-56,11,-80,26r-17,-56v48,-27,106,-45,158,-25v42,16,83,4,118,-19r15,57v-34,22,-73,33,-109,33xm302,-363r157,0r-34,-210xm25,-17r401,-691r55,0r109,691r-76,0r-43,-273r-210,0r-161,273r-75,0","w":596},"\u00c6":{"d":"575,-346r67,-274r-190,0r-156,274r279,0xm420,-691r641,0r-15,71r-340,0r-46,217r291,0r-15,73r-291,0r-55,257r340,0r-15,73r-413,0r58,-273r-306,0r-159,273r-77,0","w":1081},"\u00e2":{"d":"293,0r4,-19v-32,18,-69,29,-104,29v-91,0,-152,-71,-133,-158v20,-93,114,-160,207,-160r91,0v16,-65,-6,-126,-57,-127v-35,0,-77,6,-124,19r-3,-70v49,-13,97,-21,143,-21v86,1,138,88,116,186r-36,158v-14,68,-21,142,-6,163r-98,0xm324,-148r19,-88r-91,0v-55,0,-109,35,-120,88v-10,47,25,84,77,84v54,0,105,-37,115,-84xm190,-549r150,-122r98,123r-57,47r-60,-78r-96,78","w":406},"\u00df":{"d":"489,-505v11,-54,-30,-105,-95,-105r-150,0r-45,213r151,0v65,-2,126,-47,139,-108xm179,-2r-50,-65r-49,229r-73,0r179,-843r224,0v104,2,171,83,151,176v-13,61,-53,110,-107,143v49,35,69,96,55,162v-23,106,-129,196,-243,198r-87,0xm184,-326r-54,255r151,0v71,-4,142,-62,156,-129v14,-65,-32,-126,-119,-126r-134,0","w":520},"\u00ab":{"d":"232,-279r322,-230r35,55r-259,185v8,14,15,24,24,38v36,56,79,122,112,177r-63,47xm73,-279r322,-230r35,55r-259,185v20,34,41,66,62,100r74,114r-63,48","w":532},"\u00fb":{"d":"325,0r7,-36v-37,28,-78,45,-123,45v-93,0,-151,-81,-133,-184r-3,-3r69,-321r71,0r-67,314v-10,66,24,119,85,120v51,0,117,-49,129,-104r71,-332r72,0r-93,439v-5,20,5,50,15,62r-100,0xm212,-549r150,-122r98,123r-57,47r-60,-78r-96,78","w":450},"\u00f4":{"d":"138,-248v-21,102,34,185,124,185v89,0,180,-83,201,-185v22,-103,-33,-187,-122,-187v-90,0,-181,84,-203,187xm65,-248v31,-143,162,-259,291,-259v131,0,211,116,180,259v-30,141,-159,258,-290,258v-129,0,-211,-117,-181,-258xm244,-549r150,-122r98,123r-57,47r-60,-78r-96,78","w":513},"\u00f0":{"d":"294,-265v-113,0,-191,-92,-165,-209v25,-115,138,-211,256,-211v114,0,185,95,169,207v-15,104,-39,217,-74,304v-43,107,-152,181,-260,181v-66,0,-126,-39,-159,-96r76,-53v21,48,62,75,106,75v75,0,146,-53,174,-123v16,-40,27,-87,38,-133v-45,35,-103,58,-161,58xm371,-612v-80,0,-160,65,-174,142v-14,73,37,134,112,134v79,0,156,-62,172,-140v16,-74,-37,-136,-110,-136","w":489},"\u00ee":{"d":"49,0r106,-501r70,0r-106,501r-70,0xm86,-565r150,-122r98,123r-57,47r-60,-78r-96,78","w":177},"#":{"d":"51,-207r76,-74r95,0r60,-102r-194,0r74,-73r160,0r109,-180r75,0r-106,180r191,0r107,-180r76,0r-106,180r122,0r-74,73r-87,0r-62,102r187,0r-77,74r-152,0r-118,207r-78,0r120,-207r-193,0r-74,131v-14,24,-32,54,-44,76r-77,0r120,-207r-130,0xm360,-383r-61,102r193,0r26,-47v12,-18,21,-34,33,-55r-191,0","w":714},"\u00e3":{"d":"455,-565v-49,32,-107,50,-163,26r0,1v-39,-13,-73,2,-106,25r-20,-57v48,-27,104,-45,158,-28r-3,0v42,19,81,2,118,-23xm303,-16r4,-19v-32,18,-69,29,-104,29v-91,0,-152,-71,-133,-158v20,-93,114,-160,207,-160r91,0v16,-65,-6,-126,-57,-127v-35,0,-77,6,-124,19r-3,-70v49,-13,97,-21,143,-21v86,1,138,88,116,186r-36,158v-14,68,-21,142,-6,163r-98,0xm334,-164r19,-88r-91,0v-55,0,-109,35,-120,88v-10,47,25,84,77,84v54,0,105,-37,115,-84","w":406},"[":{"d":"224,-305r-49,234r16,0r-15,71v-35,0,-83,-24,-76,-61r49,-226v3,-15,-7,-26,-20,-26r-36,0r15,-72v33,1,61,2,67,-26r46,-219v12,-30,56,-51,99,-51r-15,74v-8,0,-16,3,-17,1r-44,208v-13,22,-26,40,-50,44r-2,10v18,6,30,20,32,39","w":210},"]":{"d":"47,-71r49,-232v10,-23,26,-38,47,-42v1,-4,2,-7,3,-10v-18,-7,-30,-23,-30,-41r45,-211r-18,0r15,-74v53,2,87,24,79,59r-45,211v-3,15,2,26,16,26r36,0r-15,72r-36,0v-14,0,-24,11,-27,26r-49,226v-7,36,-62,61,-103,61r15,-71v11,0,15,1,18,0","w":183},"\u00a0":{"w":257}}});
