/*!
 * The following copyright notice may not be removed under any circumstances.
 * 
 * Copyright:
 * Llicència gratuïta / Free License (La Tipomatika)
 * 
 * Trademark:
 * Please refer to the Copyright section for the font trademark attribution
 * notices.
 * 
 * Full name:
 * CicleSemi
 * 
 * Manufacturer:
 * La Tipomatika
 * 
 * Designer:
 * La Tipomatika (Digital Type Foundry)
 */
Cufon.registerFont({"w":690,"face":{"font-family":"Cicle Semi","font-weight":400,"font-stretch":"normal","units-per-em":"1000","panose-1":"2 0 0 0 0 0 0 0 0 0","ascent":"800","descent":"-200","x-height":"195","bbox":"-43 -827 925 195","underline-thickness":"50","underline-position":"-50","unicode-range":"U+0020-U+00FF"},"glyphs":{" ":{"w":257},"e":{"d":"387,-35v-46,23,-88,44,-150,44v-115,0,-212,-111,-212,-258v0,-142,91,-258,201,-258v120,1,207,123,198,283r-343,0v7,102,73,178,156,179v40,0,95,-21,129,-38xm82,-277r289,0v-9,-100,-70,-174,-145,-174v-71,0,-131,77,-144,174","w":456},"f":{"d":"309,-687r-16,55v-17,-4,-30,-4,-40,-4v-58,3,-101,67,-95,147r128,0r0,55r-128,0r0,434r-52,0r0,-434r-73,0r0,-55r72,0v-10,-111,63,-199,148,-201v18,0,32,0,56,3","w":328},"g":{"d":"270,-158v-31,1,-55,-10,-79,-11v-12,0,-26,4,-26,19v2,38,38,22,67,22v113,0,203,71,203,160v0,89,-90,163,-203,163v-109,0,-201,-74,-201,-163v0,-57,41,-110,98,-137v-11,-28,-9,-75,9,-94v-45,-33,-68,-78,-68,-132v0,-96,89,-175,200,-175v31,0,53,5,75,11r182,0r-52,54r-47,0v25,29,43,68,43,110v0,97,-90,173,-201,173xm84,32v0,59,69,110,148,110v85,0,151,-51,151,-110v0,-58,-66,-110,-151,-110v-79,0,-148,52,-148,110xm124,-331v0,66,66,121,146,121v84,0,149,-55,149,-121v0,-69,-65,-122,-149,-122v-80,0,-146,53,-146,122","w":551},"p":{"d":"90,-404r0,311v7,25,68,47,139,47v103,0,187,-93,187,-206v0,-111,-84,-201,-187,-201v-77,0,-139,22,-139,49xm90,-499r0,23v34,-17,87,-33,139,-33v134,0,241,117,241,257v0,144,-107,260,-241,260v-54,0,-104,-12,-138,-32r0,214r-54,0r0,-594v0,0,-2,-78,-18,-95r71,0","w":506},"y":{"d":"48,189r8,-56v8,8,24,8,37,8v43,0,89,-30,110,-86r38,-94r-190,-467r58,0r159,398r158,-398r58,0r-190,468r1,-1v-14,38,-30,76,-43,114v-28,76,-98,120,-161,120v-14,0,-29,-2,-43,-6","w":535},"R":{"d":"386,0r-292,-330r0,330r-55,0r0,-691r201,0v110,0,199,77,199,174v0,98,-89,177,-199,177r-83,0r300,340r-71,0xm238,-639r-144,0r0,244r146,0v78,0,144,-53,144,-122v0,-66,-66,-122,-146,-122","w":474},"d":{"d":"290,-47v75,0,135,-27,135,-53r0,-305v-7,-25,-63,-46,-137,-46v-104,0,-187,92,-187,199v0,110,83,205,189,205xm425,-3r0,-22v-34,17,-86,32,-137,32v-132,0,-240,-117,-240,-259v0,-140,108,-253,240,-254v56,0,100,9,137,32r0,-212r54,0r0,586v0,0,0,82,19,97r-73,0","w":534},"h":{"d":"42,-688r54,0r0,242v33,-39,76,-61,129,-61v95,0,169,82,170,184r3,320r-54,0r0,-320v-3,-73,-58,-130,-125,-130v-57,0,-109,55,-123,116r0,337r-54,0r0,-688","w":455},"i":{"d":"59,0r0,-500r53,0r0,500r-53,0xm51,-639v0,-18,15,-33,35,-33v18,0,35,15,35,33v0,17,-17,33,-35,33v-20,0,-35,-16,-35,-33","w":177},"j":{"d":"187,-634v0,-20,13,-33,34,-33v15,0,32,13,32,33v0,18,-17,33,-32,33v-21,0,-34,-15,-34,-33xm100,193r-54,-4r5,-52r43,3v0,-2,1,-3,1,-3v56,0,100,-56,100,-123r0,-515r54,0r0,524v-6,92,-68,167,-149,170","w":354},"k":{"d":"111,-686r0,340r176,-148r84,0r-158,131r208,363r-64,0r-186,-327v-19,17,-39,35,-60,52r0,275r-69,0v6,-6,15,-27,15,-51r0,-635r54,0","w":440},"l":{"d":"59,0r0,-686r54,0r0,686r-54,0","w":162},"m":{"d":"93,-500r0,56v33,-39,76,-61,127,-61v65,0,121,42,151,97v31,-70,96,-99,150,-99v94,0,169,81,170,184r2,321r-55,0r0,-321v-2,-71,-55,-129,-121,-129v-61,0,-124,53,-124,115r0,335r-54,0r0,-319v-2,-73,-56,-129,-124,-129v-58,0,-109,54,-122,115r0,335r-54,0r0,-446v0,-20,-9,-48,-15,-54r69,0","w":739},"n":{"d":"89,-496r0,50v33,-40,77,-62,129,-62v94,0,170,82,171,185r2,323r-55,0r0,-323v-1,-73,-56,-130,-123,-130v-59,0,-110,54,-124,116r0,337r-54,0r0,-448v0,-20,-9,-42,-15,-48r69,0","w":433},"o":{"d":"74,-247v0,111,80,202,180,202v98,0,178,-91,178,-202v0,-113,-80,-204,-178,-204v-100,0,-180,91,-180,204xm19,-247v0,-143,106,-259,235,-259v129,0,233,116,233,259v0,141,-104,257,-233,257v-129,0,-235,-116,-235,-257","w":513},"q":{"d":"401,-477r0,-17r53,0r0,684r-53,0r0,-232v-35,22,-81,32,-135,32v-126,0,-232,-113,-232,-248v0,-136,106,-248,232,-248v55,0,102,10,135,29xm401,-109r0,-295v0,-27,-60,-49,-135,-49v-98,0,-179,87,-179,195v0,108,81,196,179,196v70,0,126,-23,135,-47","w":513},"r":{"d":"254,-501r-14,54v-13,-4,-17,-4,-23,-4v-59,0,-110,54,-123,116r0,335r-54,0r0,-446v0,-20,-8,-46,-22,-55r76,0r0,57v32,-40,76,-62,128,-62v8,0,19,0,32,5","w":279},"s":{"d":"378,-437r-44,32v-30,-29,-76,-45,-122,-45v-62,0,-110,31,-110,76v0,44,48,86,115,96v91,13,158,79,158,151v0,80,-75,135,-165,135v-61,0,-127,-26,-164,-71r41,-32v28,28,74,49,120,49v63,0,114,-33,114,-81v0,-43,-54,-89,-114,-100v-89,-16,-160,-81,-160,-148v0,-78,78,-130,169,-130v62,0,124,28,162,68","w":417},"t":{"d":"118,-686r55,0r0,193r131,0r0,55r-131,0r0,438r-53,0r0,-438r-74,0r0,-55r72,0r0,-193","w":340},"u":{"d":"97,-182v3,72,56,135,125,135v60,0,121,-54,121,-116r0,-337r54,0r0,446v0,22,9,48,15,54r-69,0r0,-53v-32,37,-77,62,-128,62v-93,0,-166,-82,-169,-184v-1,-2,-2,-3,-3,-4r0,-319r54,0r0,316","w":450},"v":{"d":"219,0r-201,-500r57,0r171,418r169,-418r60,0r-204,500r-52,0","w":500},"w":{"d":"672,-500r-204,500r-53,-3r-71,-179r-77,182r-51,-3r-202,-497r58,0r170,417r70,-173r-98,-244r62,0r167,417r169,-417r60,0","w":705},"x":{"d":"180,-259r-153,-241r68,0r121,194r124,-194r67,0r-156,249r156,251r-66,0r-128,-203r-125,203r-66,0","w":444},"z":{"d":"41,0r0,-52r296,-393r-293,0r0,-55r368,0r0,52r-296,393r296,0r0,55r-371,0","w":452},"A":{"d":"207,-336r189,0r-95,-254xm25,0r254,-691r45,0r254,691r-57,0r-105,-281r-229,0r-105,281r-57,0","w":596},"B":{"d":"272,-2v-70,3,-150,0,-223,2r0,-691r223,0v103,2,186,81,186,173v0,64,-37,119,-89,151v63,33,103,98,103,168v0,106,-87,193,-200,197xm272,-638r-168,0r0,243r168,0v74,-2,131,-54,131,-123v0,-62,-57,-120,-131,-120xm272,-55v81,-4,145,-68,145,-144v0,-73,-64,-141,-145,-141r-168,0r0,285r168,0","w":512},"C":{"d":"560,-594r-38,37v-50,-52,-114,-83,-182,-83v-141,0,-259,131,-259,295v0,161,110,298,259,298v68,0,129,-31,180,-82r38,37v-59,62,-136,101,-218,101v-166,0,-315,-160,-315,-354v0,-186,140,-350,315,-350v83,0,163,39,220,101","w":590},"D":{"d":"290,-636r-202,0r0,581v68,0,137,-2,204,-2v103,0,186,-132,186,-290v0,-158,-83,-289,-188,-289xm33,0r0,-691r257,0v135,2,243,155,243,344v0,189,-106,347,-241,347r-259,0","w":575},"E":{"d":"393,-395r0,55r-298,0r0,285r349,0r0,55r-404,0r0,-691r404,0r0,53r-349,0r0,243r298,0","w":485},"F":{"d":"397,-395r0,55r-298,0r0,340r-55,0r0,-691r404,0r0,52r-349,0r0,244r298,0","w":487},"G":{"d":"556,-93r-2,8v-57,59,-133,94,-216,94v-174,0,-316,-158,-316,-351v0,-194,142,-353,316,-353v83,0,161,38,221,101r-38,38v-50,-52,-115,-83,-183,-83v-144,0,-262,131,-262,297v0,164,118,298,262,298v62,0,120,-26,163,-66r0,-184r-187,0r0,-53r242,0r0,254","w":604},"H":{"d":"460,-340r-360,0r0,340r-55,0r0,-691r55,0r0,296r360,0r0,-296r54,0r0,691r-54,0r0,-340","w":558},"I":{"d":"98,-691r0,691r-55,0r0,-691r55,0","w":138},"J":{"d":"248,-691r0,519v0,98,-61,181,-133,181v-33,0,-64,-20,-89,-48r36,-38v57,70,130,10,130,-93r0,-521r56,0","w":305},"K":{"d":"40,-691r55,0r0,357r306,-357r73,0r-258,301r333,390r-71,0r-298,-348r-85,98r0,250r-55,0r0,-691","w":583},"L":{"d":"94,-691r0,636r331,0r0,55r-385,0r0,-691r54,0","w":453},"M":{"d":"303,-320r216,-371r53,0r0,691r-56,0r0,-578r-197,338r-34,0r-200,-338r0,578r-55,0r0,-691r52,0","w":623},"N":{"d":"43,-691r51,0r340,576r0,-576r55,0r0,691r-52,0r-340,-579r0,579r-54,0r0,-691","w":537},"O":{"d":"602,-345v1,-157,-107,-294,-261,-294v-144,0,-259,130,-259,294v0,166,114,298,259,298v149,0,261,-132,261,-298xm655,-345v0,192,-131,354,-314,354v-169,0,-315,-153,-315,-354v0,-194,141,-350,315,-350v180,0,314,155,314,350"},"P":{"d":"250,-339r-147,0r0,339r-54,0r0,-691r201,0v110,0,198,78,198,173v0,100,-88,179,-198,179xm248,-638r-145,0r0,244r147,0v78,0,143,-53,143,-124v0,-65,-65,-120,-145,-120","w":480},"Q":{"d":"565,-368v1,-144,-100,-278,-240,-278v-131,0,-240,124,-240,278v0,148,100,270,229,277v-6,-16,-22,-29,-44,-28r0,-49v50,-1,89,31,98,73v110,-26,197,-138,197,-273xm618,-368v0,161,-107,295,-248,322v6,34,20,60,37,60v12,0,22,-12,29,-27r39,34v-21,27,-42,45,-68,45v-42,0,-78,-49,-88,-108v-152,-9,-285,-148,-285,-326v0,-186,135,-327,291,-327v158,0,293,143,293,327","w":665},"S":{"d":"39,-91r44,-35v32,49,86,80,152,80v80,0,151,-55,151,-127v0,-69,-64,-131,-145,-141v-114,-15,-201,-96,-201,-193v0,-107,96,-187,215,-187v78,0,139,30,186,82r-45,36v-33,-41,-83,-66,-141,-66v-82,0,-158,58,-158,131v0,72,64,133,150,143v112,12,196,97,196,192v0,103,-94,185,-210,185v-83,0,-154,-41,-194,-100","w":485},"T":{"d":"535,-638r-220,0r0,638r-55,0r0,-638r-222,0r0,-53r497,0r0,53","w":575},"U":{"d":"97,-691r0,515v9,68,96,129,202,129v101,0,197,-60,197,-129r0,-515r55,0r0,515v-4,101,-118,185,-252,185v-140,0,-260,-84,-260,-185r0,-515r58,0","w":598},"V":{"d":"291,0r-254,-691r57,0r224,603r223,-603r58,0r-255,691r-53,0","w":639},"W":{"d":"861,-691r-254,691r-55,0r-102,-274r-100,274r-54,0r-255,-691r58,0r224,604r98,-270r-122,-334r57,0r224,603r222,-603r59,0","w":915},"X":{"d":"235,-353r-197,-338r62,0r172,288r171,-288r63,0r-201,344r201,347r-63,0r-177,-298r-175,298r-62,0","w":541},"Y":{"d":"577,-691r72,0r-284,380r0,311r-56,0r0,-311r-284,-380r73,0r238,326","w":681},"Z":{"d":"519,-691r-395,636r355,0r0,55r-455,0r397,-636r-362,0r0,-55r460,0","w":548},"{":{"d":"154,-53v0,-1,7,-1,17,-1r0,54v-29,0,-72,-21,-72,-53r0,-235v-1,-31,-28,-41,-63,-37r0,-54v35,4,62,-6,63,-37r0,-225v5,-27,37,-45,72,-45r0,56v-9,0,-16,0,-17,-3r0,230v-7,19,-20,35,-42,37r0,27v20,3,36,17,42,36r0,250","w":223},"}":{"d":"23,-686v44,1,74,21,74,51r0,219v0,20,13,37,33,37r27,0r0,54r-27,0v-20,0,-33,16,-33,37r0,235v0,31,-41,53,-74,53r0,-54v11,0,16,-1,19,-2r0,-246v5,-22,19,-36,39,-37v0,-9,1,-17,2,-27v-20,-4,-37,-20,-41,-37r0,-227r-19,0r0,-56","w":188},",":{"d":"70,-9r0,-67r60,0r0,72r-88,75r-11,-17","w":173},".":{"d":"36,0r0,-76r76,0r0,76r-76,0","w":145},"0":{"d":"94,-341v0,164,90,295,199,295v111,0,198,-131,198,-295v0,-163,-87,-294,-198,-294v-109,0,-199,131,-199,294xm39,-341v0,-193,115,-349,254,-349v140,0,252,156,252,349v0,192,-112,350,-252,350v-139,0,-254,-158,-254,-350","w":586},"1":{"d":"66,-541r-38,-37r130,-108r50,0r0,686r-55,0r0,-613","w":263},"2":{"d":"373,-330r-244,276r303,0r0,54r-380,0r0,-50r285,-319v25,-28,41,-65,41,-106v0,-90,-73,-160,-165,-160v-43,0,-85,19,-118,50r-39,-39v44,-38,99,-66,157,-66v121,0,219,97,219,215v0,57,-25,106,-59,145","w":475},"3":{"d":"19,-65r38,-38v32,35,79,60,130,60v86,0,157,-64,157,-142v0,-66,-70,-138,-145,-138r-96,0r0,-54r97,0v82,-5,146,-62,146,-129v0,-73,-71,-130,-156,-130v-51,0,-100,20,-133,57r-38,-40v42,-45,105,-71,171,-71v117,0,214,82,214,184v0,68,-45,126,-107,157v61,34,102,94,102,164v0,109,-95,196,-212,196v-67,0,-128,-31,-168,-76","w":431},"4":{"d":"280,-247r-247,0r2,-50r226,-391r47,26r-208,360r180,0r0,-149r55,0r0,149r96,0r0,55r-96,0r0,247r-55,0r0,-247","w":473},"5":{"d":"97,-342r-52,0r24,-344r372,0r0,55r-319,0v-7,66,-11,122,-19,190v37,-36,85,-54,142,-54v124,0,223,110,223,246v0,137,-99,249,-223,249v-72,0,-139,-41,-180,-103r39,-39v32,53,83,88,141,88v93,0,168,-87,168,-195v0,-108,-75,-193,-168,-193v-64,0,-121,40,-148,100","w":504},"6":{"d":"256,-410v117,0,215,85,215,211v0,117,-93,207,-210,207v-111,0,-201,-88,-207,-204v-5,-104,-9,-223,9,-315v19,-99,103,-180,207,-180v72,0,137,33,184,94r-53,32v-31,-43,-80,-71,-130,-71v-77,0,-144,59,-158,140v-9,50,-13,106,-13,165v35,-46,91,-79,156,-79xm418,-197v0,-93,-69,-159,-157,-159v-87,0,-153,75,-153,160v0,83,72,151,155,151v85,0,155,-69,155,-152","w":506},"7":{"d":"36,0r294,-631r-268,0r0,-55r357,0r-320,686r-63,0","w":443},"8":{"d":"28,-193v0,-75,45,-142,103,-177v-50,-30,-81,-82,-81,-145v0,-96,81,-175,179,-175v102,0,182,79,182,175v0,63,-29,115,-81,145v62,35,102,101,102,177v0,111,-89,202,-203,202v-110,0,-201,-91,-201,-202xm104,-515v0,66,57,120,125,120v70,0,126,-54,126,-120v0,-67,-56,-120,-126,-120v-68,0,-125,53,-125,120xm83,-193v0,79,67,147,146,147v83,0,149,-68,149,-147v0,-81,-66,-148,-149,-148v-79,0,-146,67,-146,148","w":459},"9":{"d":"242,-275v-112,-1,-207,-89,-207,-207v0,-114,93,-209,209,-209v113,0,204,95,211,206v6,104,8,220,-9,313v-20,106,-113,179,-220,179v-66,0,-130,-36,-172,-88r50,-41v32,46,80,73,129,73v83,0,148,-59,163,-136v10,-50,11,-107,11,-165v-38,43,-99,75,-165,75xm87,-477v0,82,73,148,155,148v88,0,158,-68,158,-155v0,-82,-74,-151,-155,-151v-89,0,-158,74,-158,158","w":489},"\u00bf":{"d":"177,-686r57,0r93,319r0,51r-103,0v-70,2,-128,61,-128,135v0,73,60,135,133,135v48,0,90,-30,118,-74r39,40v-35,53,-91,90,-157,90v-102,0,-186,-87,-186,-191v0,-102,83,-191,181,-191r45,0xm216,-771v0,19,-15,34,-32,34v-21,0,-34,-15,-34,-34v0,-21,13,-35,34,-35v17,0,32,14,32,35","w":432},"\u00e6":{"d":"666,-35v-47,23,-89,44,-151,44v-59,0,-111,-27,-149,-73v1,31,5,53,19,64r-73,0r0,-30v-29,24,-69,40,-110,40v-90,0,-164,-69,-164,-154v0,-86,74,-155,164,-155r105,0v1,-8,5,-19,5,-26v0,-71,-44,-126,-97,-126v-40,0,-80,5,-117,16r-14,-52v42,-12,86,-19,132,-19v57,0,106,39,132,96v37,-60,94,-97,156,-97v120,1,209,123,199,283r-338,0r0,36v20,79,81,143,150,143v41,0,95,-21,129,-38xm366,-277r283,0v-9,-100,-70,-174,-145,-174v-73,0,-136,73,-138,174xm312,-144v0,-38,-10,-62,-8,-101r-102,0v-61,0,-108,46,-108,101v0,55,47,98,108,98v60,0,110,-43,110,-98","w":743},"a":{"d":"310,0r0,-30v-29,24,-69,40,-111,40v-89,0,-163,-69,-163,-154v0,-90,78,-155,170,-155r104,0v4,-82,-35,-152,-97,-152v-40,0,-80,5,-118,16r-13,-52v41,-12,85,-19,132,-19v82,0,151,81,151,183v0,0,-2,84,-2,164v0,73,5,147,16,159r-69,0xm310,-144r0,-101r-104,0v-63,0,-115,41,-115,101v0,55,48,98,108,98v61,0,111,-43,111,-98","w":406},"b":{"d":"109,-404r0,306v0,28,63,53,140,53v101,0,186,-93,186,-204v0,-108,-85,-202,-186,-202v-70,0,-131,22,-140,47xm109,-23r0,23r-68,0v12,-17,16,-98,16,-98r0,-588r55,0r0,211v35,-20,83,-31,137,-31v133,0,240,118,240,257v0,141,-107,259,-240,259v-58,0,-105,-13,-140,-33","w":523},"c":{"d":"436,-423r-39,40v-35,-41,-85,-68,-138,-68v-102,0,-185,90,-185,203v0,111,83,202,185,202v51,0,99,-24,135,-65r40,38v-48,50,-108,82,-175,82v-130,0,-239,-116,-239,-257v0,-142,109,-258,239,-258v69,0,132,34,177,83","w":478},"?":{"d":"238,0r-58,0r-90,-317r0,-49r99,0v72,-2,128,-60,128,-133v0,-76,-59,-137,-131,-137v-48,0,-90,31,-116,75r-39,-39v34,-54,91,-90,155,-90v102,0,184,86,184,191v0,100,-80,187,-181,187r-43,0xm197,87v0,-20,16,-33,33,-33v20,0,32,13,32,33v0,19,-12,35,-32,35v-17,0,-33,-16,-33,-35","w":410},"\u00b4":{"d":"191,-636r-122,98r-38,0r74,-98r86,0","w":209},"`":{"d":"137,-538r-123,-98r87,0r73,98r-37,0","w":204},"\u00e0":{"d":"310,0r0,-30v-29,24,-69,40,-111,40v-89,0,-163,-69,-163,-154v0,-90,78,-155,170,-155r104,0v4,-82,-35,-152,-97,-152v-40,0,-80,5,-118,16r-13,-52v41,-12,85,-19,132,-19v82,0,151,81,151,183v0,0,-2,84,-2,164v0,73,5,147,16,159r-69,0xm310,-144r0,-101r-104,0v-63,0,-115,41,-115,101v0,55,48,98,108,98v61,0,111,-43,111,-98xm197,-538r-123,-98r87,0r73,98r-37,0","w":406},"\u00e1":{"d":"310,0r0,-30v-29,24,-69,40,-111,40v-89,0,-163,-69,-163,-154v0,-90,78,-155,170,-155r104,0v4,-82,-35,-152,-97,-152v-40,0,-80,5,-118,16r-13,-52v41,-12,85,-19,132,-19v82,0,151,81,151,183v0,0,-2,84,-2,164v0,73,5,147,16,159r-69,0xm310,-144r0,-101r-104,0v-63,0,-115,41,-115,101v0,55,48,98,108,98v61,0,111,-43,111,-98xm326,-636r-122,98r-38,0r74,-98r86,0","w":406},"\u00c0":{"d":"207,-336r189,0r-95,-254xm25,0r254,-691r45,0r254,691r-57,0r-105,-281r-229,0r-105,281r-57,0xm297,-729r-123,-98r87,0r73,98r-37,0","w":596},"\u00c1":{"d":"207,-336r189,0r-95,-254xm25,0r254,-691r45,0r254,691r-57,0r-105,-281r-229,0r-105,281r-57,0xm438,-827r-122,98r-38,0r74,-98r86,0","w":596},"\u00c2":{"d":"207,-336r189,0r-95,-254xm25,0r254,-691r45,0r254,691r-57,0r-105,-281r-229,0r-105,281r-57,0","w":596},"\u00c8":{"d":"393,-395r0,55r-298,0r0,285r349,0r0,55r-404,0r0,-691r404,0r0,53r-349,0r0,243r298,0xm228,-729r-123,-98r87,0r73,98r-37,0","w":485},"\u00c9":{"d":"393,-395r0,55r-298,0r0,285r349,0r0,55r-404,0r0,-691r404,0r0,53r-349,0r0,243r298,0xm355,-827r-122,98r-38,0r74,-98r86,0","w":485},"\u00d2":{"d":"602,-345v1,-157,-107,-294,-261,-294v-144,0,-259,130,-259,294v0,166,114,298,259,298v149,0,261,-132,261,-298xm655,-345v0,192,-131,354,-314,354v-169,0,-315,-153,-315,-354v0,-194,141,-350,315,-350v180,0,314,155,314,350xm319,-729r-123,-98r87,0r73,98r-37,0"},"\u00d3":{"d":"602,-345v1,-157,-107,-294,-261,-294v-144,0,-259,130,-259,294v0,166,114,298,259,298v149,0,261,-132,261,-298xm655,-345v0,192,-131,354,-314,354v-169,0,-315,-153,-315,-354v0,-194,141,-350,315,-350v180,0,314,155,314,350xm493,-827r-122,98r-38,0r74,-98r86,0"},"\u00d9":{"d":"97,-691r0,515v9,68,96,129,202,129v101,0,197,-60,197,-129r0,-515r55,0r0,515v-4,101,-118,185,-252,185v-140,0,-260,-84,-260,-185r0,-515r58,0xm291,-729r-123,-98r87,0r73,98r-37,0","w":598},"\u00da":{"d":"97,-691r0,515v9,68,96,129,202,129v101,0,197,-60,197,-129r0,-515r55,0r0,515v-4,101,-118,185,-252,185v-140,0,-260,-84,-260,-185r0,-515r58,0xm434,-827r-122,98r-38,0r74,-98r86,0","w":598},"\u00dd":{"d":"577,-691r72,0r-284,380r0,311r-56,0r0,-311r-284,-380r73,0r238,326xm484,-827r-122,98r-38,0r74,-98r86,0","w":681},"\u00e8":{"d":"387,-35v-46,23,-88,44,-150,44v-115,0,-212,-111,-212,-258v0,-142,91,-258,201,-258v120,1,207,123,198,283r-343,0v7,102,73,178,156,179v40,0,95,-21,129,-38xm82,-277r289,0v-9,-100,-70,-174,-145,-174v-71,0,-131,77,-144,174xm226,-538r-123,-98r87,0r73,98r-37,0","w":456},"\u00e9":{"d":"387,-35v-46,23,-88,44,-150,44v-115,0,-212,-111,-212,-258v0,-142,91,-258,201,-258v120,1,207,123,198,283r-343,0v7,102,73,178,156,179v40,0,95,-21,129,-38xm82,-277r289,0v-9,-100,-70,-174,-145,-174v-71,0,-131,77,-144,174xm355,-636r-122,98r-38,0r74,-98r86,0","w":456},"\u00ec":{"d":"88,0r0,-500r53,0r0,500r-53,0xm122,-545r-123,-98r87,0r73,98r-37,0","w":211},"\u00ed":{"d":"59,0r0,-500r54,0r0,500r-54,0xm200,-643r-122,98r-38,0r74,-98r86,0","w":211},"\u00f2":{"d":"74,-247v0,111,80,202,180,202v98,0,178,-91,178,-202v0,-113,-80,-204,-178,-204v-100,0,-180,91,-180,204xm19,-247v0,-143,106,-259,235,-259v129,0,233,116,233,259v0,141,-104,257,-233,257v-129,0,-235,-116,-235,-257xm262,-538r-123,-98r87,0r73,98r-37,0","w":527},"\u00f3":{"d":"74,-247v0,111,80,202,180,202v98,0,178,-91,178,-202v0,-113,-80,-204,-178,-204v-100,0,-180,91,-180,204xm19,-247v0,-143,106,-259,235,-259v129,0,233,116,233,259v0,141,-104,257,-233,257v-129,0,-235,-116,-235,-257xm397,-636r-122,98r-38,0r74,-98r86,0","w":527},"\u00f9":{"d":"97,-182v3,72,56,135,125,135v60,0,121,-54,121,-116r0,-337r54,0r0,446v0,22,9,48,15,54r-69,0r0,-53v-32,37,-77,62,-128,62v-93,0,-166,-82,-169,-184v-1,-2,-2,-3,-3,-4r0,-319r54,0r0,316xm225,-538r-123,-98r87,0r73,98r-37,0","w":450},"\u00fa":{"d":"97,-182v3,72,56,135,125,135v60,0,121,-54,121,-116r0,-337r54,0r0,446v0,22,9,48,15,54r-69,0r0,-53v-32,37,-77,62,-128,62v-93,0,-166,-82,-169,-184v-1,-2,-2,-3,-3,-4r0,-319r54,0r0,316xm344,-636r-122,98r-38,0r74,-98r86,0","w":450},"\u00fd":{"d":"48,189r8,-56v8,8,24,8,37,8v43,0,89,-30,110,-86r38,-94r-190,-467r58,0r159,398r158,-398r58,0r-190,468r1,-1v-14,38,-30,76,-43,114v-28,76,-98,120,-161,120v-14,0,-29,-2,-43,-6xm407,-636r-122,98r-38,0r74,-98r86,0","w":535},":":{"d":"54,0r0,-76r76,0r0,76r-76,0xm54,-424r0,-76r76,0r0,76r-76,0","w":182},";":{"d":"54,-424r0,-76r75,0r0,76r-75,0xm59,-9r0,-67r61,0r0,72r-89,75r-11,-17","w":169},"=":{"d":"65,-383r0,-57r339,0r0,57r-339,0xm65,-195r0,-56r339,0r0,56r-339,0","w":440},"\u00c7":{"d":"585,-593r-39,36v-50,-53,-115,-85,-181,-85v-146,0,-262,137,-262,300v0,159,115,298,262,298v66,0,130,-32,179,-83r39,37v-61,65,-139,98,-225,99v-1,2,-3,8,-4,11v18,6,49,30,49,59v0,20,-14,43,-56,66r-53,-39v13,0,63,-6,63,-29v0,-23,-35,-24,-58,-23r1,-52v-140,-34,-251,-173,-251,-344v0,-199,142,-353,316,-353v83,0,161,38,220,102","w":634},"\u00e7":{"d":"291,9r-5,14v18,6,49,30,49,60v0,19,-15,42,-55,67r-48,-38v21,-2,56,-12,56,-27v0,-29,-34,-29,-58,-27r2,-53v-112,-22,-198,-126,-198,-254v0,-141,107,-257,241,-257v68,0,131,32,177,84r-38,38v-38,-41,-88,-67,-139,-67v-103,0,-186,90,-186,202v0,113,83,203,186,203v50,0,99,-24,135,-63r39,38v-41,44,-98,74,-158,80","w":493},"\u00a2":{"d":"231,-503r0,-67r59,0r0,67v57,7,107,38,146,80r-39,40v-27,-33,-65,-59,-107,-65r0,400v40,-6,74,-30,105,-63r39,38v-42,43,-89,73,-144,80r0,66r-59,0r0,-67v-117,-15,-211,-124,-211,-254v0,-131,94,-240,211,-255xm74,-248v0,100,68,185,157,200r0,-400v-89,15,-157,99,-157,200","w":478},"|":{"d":"50,-1r0,-710r39,0r0,710r-39,0","w":131},"$":{"d":"203,-372r0,-260v-64,16,-115,67,-115,126v0,60,47,116,115,134xm257,-308r0,259v66,-10,118,-59,118,-123v0,-64,-49,-121,-118,-136xm203,-731r54,0r0,42v70,2,129,34,172,82r-44,35v-30,-36,-78,-62,-128,-65r0,276v100,22,175,96,175,186v0,93,-77,167,-175,181r0,58r-54,0r0,-56v-75,-5,-135,-45,-173,-98r44,-35v26,38,75,76,129,79r0,-269v-102,-21,-172,-96,-172,-187v0,-94,73,-166,172,-184r0,-45","w":466},"\"":{"d":"41,-543r-10,-143r59,0r8,69r-42,89xm114,-543r-10,-143r59,0r8,69r-42,89","w":217},"\u00aa":{"d":"173,-311v-18,-1,-41,2,-57,-1v-47,18,-96,-14,-96,-60v0,-34,29,-61,69,-61r27,0v-1,-17,-12,-35,-24,-35v-16,0,-29,2,-50,9r-7,-39v19,-5,35,-8,57,-8v32,0,59,30,61,74v0,0,-1,27,-1,55v0,23,10,55,21,66xm116,-396r-29,0v-16,0,-29,13,-29,24v0,13,13,26,29,26v25,-1,33,-22,29,-50","w":179},"\u00ba":{"d":"59,-402v0,30,28,61,57,61v26,0,52,-31,52,-61v0,-34,-26,-66,-52,-66v-29,0,-57,32,-57,66xm21,-402v0,-60,41,-104,95,-104v50,0,91,44,91,104v0,55,-41,99,-91,99v-54,0,-95,-44,-95,-99","w":232},"\u00b2":{"d":"93,-351r152,0r0,43r-217,0r0,-39r153,-171v13,-13,21,-35,21,-52v0,-41,-39,-76,-79,-76v-19,0,-42,11,-65,33r-33,-34v30,-26,62,-43,98,-43v69,0,122,54,122,120v0,31,-15,66,-32,85","w":280},"\u00b3":{"d":"36,-377r13,0v16,17,41,31,64,31v36,0,73,-29,73,-65v0,-35,-34,-68,-68,-68r-58,0r0,-43r59,0v34,-2,67,-32,67,-62v0,-30,-35,-59,-72,-59v-23,0,-49,12,-71,36r-32,-34v28,-30,63,-45,103,-45v65,0,118,45,118,102v0,38,-15,67,-47,85v25,21,44,54,44,88v0,60,-52,107,-116,107v-42,0,-76,-18,-103,-47","w":265},"\u00a8":{"d":"33,-639v0,-18,16,-33,35,-33v18,0,35,15,35,33v0,17,-17,33,-35,33v-19,0,-35,-16,-35,-33xm163,-639v0,-18,16,-33,35,-33v19,0,35,15,35,33v0,17,-16,33,-35,33v-19,0,-35,-16,-35,-33","w":263},"\u00e4":{"d":"110,-639v0,-18,15,-33,35,-33v18,0,35,15,35,33v0,17,-17,33,-35,33v-20,0,-35,-16,-35,-33xm240,-639v0,-18,16,-33,35,-33v19,0,35,15,35,33v0,17,-16,33,-35,33v-19,0,-35,-16,-35,-33xm313,-7r0,-30v-29,24,-69,40,-111,40v-89,0,-163,-69,-163,-154v0,-90,78,-155,170,-155r104,0v4,-82,-35,-152,-97,-152v-40,0,-80,5,-118,16r-13,-52v41,-12,85,-19,132,-19v82,0,151,81,151,183v0,0,-2,84,-2,164v0,73,5,147,16,159r-69,0xm313,-151r0,-101r-104,0v-63,0,-115,41,-115,101v0,55,48,98,108,98v61,0,111,-43,111,-98","w":406},"\u00eb":{"d":"387,-35v-46,23,-88,44,-150,44v-115,0,-212,-111,-212,-258v0,-142,91,-258,201,-258v120,1,207,123,198,283r-343,0v7,102,73,178,156,179v40,0,95,-21,129,-38xm82,-277r289,0v-9,-100,-70,-174,-145,-174v-71,0,-131,77,-144,174xm126,-639v0,-18,16,-33,35,-33v18,0,35,15,35,33v0,17,-17,33,-35,33v-19,0,-35,-16,-35,-33xm256,-639v0,-18,16,-33,35,-33v19,0,35,15,35,33v0,17,-16,33,-35,33v-19,0,-35,-16,-35,-33","w":456},"\u00f6":{"d":"74,-247v0,111,80,202,180,202v98,0,178,-91,178,-202v0,-113,-80,-204,-178,-204v-100,0,-180,91,-180,204xm19,-247v0,-143,106,-259,235,-259v129,0,233,116,233,259v0,141,-104,257,-233,257v-129,0,-235,-116,-235,-257xm167,-639v0,-18,16,-33,35,-33v18,0,35,15,35,33v0,17,-17,33,-35,33v-19,0,-35,-16,-35,-33xm297,-639v0,-18,16,-33,35,-33v19,0,35,15,35,33v0,17,-16,33,-35,33v-19,0,-35,-16,-35,-33","w":527},"\u00fc":{"d":"97,-182v3,72,56,135,125,135v60,0,121,-54,121,-116r0,-337r54,0r0,446v0,22,9,48,15,54r-69,0r0,-53v-32,37,-77,62,-128,62v-93,0,-166,-82,-169,-184v-1,-2,-2,-3,-3,-4r0,-319r54,0r0,316xm123,-639v0,-18,16,-33,35,-33v18,0,35,15,35,33v0,17,-17,33,-35,33v-19,0,-35,-16,-35,-33xm253,-639v0,-18,16,-33,35,-33v19,0,35,15,35,33v0,17,-16,33,-35,33v-19,0,-35,-16,-35,-33","w":450},"\u00ff":{"d":"48,189r8,-56v8,8,24,8,37,8v43,0,89,-30,110,-86r38,-94r-190,-467r58,0r159,398r158,-398r58,0r-190,468r1,-1v-14,38,-30,76,-43,114v-28,76,-98,120,-161,120v-14,0,-29,-2,-43,-6xm176,-639v0,-18,16,-33,35,-33v18,0,35,15,35,33v0,17,-17,33,-35,33v-19,0,-35,-16,-35,-33xm306,-639v0,-18,16,-33,35,-33v19,0,35,15,35,33v0,17,-16,33,-35,33v-19,0,-35,-16,-35,-33","w":535},"\u00ef":{"d":"59,0r0,-500r53,0r0,500r-53,0xm6,-639v0,-18,16,-33,35,-33v19,0,35,15,35,33v0,17,-16,33,-35,33v-19,0,-35,-16,-35,-33xm98,-639v0,-18,15,-33,35,-33v18,0,35,15,35,33v0,17,-17,33,-35,33v-20,0,-35,-16,-35,-33","w":177},"\u00f1":{"d":"163,-650v38,0,54,16,88,17v25,0,55,-11,73,-26r21,42v-38,26,-104,40,-150,16r1,1v-38,-14,-80,0,-108,19r-19,-42v23,-16,58,-27,94,-27xm92,-503r0,50v33,-40,77,-62,129,-62v94,0,170,82,171,185r2,323r-55,0r0,-323v-1,-73,-56,-130,-123,-130v-59,0,-110,54,-124,116r0,337r-54,0r0,-448v0,-20,-9,-42,-15,-48r69,0","w":433},"\u00f5":{"d":"74,-247v0,111,80,202,180,202v98,0,178,-91,178,-202v0,-113,-80,-204,-178,-204v-100,0,-180,91,-180,204xm19,-247v0,-143,106,-259,235,-259v129,0,233,116,233,259v0,141,-104,257,-233,257v-129,0,-235,-116,-235,-257xm199,-635v55,0,73,26,123,28v21,0,43,-7,60,-18r15,43v-42,26,-111,27,-151,0v-33,-12,-77,-11,-106,9r-16,-43v23,-12,49,-19,75,-19","w":513},"\u00f8":{"d":"19,-247v0,-143,106,-259,235,-259v66,0,127,33,172,85r-42,36v-35,-41,-82,-66,-130,-66v-100,0,-180,91,-180,204v0,37,8,73,24,104r-41,36v-24,-44,-38,-91,-38,-140xm432,-247v0,-43,-13,-83,-35,-119r43,-36v29,46,47,100,47,155v0,141,-104,257,-233,257v-72,0,-138,-37,-183,-97r40,-36v36,48,88,78,143,78v98,0,178,-91,178,-202","w":513},"!":{"d":"80,-51v18,0,28,13,29,30v0,16,-13,30,-29,30v-17,0,-30,-14,-30,-30v0,-17,13,-30,30,-30xm56,-96r0,-590r48,0r0,590r-48,0","w":176},"\u00a1":{"d":"80,-630v-19,0,-28,-13,-29,-30v0,-16,12,-30,29,-30v16,0,30,14,30,30v0,17,-14,30,-30,30xm104,-586r0,586r-48,0r0,-586r48,0","w":160},"'":{"d":"48,-614r-8,-67r60,-5r8,70r-79,84r-14,-14","w":121},"(":{"d":"159,-696r24,61v-50,61,-82,195,-82,347v0,167,39,308,95,362r-32,53v-72,-71,-123,-230,-123,-415v0,-177,49,-335,118,-408","w":260},")":{"d":"64,-635r23,-61v69,74,119,232,119,408v0,185,-52,344,-123,415r-33,-53v57,-54,96,-195,96,-362v0,-152,-32,-286,-82,-347","w":246},"~":{"d":"124,-349v39,0,61,18,97,19v28,0,60,-9,79,-25r19,43v-38,28,-112,41,-158,14r1,1v-40,-13,-87,-3,-113,19r-23,-43v26,-18,63,-28,98,-28","w":347},"\u00bc":{"d":"266,-351r30,15r-104,178r82,0r0,-74r34,0r0,74r48,0r0,34r-48,0r0,124r-34,0r0,-124r-123,0r0,-29xm50,-426r-23,-22r69,-58r29,0r0,299r-34,0r0,-251v-13,11,-28,22,-41,32","w":382},"\u00bd":{"d":"38,-427r-23,-22r69,-58r29,0r0,300r-34,0r0,-252v-13,11,-28,22,-41,32xm295,-165r-118,132r149,0r0,33r-197,0r0,-29r144,-161v11,-12,19,-32,19,-50v0,-44,-35,-77,-79,-77v-21,0,-41,10,-59,26r-24,-24v24,-22,53,-36,83,-36v63,0,113,49,113,111v0,29,-14,55,-31,75","w":355},"\u00b7":{"d":"56,-312v0,-27,26,-56,58,-56v32,0,60,29,60,56v0,28,-28,54,-60,54v-32,0,-58,-26,-58,-54","w":225},"\u00b0":{"d":"62,-587v0,31,31,61,64,61v28,0,58,-30,58,-61v0,-33,-30,-65,-58,-65v-33,0,-64,32,-64,65xm21,-587v0,-59,45,-103,105,-103v55,0,99,44,99,103v0,55,-44,100,-99,100v-60,0,-105,-45,-105,-100","w":250},"\u00a6":{"d":"89,-399r-39,0r0,-312r39,0r0,312xm50,-348r39,0r0,347r-39,0r0,-347","w":131},"\u00a7":{"d":"280,-475r-24,51v-42,-20,-71,-28,-114,-18v14,24,39,47,72,63v100,48,154,162,74,243v11,92,-62,144,-141,145v-31,0,-66,-9,-102,-27r24,-46v63,32,155,26,167,-43v-57,16,-101,8,-154,-18r24,-48v42,18,78,27,119,13v-13,-28,-39,-49,-73,-66v-68,-34,-116,-99,-116,-156v0,-35,12,-64,39,-85v-15,-132,131,-173,242,-116r-24,51v-59,-36,-155,-30,-165,38v55,-13,97,-3,152,19xm266,-195v3,-9,7,-19,7,-31v0,-38,-36,-85,-85,-109v-37,-18,-70,-44,-89,-76v-4,9,-8,23,-8,33v0,38,33,81,86,106v39,19,71,46,89,77","w":356},"\u00be":{"d":"26,-192r25,-22v15,18,38,30,63,30v42,0,76,-30,76,-67v0,-49,-60,-75,-121,-65r0,-35r52,0v39,-2,70,-28,70,-60v0,-35,-34,-63,-75,-63v-25,0,-49,11,-66,30r-24,-24v23,-25,56,-39,90,-39v60,0,110,42,110,96v0,34,-20,62,-50,77v29,18,48,48,48,83v0,56,-49,101,-110,101v-35,0,-66,-17,-88,-42xm348,-125r-123,0r0,-30r116,-198r30,15r-102,178r79,0r0,-74r35,0r0,74r48,0r0,35r-48,0r0,123r-35,0r0,-123","w":458},"\u00b6":{"d":"333,-685r0,683r-52,0r0,-683r52,0xm271,-686r0,686r-90,0r0,-352v-85,-7,-159,-80,-159,-167v0,-93,74,-167,166,-167r83,0xm169,-410r0,-226v-54,2,-94,51,-94,113v0,60,40,111,94,113","w":382},"\u00c4":{"d":"207,-336r189,0r-95,-254xm25,0r254,-691r45,0r254,691r-57,0r-105,-281r-229,0r-105,281r-57,0xm196,-752v0,-18,16,-33,35,-33v18,0,35,15,35,33v0,17,-17,33,-35,33v-19,0,-35,-16,-35,-33xm326,-752v0,-18,16,-33,35,-33v19,0,35,15,35,33v0,17,-16,33,-35,33v-19,0,-35,-16,-35,-33","w":596},"\u00cb":{"d":"393,-395r0,55r-298,0r0,285r349,0r0,55r-404,0r0,-691r404,0r0,53r-349,0r0,243r298,0xm140,-753v0,-18,16,-33,35,-33v18,0,35,15,35,33v0,17,-17,33,-35,33v-19,0,-35,-16,-35,-33xm270,-753v0,-18,16,-33,35,-33v19,0,35,15,35,33v0,17,-16,33,-35,33v-19,0,-35,-16,-35,-33","w":485},"\u00cf":{"d":"98,-691r0,691r-55,0r0,-691r55,0xm-33,-752v0,-18,16,-33,35,-33v18,0,35,15,35,33v0,17,-17,33,-35,33v-19,0,-35,-16,-35,-33xm97,-752v0,-18,16,-33,35,-33v19,0,35,15,35,33v0,17,-16,33,-35,33v-19,0,-35,-16,-35,-33","w":138},"\u00d6":{"d":"602,-345v1,-157,-107,-294,-261,-294v-144,0,-259,130,-259,294v0,166,114,298,259,298v149,0,261,-132,261,-298xm655,-345v0,192,-131,354,-314,354v-169,0,-315,-153,-315,-354v0,-194,141,-350,315,-350v180,0,314,155,314,350xm243,-753v0,-18,16,-33,35,-33v18,0,35,15,35,33v0,17,-17,33,-35,33v-19,0,-35,-16,-35,-33xm373,-753v0,-18,16,-33,35,-33v19,0,35,15,35,33v0,17,-16,33,-35,33v-19,0,-35,-16,-35,-33"},"\u00dc":{"d":"97,-691r0,515v9,68,96,129,202,129v101,0,197,-60,197,-129r0,-515r55,0r0,515v-4,101,-118,185,-252,185v-140,0,-260,-84,-260,-185r0,-515r58,0xm197,-752v0,-18,16,-33,35,-33v18,0,35,15,35,33v0,17,-17,33,-35,33v-19,0,-35,-16,-35,-33xm327,-752v0,-18,16,-33,35,-33v19,0,35,15,35,33v0,17,-16,33,-35,33v-19,0,-35,-16,-35,-33","w":598},"\u00ce":{"d":"98,-691r0,691r-55,0r0,-691r55,0","w":138},"\u00cd":{"d":"98,-691r0,691r-55,0r0,-691r55,0xm209,-827r-122,98r-38,0r74,-98r86,0","w":154},"\u00cc":{"d":"106,-691r0,691r-55,0r0,-691r55,0xm80,-729r-123,-98r87,0r73,98r-37,0","w":131},"\u00d1":{"d":"43,-691r51,0r340,576r0,-576r55,0r0,691r-52,0r-340,-579r0,579r-54,0r0,-691xm205,-793v55,0,73,26,123,28v21,0,43,-7,60,-18r15,43v-42,26,-111,27,-151,0v-33,-12,-77,-11,-106,9r-16,-43v23,-12,49,-19,75,-19","w":537},"\u00b9":{"d":"66,-541r-38,-37r130,-108r50,0r0,306r-55,0r0,-233","w":263},"+":{"d":"252,-266r0,148r-54,0r0,-148r-147,0r0,-54r147,0r0,-147r54,0r0,147r148,0r0,54r-148,0","w":452},"-":{"d":"386,-266r-349,0r0,-54r349,0r0,54","w":421},"\/":{"d":"346,-686r-250,686r-59,0r251,-686r58,0","w":378},"&":{"d":"445,-101v-51,61,-122,101,-200,101v-120,0,-207,-88,-207,-190v0,-76,51,-145,157,-193v7,-4,9,-4,17,-8v-4,-4,-8,-10,-11,-14v-68,-72,-76,-107,-76,-143v0,-72,62,-142,158,-142v88,0,149,62,149,136v0,61,-56,123,-140,165r150,187v16,-33,31,-60,41,-106r62,13v-18,54,-39,105,-61,138v0,6,-2,11,-2,16v23,36,29,46,65,75r0,65v-50,-31,-70,-60,-102,-100xm482,-140r0,-1r0,1xm371,-553v0,-52,-37,-94,-93,-94v-50,0,-93,40,-93,91v0,52,53,98,82,133r9,-5r-1,0v75,-44,96,-76,96,-125xm238,-358r-10,7v-90,52,-125,101,-125,156v0,70,58,146,142,146v57,0,121,-38,156,-90r0,1v1,-2,4,-7,6,-9","w":597},"\u00d5":{"d":"602,-345v1,-157,-107,-294,-261,-294v-144,0,-259,130,-259,294v0,166,114,298,259,298v149,0,261,-132,261,-298xm655,-345v0,192,-131,354,-314,354v-169,0,-315,-153,-315,-354v0,-194,141,-350,315,-350v180,0,314,155,314,350xm281,-794v55,0,73,26,123,28v21,0,43,-7,60,-18r15,43v-42,26,-111,27,-151,0v-33,-12,-77,-11,-106,9r-16,-43v23,-12,49,-19,75,-19"},"\u00d0":{"d":"106,-269r-66,0r0,-54r66,0r0,-368r257,0v135,2,243,155,243,344v0,189,-106,347,-241,347r-259,0r0,-269xm363,-636r-202,0r0,313r171,0r0,54r-171,0r0,214v68,0,137,-2,204,-2v103,0,186,-132,186,-290v0,-158,-83,-289,-188,-289","w":653},"\u00b1":{"d":"252,-447r0,147r-54,0r0,-147r-147,0r0,-55r147,0r0,-147r54,0r0,147r148,0r0,55r-148,0xm399,-150r-349,0r0,-54r349,0r0,54","w":452},"*":{"d":"261,-487r0,110r-54,0r0,-108r-77,75r-39,-37r78,-78r-108,0r0,-54r108,0r-77,-77r38,-39r77,77r0,-109r54,0r0,109r77,-77r39,38r-77,77r109,0r0,55r-110,0r78,78r-38,37","w":471},"\u00d7":{"d":"176,-274r-105,104r-38,-38r104,-105r-103,-103r37,-39r105,104r104,-104r39,38r-105,104r105,105r-38,38","w":367},"_":{"d":"460,0r-423,0r0,-54r423,0r0,54","w":513},"\\":{"d":"287,0r-250,-686r58,0r251,686r-59,0","w":371},"\u00f7":{"d":"169,-136r0,-76r76,0r0,76r-76,0xm169,-376r0,-76r76,0r0,76r-76,0xm383,-273r-349,0r0,-54r349,0r0,54","w":425},"@":{"d":"469,-266v1,35,-16,71,33,72v27,0,80,-39,106,-93v14,-29,25,-91,25,-124v0,-116,-98,-215,-242,-215v-162,0,-283,127,-283,296v0,166,108,265,293,265v114,0,199,-47,239,-107r75,0r-6,15v-44,81,-153,156,-307,156v-209,0,-356,-111,-356,-323v0,-207,139,-366,348,-366v159,0,302,103,302,280v0,121,-82,273,-200,273v-20,0,-56,-3,-74,-25v-22,17,-51,28,-81,28v-72,0,-130,-60,-130,-134v0,-75,60,-132,134,-132r71,0v-1,-49,-7,-95,-39,-95v-28,0,-41,1,-65,10r-13,1r-14,-57r12,-1v27,-9,44,-11,81,-11v62,0,86,66,91,141r2,0v0,0,-2,76,-2,146xm422,-268r0,-79r-77,0v-47,0,-86,33,-86,79v0,45,37,81,82,81v44,0,81,-36,81,-81","w":754},"\u00a5":{"d":"166,-144r0,-56r142,0r0,-24r-142,0r0,-56r142,0r0,-28r-282,-378r73,0r235,324r240,-324r72,0r-282,378r0,28r142,0r0,56r-142,0r0,24r142,0r0,56r-142,0r0,144r-56,0r0,-144r-142,0","w":681},"\u00a3":{"d":"371,-293r-178,0r0,239r328,0r0,54r-382,0r0,-293r-117,0r0,-54r117,0r0,-339r54,0r0,339r178,0r0,54","w":556},"\u00fe":{"d":"113,-687r0,212v36,-20,81,-33,137,-33v134,0,241,117,241,257v0,144,-107,260,-241,260v-55,0,-100,-17,-138,-34r0,216r-54,0r0,-878r55,0xm110,-405r3,307v-3,27,60,52,137,52v101,0,186,-93,186,-204v0,-108,-85,-202,-186,-202v-70,0,-130,22,-140,47","w":517},"\u00d8":{"d":"655,-345v0,192,-131,352,-314,354v-32,0,-66,-7,-94,-16v-1,2,-1,6,-1,7r-60,0r11,-30v-99,-55,-171,-175,-171,-315v0,-194,141,-350,315,-350v31,0,65,6,94,15v1,-4,2,-9,3,-11r58,0r-11,33v105,62,170,177,170,313xm602,-345v1,-114,-59,-212,-136,-260r-200,546v189,56,334,-96,336,-286xm341,-639v-144,0,-259,130,-259,294v0,115,53,213,133,263r200,-545v-24,-9,-48,-12,-74,-12"},"\u00ac":{"d":"617,-390r0,231r-54,0r0,-177r-524,0r0,-54r578,0","w":662},"\u00bb":{"d":"59,-504r267,226r-224,267r-40,-36r189,-224r-228,-191xm224,-504r267,226r-224,267r-40,-36r189,-224r-228,-191","w":524},">":{"d":"70,-497r247,249r-247,246r-39,-40r209,-206r-209,-211","w":336},"<":{"d":"21,-248r246,-249r40,38r-209,211r209,206r-39,40","w":330},"\u00de":{"d":"113,-692r0,214v36,-21,82,-34,138,-34v135,0,243,118,243,259v0,145,-108,262,-243,262v-55,0,-101,-17,-139,-34r0,217r-54,0r0,-884r55,0xm110,-408r3,309v-3,27,60,53,138,53v102,0,187,-94,187,-206v0,-109,-85,-204,-187,-204v-71,0,-132,23,-141,48","w":535},"^":{"d":"25,-443r249,-246r246,247r-40,39r-206,-209r-211,209","w":551},"\u00ea":{"d":"387,-35v-46,23,-88,44,-150,44v-115,0,-212,-111,-212,-258v0,-142,91,-258,201,-258v120,1,207,123,198,283r-343,0v7,102,73,178,156,179v40,0,95,-21,129,-38xm82,-277r289,0v-9,-100,-70,-174,-145,-174v-71,0,-131,77,-144,174xm111,-559r114,-113r115,114r-35,34r-80,-81r-81,81","w":456},"\u00c3":{"d":"260,-821v36,-1,59,17,90,17v29,0,58,-8,75,-22r20,40v-38,28,-104,37,-151,15r1,1v-36,-13,-82,-3,-107,16r-21,-40v25,-16,58,-27,93,-27xm210,-343r189,0r-95,-254xm28,-7r254,-691r45,0r254,691r-57,0r-105,-281r-229,0r-105,281r-57,0","w":596},"\u00c6":{"d":"520,-336r9,-302r-213,0r-107,302r311,0xm281,-691r644,0r0,53r-350,0r0,243r299,0r0,55r-299,0r0,285r350,0r0,55r-405,0r0,-281r-331,0r-105,281r-58,0","w":1081},"\u00e2":{"d":"310,0r0,-30v-29,24,-69,40,-111,40v-89,0,-163,-69,-163,-154v0,-90,78,-155,170,-155r104,0v4,-82,-35,-152,-97,-152v-40,0,-80,5,-118,16r-13,-52v41,-12,85,-19,132,-19v82,0,151,81,151,183v0,0,-2,84,-2,164v0,73,5,147,16,159r-69,0xm310,-144r0,-101r-104,0v-63,0,-115,41,-115,101v0,55,48,98,108,98v61,0,111,-43,111,-98xm86,-559r114,-113r115,114r-35,34r-80,-81r-81,81","w":406},"\u00df":{"d":"271,-633r-167,0r0,241r167,0v73,-2,130,-54,130,-122v0,-62,-57,-119,-130,-119xm104,-338r0,506r-55,0r0,-854r222,0v102,2,185,81,185,172v0,64,-37,118,-89,150v63,32,103,97,103,167v0,105,-87,193,-199,195r-86,0r-52,-52r138,0v80,-4,144,-68,144,-143v0,-73,-64,-141,-161,-141r-150,0","w":520},"\u00ab":{"d":"189,-278r267,-226r36,42r-228,191r189,224r-40,36xm24,-278r267,-226r36,42r-228,191r189,224r-40,36","w":532},"\u00fb":{"d":"97,-182v3,72,56,135,125,135v60,0,121,-54,121,-116r0,-337r54,0r0,446v0,22,9,48,15,54r-69,0r0,-53v-32,37,-77,62,-128,62v-93,0,-166,-82,-169,-184v-1,-2,-2,-3,-3,-4r0,-319r54,0r0,316xm108,-559r114,-113r115,114r-35,34r-80,-81r-81,81","w":450},"\u00f4":{"d":"74,-247v0,111,80,202,180,202v98,0,178,-91,178,-202v0,-113,-80,-204,-178,-204v-100,0,-180,91,-180,204xm19,-247v0,-143,106,-259,235,-259v129,0,233,116,233,259v0,141,-104,257,-233,257v-129,0,-235,-116,-235,-257xm140,-559r114,-113r115,114r-35,34r-80,-81r-81,81","w":513},"\u00f0":{"d":"242,-275v-112,-1,-207,-89,-207,-207v0,-114,93,-209,209,-209v113,0,204,95,211,206v6,104,8,220,-9,313v-20,106,-113,179,-220,179v-66,0,-130,-36,-172,-88r50,-41v32,46,80,73,129,73v83,0,148,-59,163,-136v10,-50,11,-107,11,-165v-38,43,-99,75,-165,75xm87,-477v0,82,73,148,155,148v88,0,158,-68,158,-155v0,-82,-74,-151,-155,-151v-89,0,-158,74,-158,158","w":489},"\u00ee":{"d":"59,0r0,-500r53,0r0,500r-53,0xm-25,-566r114,-113r115,114r-35,34r-80,-81r-81,81","w":177},"#":{"d":"23,-215r46,-56r100,0r47,-126r-194,0r45,-56r168,0r71,-187r58,0r-68,187r218,0v22,-62,47,-126,70,-187r58,0r-68,187r118,0r-45,56r-92,0v-16,42,-33,83,-48,126r186,0r-47,56r-160,0r-77,215r-60,0r79,-215r-220,0r-78,215r-59,0r79,-215r-127,0xm276,-397r-47,126r219,0r46,-126r-218,0","w":714},"\u00e3":{"d":"151,-608v34,-1,55,16,83,16v29,0,61,-10,79,-26r19,39v-38,30,-100,41,-149,20r1,1v-37,-12,-80,-1,-105,20r-23,-40v25,-17,61,-30,95,-30xm313,-7r0,-30v-29,24,-69,40,-111,40v-89,0,-163,-69,-163,-154v0,-90,78,-155,170,-155r104,0v4,-82,-35,-152,-97,-152v-40,0,-80,5,-118,16r-13,-52v41,-12,85,-19,132,-19v82,0,151,81,151,183v0,0,-2,84,-2,164v0,73,5,147,16,159r-69,0xm313,-151r0,-101r-104,0v-63,0,-115,41,-115,101v0,55,48,98,108,98v61,0,111,-43,111,-98","w":406},"[":{"d":"154,-53v0,-1,7,-1,17,-1r0,54v-29,0,-72,-21,-72,-53r0,-235v-1,-31,-28,-41,-63,-37r0,-54v35,4,62,-6,63,-37r0,-225v5,-27,37,-45,72,-45r0,56v-9,0,-16,0,-17,-3r0,230v-7,19,-20,35,-42,37r0,27v20,3,36,17,42,36r0,250","w":210},"]":{"d":"23,-686v44,1,74,21,74,51r0,219v0,20,13,37,33,37r27,0r0,54r-27,0v-20,0,-33,16,-33,37r0,235v0,31,-41,53,-74,53r0,-54v11,0,16,-1,19,-2r0,-246v5,-22,19,-36,39,-37v0,-9,1,-17,2,-27v-20,-4,-37,-20,-41,-37r0,-227r-19,0r0,-56","w":183},"\u00a0":{"w":257}}});
