/*!
 * The following copyright notice may not be removed under any circumstances.
 * 
 * Copyright:
 * Llicència gratuïta / Free License (La Tipomatika)
 * 
 * Trademark:
 * Please refer to the Copyright section for the font trademark attribution
 * notices.
 * 
 * Full name:
 * CicleFinaItalic
 * 
 * Manufacturer:
 * La Tipomatika
 * 
 * Designer:
 * La Tipomatika (Digital Type Foundry)
 */
Cufon.registerFont({"w":690,"face":{"font-family":"Cicle","font-weight":300,"font-style":"italic","font-stretch":"normal","units-per-em":"1000","panose-1":"2 0 0 0 0 0 0 0 0 0","ascent":"800","descent":"-200","x-height":"200","bbox":"0 -831 1078 200","underline-thickness":"50","underline-position":"-50","unicode-range":"U+0020-U+00FF"},"glyphs":{" ":{"w":257},"e":{"d":"246,-32v43,0,102,-21,138,-37r9,37v-46,21,-92,39,-155,41v-117,3,-186,-123,-156,-258v32,-142,145,-258,254,-258v111,0,174,110,143,253r-5,24r-353,0v-17,111,37,197,125,198xm130,-271r313,0v15,-108,-34,-193,-116,-193v-80,0,-165,85,-197,193","w":456},"f":{"d":"453,-693r-21,41v-8,-2,-23,-2,-35,-2v-68,2,-130,80,-141,165r132,0r-9,43r-132,0r-94,446r-39,0r94,-446r-76,0r9,-43r74,0v6,-10,6,-29,9,-38v25,-91,103,-168,181,-168v17,0,32,0,48,2","w":328},"g":{"d":"159,-98v-12,-38,8,-86,32,-101v-39,-33,-57,-81,-46,-134v25,-114,168,-205,309,-162r173,0r-50,42r-63,0v28,30,40,71,29,120v-20,95,-125,171,-235,171v-33,0,-56,-12,-80,-12v-15,0,-34,6,-38,27v-8,46,37,29,70,29v112,0,186,70,167,158v-18,87,-123,160,-235,160v-109,0,-184,-73,-166,-160v13,-59,66,-112,133,-138xm66,40v-14,65,48,120,134,120v91,0,174,-55,188,-120v14,-64,-45,-120,-136,-120v-86,0,-172,56,-186,120xm186,-333v-15,72,43,131,130,131v90,0,173,-59,188,-131v16,-75,-41,-133,-131,-133v-87,0,-171,58,-187,133","w":551},"p":{"d":"100,-87v1,29,63,54,139,54v110,0,220,-99,245,-219v25,-118,-43,-214,-153,-214v-83,0,-156,26,-163,58xm188,-499r-7,30v39,-22,98,-40,159,-40v133,0,216,116,186,257v-31,144,-162,260,-296,260v-58,0,-112,-16,-141,-39r-48,226r-41,0r128,-603v0,0,15,-83,10,-91r50,0","w":506},"y":{"d":"12,195r14,-43v5,8,19,6,32,7v47,0,103,-33,139,-92r61,-99r-92,-474r45,0r79,422r256,-422r45,0r-292,471r-69,117r-4,9v-47,70,-117,109,-179,109v-12,0,-24,-2,-35,-5","w":535},"R":{"d":"161,-347r-2,0r-73,347r-42,0r146,-691r198,0v109,0,180,76,160,171v-20,96,-124,173,-233,173r-99,0r232,347r-54,0xm380,-652r-156,0r-56,263r156,0v84,0,166,-57,182,-131v15,-72,-42,-132,-126,-132","w":474},"d":{"d":"527,-411v-2,-29,-58,-53,-137,-53v-112,0,-220,98,-244,212v-25,118,43,218,155,218v82,0,152,-31,159,-62xm440,-3r6,-29v-39,23,-95,39,-156,39v-131,0,-216,-116,-185,-259v30,-141,162,-254,296,-254v59,0,106,13,138,39r47,-224r42,0r-126,595v0,0,-19,87,-13,93r-49,0","w":534},"h":{"d":"194,-693r42,0r-56,264v42,-49,97,-78,155,-78v94,0,151,81,130,182r-66,322r-42,0r69,-322v13,-79,-32,-141,-105,-141v-65,0,-144,52,-160,126r-72,340r-42,0","w":455},"i":{"d":"66,0r106,-500r41,0r-106,500r-41,0xm196,-650v3,-14,18,-27,34,-27v15,0,27,13,24,27v-3,14,-20,27,-35,27v-16,0,-26,-13,-23,-27","w":177},"j":{"d":"334,-645v4,-16,16,-27,33,-27v13,0,25,11,21,27v-3,15,-19,27,-32,27v-17,0,-25,-12,-22,-27xm11,194r13,-39v15,0,29,3,43,3r3,-3v57,0,115,-61,130,-134r111,-522r42,0r-113,532v-26,90,-101,165,-182,167v-17,0,-33,-3,-47,-4","w":354},"k":{"d":"250,-691r-76,357r226,-160r64,0r-179,126r132,368r-49,0r-122,-338r-83,59r-59,279r-47,0v2,-2,9,-19,14,-45r137,-646r42,0","w":440},"l":{"d":"66,0r146,-691r42,0r-146,691r-42,0","w":162},"m":{"d":"190,-500r-16,73v43,-49,98,-78,154,-78v70,0,119,47,132,111v44,-80,120,-113,177,-113v94,0,151,81,130,182r-67,323r-42,0r69,-323v14,-77,-32,-140,-103,-140v-67,0,-145,54,-160,125r-72,338r-42,0r68,-321v15,-79,-31,-140,-104,-140v-66,0,-144,51,-159,125r-71,338r-42,0r95,-451v5,-23,7,-47,6,-49r47,0","w":739},"n":{"d":"187,-496r-14,67v42,-50,98,-79,155,-79v94,0,152,82,131,183r-67,325r-42,0r69,-325v14,-79,-32,-141,-104,-141v-67,0,-145,51,-161,126r-72,340r-42,0r96,-454v5,-22,6,-40,4,-42r47,0","w":433},"o":{"d":"117,-247v-25,118,40,215,147,215v104,0,210,-97,235,-215v26,-120,-39,-217,-143,-217v-107,0,-213,97,-239,217xm75,-247v30,-143,161,-259,290,-259v128,0,207,116,177,259v-30,141,-159,257,-287,257v-129,0,-210,-116,-180,-257","w":513},"q":{"d":"515,-470r6,-24r40,0r-147,689r-40,0r52,-244v-41,25,-93,40,-154,39v-126,-2,-208,-112,-179,-248v29,-136,158,-248,284,-248v60,0,110,14,138,36xm437,-103r65,-305v8,-33,-55,-59,-133,-58v-105,0,-211,93,-236,208v-24,115,43,208,147,208v77,0,144,-24,157,-53","w":513},"r":{"d":"356,-503r-18,41v-7,-2,-12,-2,-19,-2v-67,0,-144,51,-160,126r-71,338r-42,0r96,-452v4,-22,8,-47,5,-49r47,0r-16,74v43,-50,98,-79,155,-79v7,0,16,0,23,3","w":279},"s":{"d":"469,-443r-40,25v-23,-29,-67,-45,-116,-45v-68,0,-127,35,-138,86v-10,48,32,94,101,105v88,14,141,77,126,148v-17,79,-103,132,-191,132v-62,0,-121,-24,-146,-65r37,-25v22,28,65,49,115,49v69,0,132,-37,143,-91v11,-50,-31,-98,-100,-109v-89,-13,-142,-78,-128,-146v16,-76,104,-126,194,-126v62,0,115,26,143,62","w":417},"t":{"d":"272,-691r42,0r-42,198r135,0r-9,43r-135,0r-95,450r-40,0r95,-450r-76,0r9,-43r74,0","w":340},"u":{"d":"356,0r14,-70v-39,46,-97,79,-154,79v-93,0,-148,-82,-128,-184r-2,-5r67,-318r41,0r-67,318r1,5v-15,77,32,141,104,141v67,0,143,-55,158,-126r72,-340r42,0r-96,452v-5,24,-7,46,-5,48r-47,0","w":450},"v":{"d":"226,0r-95,-500r45,0r85,442r272,-442r48,0r-310,500r-45,0","w":500},"w":{"d":"782,-500r-310,500r-45,-3r-36,-195r-125,198r-45,-3r-95,-497r45,0r85,442r122,-198r-46,-244r48,0r82,442r272,-442r48,0","w":705},"x":{"d":"246,-259r-102,-241r53,0r84,206r175,-206r52,0r-208,249r102,251r-50,0r-91,-216r-178,216r-50,0","w":444},"z":{"d":"46,0r9,-43r400,-414r-309,0r9,-43r364,0r-9,43r-400,414r312,0r-9,43r-367,0","w":452},"A":{"d":"267,-329r213,0r-45,-288xm32,0r401,-691r35,0r109,691r-44,0r-46,-287r-243,0r-168,287r-44,0","w":596},"B":{"d":"275,-2v-69,3,-148,1,-221,2r146,-691r221,0v101,2,166,80,147,170v-14,68,-66,125,-132,155v63,29,93,96,77,170v-22,104,-127,190,-238,194xm526,-521v15,-73,-40,-130,-131,-130r-161,0r-56,262r179,0v80,-2,154,-59,169,-132xm104,-42r179,0v87,-4,171,-72,188,-154v17,-79,-38,-151,-123,-151r-179,0","w":512},"C":{"d":"685,-599r-35,31r1,-3v-38,-51,-98,-82,-169,-82v-148,0,-300,137,-336,308v-36,168,49,311,205,311v71,0,140,-31,201,-81r22,28v-69,59,-150,96,-232,96v-165,0,-280,-160,-239,-354v39,-186,213,-350,388,-350v82,0,152,37,194,96","w":590},"D":{"d":"430,-649r-213,0r-129,607r215,0r1,-2v109,-3,226,-138,261,-303v35,-164,-24,-302,-135,-302xm38,0r146,-691r255,0v134,2,208,155,168,344v-40,189,-177,342,-312,345r0,2r-257,0","w":575},"E":{"d":"474,-389r-9,42r-305,0r-65,305r357,0r-8,42r-399,0r146,-691r399,0r-8,40r-357,0r-56,262r305,0","w":485},"F":{"d":"478,-389r-9,42r-305,0r-73,347r-42,0r146,-691r399,0r-8,39r-357,0r-56,263r305,0","w":487},"G":{"d":"629,-340r-54,255v-70,59,-152,94,-235,94v-174,0,-283,-158,-242,-351v41,-194,217,-353,391,-353v83,0,151,36,195,96r-34,29v-39,-51,-99,-82,-170,-82v-151,0,-303,137,-340,310v-36,171,57,311,208,311v66,0,134,-28,188,-71r42,-198r-191,0r9,-40r233,0","w":604},"H":{"d":"546,-347r-381,0r-73,347r-42,0r146,-691r42,0r-64,302r381,0r64,-302r42,0r-146,691r-42,0","w":558},"I":{"d":"238,-691r-146,691r-42,0r146,-691r42,0","w":138},"J":{"d":"391,-691r-111,523v-20,96,-97,177,-166,177v-31,0,-56,-17,-72,-42r33,-29v11,17,29,29,48,29v47,0,97,-56,114,-133r111,-525r43,0","w":305},"K":{"d":"191,-691r42,0r-80,376r402,-376r57,0r-321,300r251,391r-54,0r-231,-359r-117,109r-53,250r-42,0","w":583},"L":{"d":"233,-691r-138,649r337,0r-8,42r-379,0r146,-691r42,0","w":453},"M":{"d":"370,-305r306,-386r43,0r-146,691r-43,0r129,-610r-289,365r-26,0r-138,-365r-129,610r-42,0r146,-691r42,0","w":623},"N":{"d":"194,-691r41,0r229,607r129,-607r42,0r-146,691r-42,0r-229,-610r-129,610r-41,0","w":537},"O":{"d":"691,-345v36,-169,-52,-306,-209,-307v-150,0,-300,136,-336,307v-37,173,53,311,205,311v156,0,303,-138,340,-311xm580,-88v-71,61,-153,97,-238,97v-168,0,-282,-153,-239,-354v41,-194,215,-350,388,-350v180,0,281,155,240,350v-22,104,-77,192,-151,257"},"P":{"d":"326,-346r-157,0r-73,346r-42,0r146,-691r199,0v108,0,179,77,159,170v-21,98,-124,175,-232,175xm391,-651r-157,0r-56,263r157,0v83,0,164,-57,180,-133v15,-71,-41,-130,-124,-130","w":480},"Q":{"d":"658,-368v34,-155,-46,-291,-190,-291v-137,0,-279,129,-314,291v-33,157,51,285,188,289v3,-24,-12,-43,-38,-42r8,-36v46,-1,74,31,71,76v123,-24,244,-144,275,-287xm698,-368v-34,155,-163,296,-323,322v-4,42,9,74,31,74v14,0,27,-10,35,-23r23,24v-22,23,-44,38,-67,38v-41,0,-65,-49,-61,-109v-154,-4,-258,-145,-220,-326v40,-186,204,-327,359,-327v157,0,263,143,223,327","w":665},"S":{"d":"64,-85r39,-27v22,48,71,79,141,79v86,0,173,-59,189,-136v17,-77,-35,-143,-121,-151v-113,-11,-180,-93,-159,-190v22,-105,134,-184,252,-184v76,0,130,28,163,77r-40,27v-25,-40,-71,-65,-131,-65v-88,0,-182,62,-199,141v-17,77,38,143,127,153v108,13,174,94,154,188v-21,102,-131,182,-246,182v-81,0,-143,-39,-169,-94","w":485},"T":{"d":"674,-651r-225,0r-138,651r-42,0r138,-651r-226,0r8,-40r493,0","w":575},"U":{"d":"235,-691r-110,518v-11,77,69,139,184,139v110,0,220,-61,237,-139r110,-518r42,0r-110,518v-25,99,-154,182,-288,182v-139,0,-241,-84,-220,-182r110,-518r45,0","w":598},"V":{"d":"299,0r-109,-691r44,0r100,629r366,-629r44,0r-401,691r-44,0","w":639},"W":{"d":"1010,-691r-400,691r-46,0r-47,-295r-170,295r-45,0r-109,-691r44,0r101,629r170,-295r-52,-334r44,0r100,629r365,-629r45,0","w":915},"X":{"d":"320,-354r-126,-337r47,0r116,302r242,-302r49,0r-275,344r129,347r-49,0r-118,-312r-249,312r-47,0","w":541},"Y":{"d":"735,-691r56,0r-363,378r-66,313r-43,0r66,-313r-203,-378r57,0r175,338","w":681},"Z":{"d":"660,-691r-541,649r368,0r-8,42r-444,0r542,-649r-376,0r9,-42r450,0","w":548},"{":{"d":"159,-47v0,2,6,5,16,5r-8,42v-24,0,-56,-19,-51,-47r52,-242v6,-34,-18,-49,-55,-45r9,-42v40,4,67,-13,74,-45r49,-230v9,-24,39,-40,68,-40r-9,43v-10,0,-17,0,-17,2r-51,237v-9,17,-30,33,-50,33r-9,42v20,0,35,12,37,32","w":223},"}":{"d":"58,-47r55,-255v8,-20,26,-32,46,-32r11,-42v-22,0,-34,-16,-35,-33r51,-237v-3,-2,-10,-2,-20,-2r9,-43v37,0,53,18,53,45r-48,225v-7,34,15,50,52,45r-9,42v-40,-4,-63,11,-71,45r-52,242v-5,27,-43,47,-71,47r8,-42v10,0,18,-3,21,-5","w":188},",":{"d":"78,0r13,-64r48,0r-13,64r-97,69r-4,-6","w":173},".":{"d":"43,0r13,-64r64,0r-13,64r-64,0","w":145},"0":{"d":"158,-344v-37,173,30,311,146,311v118,0,240,-138,277,-311v36,-171,-28,-309,-146,-309v-116,0,-241,138,-277,309xm116,-344v41,-194,189,-351,328,-351v140,0,219,157,178,351v-42,194,-187,353,-327,353v-139,0,-221,-159,-179,-353","w":586},"1":{"d":"185,-558r-24,-29r148,-104r42,0r-146,691r-42,0r135,-637","w":263},"2":{"d":"446,-337r-325,296r321,0r-8,41r-377,0r8,-41r361,-326v33,-30,58,-70,68,-114v20,-97,-42,-172,-140,-172v-47,0,-94,19,-132,49r-24,-30v48,-36,106,-61,165,-61v120,0,198,96,173,214v-12,56,-47,105,-90,144","w":475},"3":{"d":"39,-60r35,-29v23,34,67,59,121,59v93,0,183,-69,201,-153v16,-77,-39,-141,-123,-149r-93,0r9,-42r93,0v89,-5,172,-66,187,-139v17,-79,-46,-141,-138,-141v-55,0,-109,20,-148,55r-23,-30v48,-42,113,-66,179,-66v117,0,197,81,175,182v-15,71,-79,132,-153,161v62,32,93,96,77,169v-23,108,-135,194,-252,194v-66,0,-119,-29,-147,-71","w":431},"4":{"d":"345,-254r-254,0r9,-42r2,0r312,-395r32,20r-297,375r205,0r33,-154r42,0r-33,154r99,0r-9,42r-99,0r-53,254r-42,0","w":473},"5":{"d":"166,-352r-42,0r96,-339r369,0r-9,42r-327,0r-71,224v47,-43,109,-70,171,-70v124,0,198,110,169,246v-29,137,-150,249,-274,249v-71,0,-129,-39,-156,-98r35,-29v20,52,67,85,129,85v100,0,200,-92,224,-207v25,-115,-36,-205,-136,-205v-69,0,-137,41,-178,102","w":504},"6":{"d":"345,-407v119,0,197,87,171,209v-25,117,-137,206,-253,206v-112,1,-183,-90,-163,-202v19,-112,39,-229,77,-323v40,-99,141,-179,244,-179v72,0,130,31,161,87r-48,26v-21,-43,-66,-71,-120,-71v-82,0,-169,64,-202,150v-23,58,-42,122,-53,192v46,-56,115,-95,186,-95xm273,-32v94,-1,187,-77,203,-173v16,-91,-42,-161,-134,-161v-94,0,-182,80,-201,171v-19,90,42,163,132,163","w":506},"7":{"d":"45,0r439,-649r-280,0r9,-42r350,0r-468,691r-50,0","w":443},"8":{"d":"73,-191v17,-81,79,-149,151,-182v-47,-29,-73,-85,-59,-149v20,-95,117,-173,214,-173v101,0,163,78,143,173v-14,64,-60,120,-122,149v62,33,91,101,74,182v-23,110,-131,200,-244,200v-109,0,-180,-90,-157,-200xm207,-522v-15,71,34,130,108,130v76,0,149,-59,164,-130v16,-73,-33,-131,-109,-131v-74,0,-147,58,-163,131xm115,-191v-18,85,39,158,124,158v89,0,175,-73,193,-158v19,-88,-37,-160,-126,-160v-85,0,-172,72,-191,160","w":459},"9":{"d":"305,-283v-113,0,-187,-91,-163,-205v24,-114,137,-208,252,-208v117,-1,187,93,167,204v-20,110,-40,225,-77,321v-41,105,-150,178,-257,178v-66,0,-122,-34,-151,-82r48,-33v23,45,67,72,119,72v89,0,173,-62,206,-146v23,-58,39,-124,52,-192v-49,55,-120,91,-196,91xm181,-483v-17,88,44,159,132,159v95,0,186,-73,206,-167v19,-88,-45,-162,-133,-162v-95,0,-188,79,-205,170","w":489},"\u00bf":{"d":"335,-691r43,0r26,323r-9,43r-99,0v-77,2,-153,67,-169,146v-17,79,33,146,112,146v53,0,102,-29,138,-72r23,31v-43,49,-106,84,-171,84v-100,0,-165,-86,-143,-189v21,-101,122,-189,219,-189r56,0xm379,-786v-3,16,-18,28,-32,28v-17,0,-24,-12,-22,-28v4,-32,62,-42,54,0","w":432},"\u00e6":{"d":"323,0r8,-40v-38,31,-84,50,-132,50v-88,0,-146,-68,-129,-151v18,-84,106,-152,194,-152r115,0v3,-11,7,-22,13,-32v15,-77,-20,-139,-78,-139v-42,0,-83,5,-119,15r-2,-40v41,-11,84,-18,131,-17v59,1,101,45,111,107v51,-65,119,-108,185,-108v111,0,174,110,143,253r-5,24r-347,0r-9,46v2,87,52,152,128,152v43,0,102,-21,138,-37r9,37v-46,21,-92,41,-155,41v-64,0,-115,-35,-141,-91v-9,45,-15,79,-11,82r-47,0xm421,-271r306,0v15,-108,-34,-193,-116,-193v-80,0,-167,83,-190,193xm359,-172v-2,-25,2,-58,8,-80r-112,0v-66,0,-129,50,-142,111v-12,60,30,108,96,108v66,0,131,-48,143,-108","w":743},"a":{"d":"323,0r8,-40v-38,31,-84,50,-132,50v-88,0,-146,-68,-129,-151v19,-89,110,-152,201,-152r114,0r4,-22v18,-81,-11,-148,-75,-149v-42,0,-83,5,-119,15r-2,-40v41,-11,84,-17,131,-17v81,1,131,86,110,181r-38,169v-16,77,-30,151,-26,156r-47,0xm352,-141r24,-111r-114,0v-69,0,-135,45,-149,111v-12,60,30,108,96,108v66,0,131,-48,143,-108","w":406},"b":{"d":"188,-410r-68,316v-6,32,56,62,138,62v109,0,219,-99,244,-217v25,-115,-44,-215,-152,-215v-77,0,-148,24,-162,54xm107,-30r-6,30r-49,0v7,-8,29,-94,29,-94r127,-597r42,0r-47,224v40,-25,97,-39,156,-39v133,0,215,118,185,257v-30,142,-161,259,-295,259v-61,0,-112,-18,-142,-40","w":523},"c":{"d":"525,-428r-36,31v-26,-40,-71,-67,-128,-67v-109,0,-217,96,-243,216v-25,118,43,215,152,215v54,0,109,-24,153,-64r24,29v-55,47,-120,77,-186,77v-130,0,-215,-116,-185,-257v30,-142,164,-258,294,-258v69,0,123,32,155,78","w":478},"?":{"d":"232,0r-44,0r-23,-321r8,-41r94,0v79,-2,153,-66,170,-144v17,-82,-32,-148,-110,-148v-52,0,-103,30,-137,72r-23,-29v43,-50,106,-84,168,-84v101,0,165,85,143,189v-21,99,-119,185,-219,185r-53,0xm186,96v4,-30,61,-38,53,0v-3,16,-16,29,-32,29v-14,0,-23,-13,-21,-29","w":410},"\u00b4":{"d":"312,-640r-128,87r-23,0r85,-87r66,0","w":209},"`":{"d":"258,-553r-90,-87r66,0r47,87r-23,0","w":204},"\u00e0":{"d":"323,0r8,-40v-38,31,-84,50,-132,50v-88,0,-146,-68,-129,-151v19,-89,110,-152,201,-152r114,0r4,-22v18,-81,-11,-148,-75,-149v-42,0,-83,5,-119,15r-2,-40v41,-11,84,-17,131,-17v81,1,131,86,110,181r-38,169v-16,77,-30,151,-26,156r-47,0xm352,-141r24,-111r-114,0v-69,0,-135,45,-149,111v-12,60,30,108,96,108v66,0,131,-48,143,-108xm318,-553r-90,-87r66,0r47,87r-23,0","w":406},"\u00e1":{"d":"323,0r8,-40v-38,31,-84,50,-132,50v-88,0,-146,-68,-129,-151v19,-89,110,-152,201,-152r114,0r4,-22v18,-81,-11,-148,-75,-149v-42,0,-83,5,-119,15r-2,-40v41,-11,84,-17,131,-17v81,1,131,86,110,181r-38,169v-16,77,-30,151,-26,156r-47,0xm352,-141r24,-111r-114,0v-69,0,-135,45,-149,111v-12,60,30,108,96,108v66,0,131,-48,143,-108xm447,-640r-128,87r-23,0r85,-87r66,0","w":406},"\u00c0":{"d":"267,-329r213,0r-45,-288xm32,0r401,-691r35,0r109,691r-44,0r-46,-287r-243,0r-168,287r-44,0xm458,-744r-90,-87r66,0r47,87r-23,0","w":596},"\u00c1":{"d":"267,-329r213,0r-45,-288xm32,0r401,-691r35,0r109,691r-44,0r-46,-287r-243,0r-168,287r-44,0xm599,-831r-128,87r-23,0r85,-87r66,0","w":596},"\u00c2":{"d":"267,-329r213,0r-45,-288xm32,0r401,-691r35,0r109,691r-44,0r-46,-287r-243,0r-168,287r-44,0","w":596},"\u00c8":{"d":"474,-389r-9,42r-305,0r-65,305r357,0r-8,42r-399,0r146,-691r399,0r-8,40r-357,0r-56,262r305,0xm389,-744r-90,-87r66,0r47,87r-23,0","w":485},"\u00c9":{"d":"474,-389r-9,42r-305,0r-65,305r357,0r-8,42r-399,0r146,-691r399,0r-8,40r-357,0r-56,262r305,0xm516,-831r-128,87r-23,0r85,-87r66,0","w":485},"\u00d2":{"d":"691,-345v36,-169,-52,-306,-209,-307v-150,0,-300,136,-336,307v-37,173,53,311,205,311v156,0,303,-138,340,-311xm580,-88v-71,61,-153,97,-238,97v-168,0,-282,-153,-239,-354v41,-194,215,-350,388,-350v180,0,281,155,240,350v-22,104,-77,192,-151,257xm480,-744r-90,-87r66,0r47,87r-23,0"},"\u00d3":{"d":"691,-345v36,-169,-52,-306,-209,-307v-150,0,-300,136,-336,307v-37,173,53,311,205,311v156,0,303,-138,340,-311xm580,-88v-71,61,-153,97,-238,97v-168,0,-282,-153,-239,-354v41,-194,215,-350,388,-350v180,0,281,155,240,350v-22,104,-77,192,-151,257xm654,-831r-128,87r-23,0r85,-87r66,0"},"\u00d9":{"d":"235,-691r-110,518v-11,77,69,139,184,139v110,0,220,-61,237,-139r110,-518r42,0r-110,518v-25,99,-154,182,-288,182v-139,0,-241,-84,-220,-182r110,-518r45,0xm452,-744r-90,-87r66,0r47,87r-23,0","w":598},"\u00da":{"d":"235,-691r-110,518v-11,77,69,139,184,139v110,0,220,-61,237,-139r110,-518r42,0r-110,518v-25,99,-154,182,-288,182v-139,0,-241,-84,-220,-182r110,-518r45,0xm595,-831r-128,87r-23,0r85,-87r66,0","w":598},"\u00dd":{"d":"735,-691r56,0r-363,378r-66,313r-43,0r66,-313r-203,-378r57,0r175,338xm645,-831r-128,87r-23,0r85,-87r66,0","w":681},"\u00e8":{"d":"246,-32v43,0,102,-21,138,-37r9,37v-46,21,-92,39,-155,41v-117,3,-186,-123,-156,-258v32,-142,145,-258,254,-258v111,0,174,110,143,253r-5,24r-353,0v-17,111,37,197,125,198xm130,-271r313,0v15,-108,-34,-193,-116,-193v-80,0,-165,85,-197,193xm347,-553r-90,-87r66,0r47,87r-23,0","w":456},"\u00e9":{"d":"246,-32v43,0,102,-21,138,-37r9,37v-46,21,-92,39,-155,41v-117,3,-186,-123,-156,-258v32,-142,145,-258,254,-258v111,0,174,110,143,253r-5,24r-353,0v-17,111,37,197,125,198xm130,-271r313,0v15,-108,-34,-193,-116,-193v-80,0,-165,85,-197,193xm476,-640r-128,87r-23,0r85,-87r66,0","w":456},"\u00ec":{"d":"96,0r106,-500r41,0r-106,500r-41,0xm242,-553r-90,-87r66,0r47,87r-23,0","w":211},"\u00ed":{"d":"66,0r106,-500r41,0r-106,500r-41,0xm320,-640r-128,87r-23,0r85,-87r66,0","w":211},"\u00f2":{"d":"117,-247v-25,118,40,215,147,215v104,0,210,-97,235,-215v26,-120,-39,-217,-143,-217v-107,0,-213,97,-239,217xm75,-247v30,-143,161,-259,290,-259v128,0,207,116,177,259v-30,141,-159,257,-287,257v-129,0,-210,-116,-180,-257xm383,-553r-90,-87r66,0r47,87r-23,0","w":527},"\u00f3":{"d":"117,-247v-25,118,40,215,147,215v104,0,210,-97,235,-215v26,-120,-39,-217,-143,-217v-107,0,-213,97,-239,217xm75,-247v30,-143,161,-259,290,-259v128,0,207,116,177,259v-30,141,-159,257,-287,257v-129,0,-210,-116,-180,-257xm518,-640r-128,87r-23,0r85,-87r66,0","w":527},"\u00f9":{"d":"356,0r14,-70v-39,46,-97,79,-154,79v-93,0,-148,-82,-128,-184r-2,-5r67,-318r41,0r-67,318r1,5v-15,77,32,141,104,141v67,0,143,-55,158,-126r72,-340r42,0r-96,452v-5,24,-7,46,-5,48r-47,0xm346,-553r-90,-87r66,0r47,87r-23,0","w":450},"\u00fa":{"d":"356,0r14,-70v-39,46,-97,79,-154,79v-93,0,-148,-82,-128,-184r-2,-5r67,-318r41,0r-67,318r1,5v-15,77,32,141,104,141v67,0,143,-55,158,-126r72,-340r42,0r-96,452v-5,24,-7,46,-5,48r-47,0xm465,-640r-128,87r-23,0r85,-87r66,0","w":450},"\u00fd":{"d":"12,195r14,-43v5,8,19,6,32,7v47,0,103,-33,139,-92r61,-99r-92,-474r45,0r79,422r256,-422r45,0r-292,471r-69,117r-4,9v-47,70,-117,109,-179,109v-12,0,-24,-2,-35,-5xm528,-640r-128,87r-23,0r85,-87r66,0","w":535},":":{"d":"61,0r13,-64r64,0r-13,64r-64,0xm153,-436r14,-64r64,0r-14,64r-64,0","w":182},";":{"d":"153,-436r14,-64r64,0r-14,64r-64,0xm67,0r13,-64r48,0r-13,64r-97,69r-4,-6","w":169},"=":{"d":"153,-394r10,-44r335,0r-10,44r-335,0xm112,-200r9,-44r335,0r-9,44r-335,0","w":440},"\u00c7":{"d":"676,-570v-38,-52,-97,-85,-168,-85v-153,0,-305,143,-341,313v-35,166,54,311,208,311v70,0,142,-32,201,-82r24,28v-74,64,-157,94,-244,94r-14,23v11,0,47,23,40,56v-4,18,-20,38,-62,59r-27,-25v10,0,51,-8,56,-36v5,-27,-30,-32,-52,-31r12,-51v-138,-31,-220,-172,-183,-346v42,-199,217,-353,390,-353v82,0,153,36,195,97","w":634},"\u00e7":{"d":"288,9r-14,27v11,0,47,23,40,56v-4,18,-21,39,-63,61r-26,-26v18,-2,51,-13,55,-33v6,-32,-30,-37,-53,-34r13,-54v-111,-20,-176,-125,-149,-255v30,-141,161,-257,295,-257v67,0,123,30,155,79r-35,29v-28,-40,-74,-66,-129,-66v-110,0,-219,96,-244,215v-26,120,43,216,153,216v54,0,109,-24,152,-62r24,29v-50,43,-111,71,-174,75","w":493},"\u00a2":{"d":"348,-504r14,-68r47,0r-14,68v56,6,102,36,130,76r-36,31v-22,-34,-58,-59,-103,-65r-91,428v45,-6,90,-29,128,-63r24,29v-49,41,-104,69,-161,75r-14,68r-47,0r14,-68v-118,-11,-191,-122,-163,-255v29,-134,149,-244,272,-256xm118,-248v-23,110,33,202,130,214r91,-428v-102,12,-197,103,-221,214","w":478},"|":{"d":"57,-1r152,-716r26,0r-152,716r-26,0","w":131},"$":{"d":"289,-366r61,-286v-75,14,-147,71,-161,139v-15,69,27,130,100,147xm321,-318r-60,283v75,-10,149,-64,164,-135v15,-71,-29,-133,-104,-148xm368,-737r42,0r-9,43v73,0,126,30,158,77r-40,27v-24,-38,-69,-65,-126,-65r-63,296v99,20,159,96,140,186v-20,94,-114,168,-218,180r-13,59r-42,0r13,-57v-75,-5,-130,-42,-155,-94r39,-27v19,41,64,79,125,79r61,-290v-99,-19,-156,-95,-136,-186v20,-95,109,-168,215,-183","w":466},"\"":{"d":"165,-554r18,-137r48,0r-6,63r-55,80xm240,-554r18,-137r48,0r-6,63r-55,80","w":217},"\u00aa":{"d":"227,-320r-34,0r1,-6v-12,7,-24,10,-39,10v-35,0,-57,-26,-50,-59v7,-31,39,-56,76,-56r35,0v6,-23,-2,-51,-21,-50v-17,0,-31,1,-47,6r1,-25v15,-4,30,-6,51,-6v30,0,48,28,41,69v-1,2,-27,104,-14,117xm211,-407r-37,0v-20,0,-41,17,-44,32v-3,17,10,33,30,33v19,0,41,-16,44,-33","w":179},"\u00ba":{"d":"138,-406v-7,34,17,69,51,69v29,0,68,-35,75,-69v8,-39,-15,-75,-44,-75v-34,0,-74,36,-82,75xm113,-406v12,-58,60,-100,112,-100v47,0,77,42,65,100v-11,52,-59,95,-106,95v-52,0,-82,-43,-71,-95","w":232},"\u00b2":{"d":"152,-347r164,0r-6,30r-209,0r6,-30r192,-173v18,-16,33,-40,37,-59v9,-46,-25,-85,-70,-85v-22,0,-48,10,-74,31r-19,-25v31,-23,63,-37,99,-37v66,0,107,52,94,116v-7,31,-29,64,-49,82","w":280},"\u00b3":{"d":"117,-374r8,0v12,18,36,32,61,32v41,0,89,-33,98,-74v8,-39,-22,-76,-59,-76r-54,0r7,-31r54,0v39,-2,83,-35,91,-70v7,-35,-26,-68,-68,-68v-25,0,-55,11,-80,33r-18,-24v30,-26,65,-39,104,-39v63,0,106,43,95,98v-9,40,-34,69,-75,86v25,20,42,55,34,91v-12,58,-73,104,-135,104v-40,0,-69,-16,-86,-42","w":265},"\u00a8":{"d":"177,-650v3,-14,18,-27,34,-27v15,0,27,13,24,27v-3,14,-20,27,-35,27v-16,0,-26,-13,-23,-27xm311,-650v3,-14,18,-27,34,-27v15,0,27,13,24,27v-3,14,-20,27,-35,27v-16,0,-26,-13,-23,-27","w":263},"\u00e4":{"d":"255,-650v3,-14,18,-27,34,-27v15,0,27,13,24,27v-3,14,-20,27,-35,27v-16,0,-26,-13,-23,-27xm389,-650v3,-14,18,-27,34,-27v15,0,27,13,24,27v-3,14,-20,27,-35,27v-16,0,-26,-13,-23,-27xm323,0r8,-40v-38,31,-84,50,-132,50v-88,0,-146,-68,-129,-151v19,-89,110,-152,201,-152r114,0r4,-22v18,-81,-11,-148,-75,-149v-42,0,-83,5,-119,15r-2,-40v41,-11,84,-17,131,-17v81,1,131,86,110,181r-38,169v-16,77,-30,151,-26,156r-47,0xm352,-141r24,-111r-114,0v-69,0,-135,45,-149,111v-12,60,30,108,96,108v66,0,131,-48,143,-108","w":406},"\u00eb":{"d":"246,-32v43,0,102,-21,138,-37r9,37v-46,21,-92,39,-155,41v-117,3,-186,-123,-156,-258v32,-142,145,-258,254,-258v111,0,174,110,143,253r-5,24r-353,0v-17,111,37,197,125,198xm130,-271r313,0v15,-108,-34,-193,-116,-193v-80,0,-165,85,-197,193xm270,-650v3,-14,18,-27,34,-27v15,0,27,13,24,27v-3,14,-20,27,-35,27v-16,0,-26,-13,-23,-27xm404,-650v3,-14,18,-27,34,-27v15,0,27,13,24,27v-3,14,-20,27,-35,27v-16,0,-26,-13,-23,-27","w":456},"\u00f6":{"d":"117,-247v-25,118,40,215,147,215v104,0,210,-97,235,-215v26,-120,-39,-217,-143,-217v-107,0,-213,97,-239,217xm75,-247v30,-143,161,-259,290,-259v128,0,207,116,177,259v-30,141,-159,257,-287,257v-129,0,-210,-116,-180,-257xm311,-650v3,-14,18,-27,34,-27v15,0,27,13,24,27v-3,14,-20,27,-35,27v-16,0,-26,-13,-23,-27xm445,-650v3,-14,18,-27,34,-27v15,0,27,13,24,27v-3,14,-20,27,-35,27v-16,0,-26,-13,-23,-27","w":527},"\u00fc":{"d":"356,0r14,-70v-39,46,-97,79,-154,79v-93,0,-148,-82,-128,-184r-2,-5r67,-318r41,0r-67,318r1,5v-15,77,32,141,104,141v67,0,143,-55,158,-126r72,-340r42,0r-96,452v-5,24,-7,46,-5,48r-47,0xm267,-650v3,-14,18,-27,34,-27v15,0,27,13,24,27v-3,14,-20,27,-35,27v-16,0,-26,-13,-23,-27xm401,-650v3,-14,18,-27,34,-27v15,0,27,13,24,27v-3,14,-20,27,-35,27v-16,0,-26,-13,-23,-27","w":450},"\u00ff":{"d":"12,195r14,-43v5,8,19,6,32,7v47,0,103,-33,139,-92r61,-99r-92,-474r45,0r79,422r256,-422r45,0r-292,471r-69,117r-4,9v-47,70,-117,109,-179,109v-12,0,-24,-2,-35,-5xm320,-650v3,-14,18,-27,34,-27v15,0,27,13,24,27v-3,14,-20,27,-35,27v-16,0,-26,-13,-23,-27xm454,-650v3,-14,18,-27,34,-27v15,0,27,13,24,27v-3,14,-20,27,-35,27v-16,0,-26,-13,-23,-27","w":535},"\u00ef":{"d":"66,0r106,-500r41,0r-106,500r-41,0xm150,-650v3,-14,18,-27,34,-27v15,0,27,13,24,27v-3,14,-20,27,-35,27v-16,0,-26,-13,-23,-27xm244,-650v3,-14,18,-27,34,-27v15,0,27,13,24,27v-3,14,-20,27,-35,27v-16,0,-26,-13,-23,-27","w":177},"\u00f1":{"d":"382,-605v-36,0,-52,-18,-88,-18v-29,0,-56,10,-76,22r-8,-29v25,-15,60,-24,94,-24v37,0,52,17,86,17v28,0,60,-9,78,-22r8,29v-25,15,-61,25,-94,25xm187,-496r-14,67v42,-50,98,-79,155,-79v94,0,152,82,131,183r-67,325r-42,0r69,-325v14,-79,-32,-141,-104,-141v-67,0,-145,51,-161,126r-72,340r-42,0r96,-454v5,-22,6,-40,4,-42r47,0","w":433},"\u00f5":{"d":"117,-247v-25,118,40,215,147,215v104,0,210,-97,235,-215v26,-120,-39,-217,-143,-217v-107,0,-213,97,-239,217xm75,-247v30,-143,161,-259,290,-259v128,0,207,116,177,259v-30,141,-159,257,-287,257v-129,0,-210,-116,-180,-257xm378,-597v-26,-17,-85,-12,-110,4r-6,-30v21,-10,46,-16,73,-16v53,0,68,29,120,29v23,0,45,-5,61,-14r5,30v-39,21,-108,20,-143,-3","w":513},"\u00f8":{"d":"75,-247v30,-143,161,-259,290,-259v65,0,117,31,149,79r-38,28v-25,-40,-68,-65,-120,-65v-107,0,-213,97,-239,217v-8,38,-7,74,2,105r-38,28v-14,-39,-16,-84,-6,-133xm499,-247v10,-45,6,-86,-7,-121r39,-28v18,42,23,94,11,149v-30,141,-159,257,-287,257v-72,0,-128,-35,-159,-91r36,-27v25,47,72,76,132,76v104,0,210,-97,235,-215","w":513},"!":{"d":"107,-15v-2,13,-15,24,-28,24v-13,0,-22,-11,-19,-24v2,-13,16,-23,29,-23v14,0,20,10,18,23xm84,-99r125,-592r36,0r-125,592r-36,0","w":176},"\u00a1":{"d":"200,-671v3,-13,15,-24,28,-24v13,0,21,11,19,24v-4,25,-53,34,-47,0xm223,-588r-124,588r-36,0r124,-588r36,0","w":160},"'":{"d":"187,-623r6,-63r49,-5r-6,63r-91,78r-4,-6","w":121},"(":{"d":"306,-695r9,49v-63,62,-126,200,-159,357v-37,174,-29,320,16,374r-33,42v-55,-68,-71,-228,-31,-416v38,-179,118,-336,198,-406","w":260},")":{"d":"209,-646r29,-49v50,70,64,227,26,406v-40,188,-124,348,-207,416r-17,-42v69,-54,139,-200,176,-374v33,-157,30,-295,-7,-357","w":246},"~":{"d":"289,-291v-41,0,-58,-20,-97,-20v-32,0,-61,8,-81,22r-10,-31v26,-16,63,-25,97,-25v40,0,58,20,96,20v30,0,62,-8,82,-22r8,30v-26,16,-60,26,-95,26","w":347},"\u00bc":{"d":"347,-345r16,10r-149,187r103,0r16,-77r21,0r-16,77r49,0r-5,21r-49,0r-26,127r-21,0r26,-127r-127,0r5,-21xm143,-440r-12,-14r74,-52r21,0r-62,293r-21,0r56,-266","w":382},"\u00bd":{"d":"131,-441r-12,-14r74,-52r21,0r-62,294r-21,0r57,-267xm331,-168r-162,148r161,0r-4,20r-189,0r4,-20r180,-163v16,-14,30,-36,35,-57v10,-49,-21,-86,-70,-86v-24,0,-47,9,-66,24r-12,-15v24,-18,52,-30,82,-30v60,0,100,48,87,107v-6,29,-25,53,-46,72","w":355},"\u00b7":{"d":"129,-314v6,-25,35,-50,64,-50v28,0,49,25,43,50v-5,25,-36,49,-64,49v-29,0,-48,-24,-43,-49","w":225},"\u00b0":{"d":"181,-596v-7,34,21,69,59,69v32,0,73,-35,80,-69v8,-38,-18,-74,-50,-74v-38,0,-81,36,-89,74xm153,-596v12,-57,64,-99,122,-99v52,0,86,42,74,99v-11,52,-63,95,-115,95v-58,0,-92,-43,-81,-95","w":250},"\u00a6":{"d":"170,-410r-26,0r65,-307r26,0xm130,-344r26,0r-73,343r-26,0","w":131},"\u00a7":{"d":"182,-470v5,-126,150,-172,257,-119r-27,40v-69,-41,-172,-18,-186,58v52,-17,104,-9,151,13r-26,40v-38,-21,-80,-26,-123,-13v10,27,31,56,66,74v62,33,93,94,80,154v-7,34,-31,65,-60,87v-4,95,-91,143,-167,145v-31,0,-63,-8,-91,-24r25,-35v73,39,171,13,190,-63v-54,19,-107,14,-154,-12r26,-37v38,20,85,26,127,9v-7,-31,-30,-61,-64,-78v-103,-51,-114,-183,-24,-239xm308,-180v47,-50,27,-128,-42,-163v-39,-19,-64,-50,-76,-84v-50,50,-27,123,42,160v39,20,65,52,76,87","w":356},"\u00be":{"d":"73,-190r18,-14v11,17,33,29,60,29v47,0,92,-34,101,-76v12,-55,-44,-85,-108,-75r4,-21r46,0v45,-2,86,-33,94,-69v8,-40,-23,-71,-69,-71v-28,0,-54,10,-74,28r-12,-15v25,-21,57,-33,90,-33v58,0,98,40,87,91v-8,35,-39,66,-76,80v31,16,47,48,39,85v-12,54,-68,97,-127,97v-33,0,-59,-15,-73,-36xm389,-129r-127,0r4,-21r157,-197r16,10r-148,187r102,0r17,-77r21,0r-17,77r50,0r-4,21r-50,0r-27,127r-21,0","w":458},"\u00b6":{"d":"479,-690r-146,688r-40,0r146,-688r40,0xm415,-691r-146,691r-78,0r76,-362v-91,0,-148,-74,-128,-165v19,-91,107,-164,198,-164r78,0xm264,-407r53,-247v-61,0,-122,54,-137,123v-14,68,23,124,84,124","w":382},"\u00c4":{"d":"267,-329r213,0r-45,-288xm32,0r401,-691r35,0r109,691r-44,0r-46,-287r-243,0r-168,287r-44,0xm364,-763v3,-14,18,-27,34,-27v15,0,27,13,24,27v-3,14,-20,27,-35,27v-16,0,-26,-13,-23,-27xm498,-763v3,-14,18,-27,34,-27v15,0,27,13,24,27v-3,14,-20,27,-35,27v-16,0,-26,-13,-23,-27","w":596},"\u00cb":{"d":"474,-389r-9,42r-305,0r-65,305r357,0r-8,42r-399,0r146,-691r399,0r-8,40r-357,0r-56,262r305,0xm308,-764v3,-14,18,-27,34,-27v15,0,27,13,24,27v-3,14,-20,27,-35,27v-16,0,-26,-13,-23,-27xm442,-764v3,-14,18,-27,34,-27v15,0,27,13,24,27v-3,14,-20,27,-35,27v-16,0,-26,-13,-23,-27","w":485},"\u00cf":{"d":"238,-691r-146,691r-42,0r146,-691r42,0xm136,-763v3,-14,18,-27,34,-27v15,0,27,13,24,27v-3,14,-20,27,-35,27v-16,0,-26,-13,-23,-27xm270,-763v3,-14,18,-27,34,-27v15,0,27,13,24,27v-3,14,-20,27,-35,27v-16,0,-26,-13,-23,-27","w":138},"\u00d6":{"d":"691,-345v36,-169,-52,-306,-209,-307v-150,0,-300,136,-336,307v-37,173,53,311,205,311v156,0,303,-138,340,-311xm580,-88v-71,61,-153,97,-238,97v-168,0,-282,-153,-239,-354v41,-194,215,-350,388,-350v180,0,281,155,240,350v-22,104,-77,192,-151,257xm411,-764v3,-14,18,-27,34,-27v15,0,27,13,24,27v-3,14,-20,27,-35,27v-16,0,-26,-13,-23,-27xm545,-764v3,-14,18,-27,34,-27v15,0,27,13,24,27v-3,14,-20,27,-35,27v-16,0,-26,-13,-23,-27"},"\u00dc":{"d":"235,-691r-110,518v-11,77,69,139,184,139v110,0,220,-61,237,-139r110,-518r42,0r-110,518v-25,99,-154,182,-288,182v-139,0,-241,-84,-220,-182r110,-518r45,0xm365,-763v3,-14,18,-27,34,-27v15,0,27,13,24,27v-3,14,-20,27,-35,27v-16,0,-26,-13,-23,-27xm499,-763v3,-14,18,-27,34,-27v15,0,27,13,24,27v-3,14,-20,27,-35,27v-16,0,-26,-13,-23,-27","w":598},"\u00ce":{"d":"238,-691r-146,691r-42,0r146,-691r42,0","w":138},"\u00cd":{"d":"238,-691r-146,691r-42,0r146,-691r42,0xm370,-831r-128,87r-23,0r85,-87r66,0","w":154},"\u00cc":{"d":"246,-691r-146,691r-42,0r146,-691r42,0xm242,-744r-90,-87r66,0r47,87r-23,0","w":131},"\u00d1":{"d":"194,-691r41,0r229,607r129,-607r42,0r-146,691r-42,0r-229,-610r-129,610r-41,0xm417,-755v-26,-17,-85,-12,-110,4r-6,-30v21,-10,46,-16,73,-16v53,0,68,29,120,29v23,0,45,-5,61,-14r5,30v-39,21,-108,20,-143,-3","w":537},"\u00b9":{"d":"185,-558r-24,-29r148,-104r42,0r-63,300r-42,0r52,-246","w":263},"+":{"d":"307,-273r-33,152r-42,0r33,-152r-151,0r8,-42r151,0r33,-151r42,0r-33,151r152,0r-8,42r-152,0","w":452},"-":{"d":"445,-273r-345,0r8,-42r345,0","w":421},"\/":{"d":"489,-691r-398,691r-46,0r399,-691r45,0","w":378},"&":{"d":"248,0v-120,0,-185,-87,-167,-188v15,-81,109,-162,227,-205r-14,-21v-51,-72,-53,-107,-45,-142v15,-70,90,-139,185,-139v86,0,133,60,118,132v-12,58,-61,108,-158,156r-25,12r122,206v25,-36,51,-69,70,-113r47,11v-26,51,-59,101,-89,134v-2,8,-5,14,-6,23v16,36,20,46,50,76r-11,51v-33,-25,-52,-61,-77,-100v-60,60,-148,107,-227,107xm503,-561v13,-58,-19,-104,-80,-104v-87,0,-166,104,-104,188r38,58r16,-8v89,-46,119,-81,130,-134xm320,-370r-18,10v-106,55,-154,107,-166,167v-16,74,28,157,119,157v64,0,151,-49,197,-108","w":597},"\u00d5":{"d":"691,-345v36,-169,-52,-306,-209,-307v-150,0,-300,136,-336,307v-37,173,53,311,205,311v156,0,303,-138,340,-311xm580,-88v-71,61,-153,97,-238,97v-168,0,-282,-153,-239,-354v41,-194,215,-350,388,-350v180,0,281,155,240,350v-22,104,-77,192,-151,257xm493,-756v-26,-17,-85,-12,-110,4r-6,-30v21,-10,46,-16,73,-16v53,0,68,29,120,29v23,0,45,-5,61,-14r5,30v-39,21,-108,20,-143,-3"},"\u00d0":{"d":"170,-274r-68,0r9,-42r68,0r79,-375r255,0v134,2,208,155,168,344v-40,189,-177,342,-312,345r0,2r-257,0xm504,-649r-213,0r-70,333r174,0r-9,42r-174,0r-50,232r215,0r1,-2v109,-3,226,-138,261,-303v35,-164,-24,-302,-135,-302","w":653},"\u00b1":{"d":"346,-460r-32,152r-42,0r32,-152r-151,0r9,-42r151,0r32,-151r42,0r-32,151r152,0r-9,42r-152,0xm432,-154r-345,0r9,-42r345,0","w":452},"*":{"d":"366,-510r-26,122r-42,0r26,-121r-104,85r-24,-29r104,-87r-120,0r9,-41r121,0r-68,-86r36,-30r67,86r26,-122r42,0r-26,122r105,-86r23,29r-104,86r122,0r-9,42r-122,0r68,87r-35,29","w":471},"\u00d7":{"d":"238,-285r-130,107r-24,-29r130,-108r-83,-106r35,-30r85,107r129,-107r24,29r-130,107r84,108r-35,29","w":367},"_":{"d":"462,0r-420,0r8,-42r420,0","w":513},"\\":{"d":"297,0r-106,-691r45,0r107,691r-46,0","w":371},"\u00f7":{"d":"207,-140r14,-64r64,0r-14,64r-64,0xm260,-387r13,-64r64,0r-13,64r-64,0xm439,-273r-345,0r8,-42r345,0","w":425},"@":{"d":"412,-542v32,-8,51,-13,88,-12v63,2,70,71,56,150r4,-13v0,0,-19,79,-34,151v-8,37,-35,81,24,81v29,0,96,-43,136,-100v22,-31,47,-97,54,-130v26,-124,-55,-229,-207,-229v-171,0,-326,134,-364,312v-37,174,55,279,249,279v122,0,219,-49,273,-110r63,0v-62,86,-184,162,-346,162v-211,0,-335,-112,-290,-325v44,-209,218,-369,429,-369v159,0,281,103,243,281v-25,121,-137,273,-258,273v-20,0,-58,-4,-67,-30v-27,21,-58,33,-91,33v-70,0,-115,-58,-100,-130v16,-74,87,-129,159,-129r80,0v10,-49,20,-112,-23,-112v-33,0,-49,3,-77,11xm491,-268r19,-89r-86,0v-52,0,-103,37,-114,89v-11,50,22,90,72,90v49,0,99,-40,109,-90","w":754},"\u00a5":{"d":"204,-148r9,-44r146,0r8,-38r-146,0r10,-44r146,0r8,-39r-203,-378r57,0r175,338r321,-338r56,0r-363,378r-8,39r146,0r-10,44r-146,0r-8,38r146,0r-9,44r-146,0r-31,148r-43,0r31,-148r-146,0","w":681},"\u00a3":{"d":"434,-301r-183,0r-55,259r337,0r-8,42r-379,0r63,-301r-120,0r9,-42r120,0r74,-348r42,0r-74,348r183,0","w":556},"\u00fe":{"d":"252,-692r-48,223v41,-22,97,-39,156,-39v134,0,217,116,187,257v-31,144,-162,260,-296,260v-61,0,-104,-19,-141,-39r-48,226r-41,0r189,-888r42,0xm189,-411r-64,316v-10,32,52,62,135,62v108,0,219,-99,244,-217v24,-115,-45,-215,-153,-215v-77,0,-148,24,-162,54","w":517},"\u00d8":{"d":"580,-88v-94,81,-207,123,-334,79r-4,9r-46,0r15,-27v-89,-54,-138,-176,-108,-318v41,-194,215,-350,388,-350v35,0,67,6,97,17r7,-13r45,0r-17,30v96,61,137,177,108,316v-22,104,-76,193,-151,257xm691,-345v27,-123,-15,-226,-92,-275r-330,571v25,10,52,15,82,15v156,0,303,-138,340,-311xm482,-652v-150,0,-300,136,-336,307v-26,122,12,228,88,279r330,-571v-25,-10,-52,-15,-82,-15"},"\u00ac":{"d":"705,-387r-48,224r-42,0r39,-182r-539,0r9,-42r581,0","w":662},"\u00bb":{"d":"164,-501r217,223r-278,264r-26,-28r244,-231r-192,-196xm334,-501r217,223r-278,264r-26,-28r244,-231r-192,-196","w":524},">":{"d":"175,-494r190,246r-295,243r-24,-31r260,-212r-169,-217","w":336},"<":{"d":"81,-248r296,-246r24,29r-261,217r170,212r-36,31","w":330},"\u00de":{"d":"252,-692r-48,223v41,-22,97,-39,156,-39v134,0,217,116,187,257v-31,144,-162,260,-296,260v-61,0,-104,-19,-141,-39r-48,226r-41,0r189,-888r42,0xm189,-411r-64,316v-10,32,52,62,135,62v108,0,219,-99,244,-217v24,-115,-45,-215,-153,-215v-77,0,-148,24,-162,54","w":535},"^":{"d":"127,-448r297,-243r192,244r-38,30r-166,-215r-263,215","w":551},"\u00ea":{"d":"246,-32v43,0,102,-21,138,-37r9,37v-46,21,-92,39,-155,41v-117,3,-186,-123,-156,-258v32,-142,145,-258,254,-258v111,0,174,110,143,253r-5,24r-353,0v-17,111,37,197,125,198xm130,-271r313,0v15,-108,-34,-193,-116,-193v-80,0,-165,85,-197,193xm240,-568r130,-106r85,107r-31,25r-65,-83r-100,83","w":456},"\u00c3":{"d":"520,-774v-37,0,-54,-19,-90,-18v-29,0,-57,8,-75,20r-9,-28v25,-14,57,-24,91,-24v37,0,54,18,88,18v30,0,59,-7,78,-20r8,28v-25,15,-57,24,-91,24xm267,-329r213,0r-45,-288xm32,0r401,-691r35,0r109,691r-44,0r-46,-287r-243,0r-168,287r-44,0","w":596},"\u00c6":{"d":"602,-329r78,-322r-229,0r-184,322r335,0xm433,-691r645,0r-8,40r-357,0r-56,262r305,0r-9,42r-305,0r-65,305r357,0r-8,42r-399,0r61,-287r-350,0r-168,287r-44,0","w":1081},"\u00e2":{"d":"323,0r8,-40v-38,31,-84,50,-132,50v-88,0,-146,-68,-129,-151v19,-89,110,-152,201,-152r114,0r4,-22v18,-81,-11,-148,-75,-149v-42,0,-83,5,-119,15r-2,-40v41,-11,84,-17,131,-17v81,1,131,86,110,181r-38,169v-16,77,-30,151,-26,156r-47,0xm352,-141r24,-111r-114,0v-69,0,-135,45,-149,111v-12,60,30,108,96,108v66,0,131,-48,143,-108xm215,-568r130,-106r85,107r-31,25r-65,-83r-100,83","w":406},"\u00df":{"d":"526,-521v15,-73,-40,-130,-131,-130r-161,0r-56,262r179,0v80,-2,154,-59,169,-132xm169,-347r-110,520r-42,0r183,-864r221,0v101,2,166,80,147,170v-14,68,-66,125,-132,155v63,29,93,96,77,170v-22,104,-127,192,-238,194r-85,0r-32,-40r125,0v87,-4,171,-72,188,-154v17,-79,-38,-151,-141,-151r-161,0","w":520},"\u00ab":{"d":"259,-278r311,-223r21,32r-274,196r144,231r-38,28xm89,-278r311,-223r21,32r-274,196r144,231r-38,28","w":532},"\u00fb":{"d":"356,0r14,-70v-39,46,-97,79,-154,79v-93,0,-148,-82,-128,-184r-2,-5r67,-318r41,0r-67,318r1,5v-15,77,32,141,104,141v67,0,143,-55,158,-126r72,-340r42,0r-96,452v-5,24,-7,46,-5,48r-47,0xm237,-568r130,-106r85,107r-31,25r-65,-83r-100,83","w":450},"\u00f4":{"d":"117,-247v-25,118,40,215,147,215v104,0,210,-97,235,-215v26,-120,-39,-217,-143,-217v-107,0,-213,97,-239,217xm75,-247v30,-143,161,-259,290,-259v128,0,207,116,177,259v-30,141,-159,257,-287,257v-129,0,-210,-116,-180,-257xm269,-568r130,-106r85,107r-31,25r-65,-83r-100,83","w":513},"\u00f0":{"d":"305,-283v-113,0,-187,-91,-163,-205v24,-114,137,-208,252,-208v117,-1,187,93,167,204v-20,110,-40,225,-77,321v-41,105,-150,178,-257,178v-66,0,-122,-34,-151,-82r48,-33v23,45,67,72,119,72v89,0,173,-62,206,-146v23,-58,39,-124,52,-192v-49,55,-120,91,-196,91xm181,-483v-17,88,44,159,132,159v95,0,186,-73,206,-167v19,-88,-45,-162,-133,-162v-95,0,-188,79,-205,170","w":489},"\u00ee":{"d":"66,0r106,-500r41,0r-106,500r-41,0xm101,-568r130,-106r85,107r-31,25r-65,-83r-100,83","w":177},"#":{"d":"79,-221r46,-44r106,0r82,-143r-194,0r45,-44r175,0r111,-192r45,0r-110,192r240,0r111,-192r45,0r-110,192r116,0r-45,44r-97,0r-83,143r186,0r-46,44r-166,0r-126,221r-46,0r127,-221r-241,0r-126,221r-46,0r127,-221r-126,0xm359,-408r-83,143r241,0r82,-143r-240,0","w":714},"\u00e3":{"d":"361,-563v-35,0,-51,-17,-85,-16v-28,0,-60,9,-78,22r-10,-28v24,-15,59,-26,93,-26v35,0,52,16,83,16v30,0,63,-9,83,-23r8,28v-25,17,-61,27,-94,27xm323,0r8,-40v-38,31,-84,50,-132,50v-88,0,-146,-68,-129,-151v19,-89,110,-152,201,-152r114,0r4,-22v18,-81,-11,-148,-75,-149v-42,0,-83,5,-119,15r-2,-40v41,-11,84,-17,131,-17v81,1,131,86,110,181r-38,169v-16,77,-30,151,-26,156r-47,0xm352,-141r24,-111r-114,0v-69,0,-135,45,-149,111v-12,60,30,108,96,108v66,0,131,-48,143,-108","w":406},"[":{"d":"159,-47v0,2,6,5,16,5r-8,42v-24,0,-56,-19,-51,-47r52,-242v6,-34,-18,-49,-55,-45r9,-42v40,4,67,-13,74,-45r49,-230v9,-24,39,-40,68,-40r-9,43v-10,0,-17,0,-17,2r-51,237v-9,17,-30,33,-50,33r-9,42v20,0,35,12,37,32","w":210},"]":{"d":"58,-47r55,-255v8,-20,26,-32,46,-32r11,-42v-22,0,-34,-16,-35,-33r51,-237v-3,-2,-10,-2,-20,-2r9,-43v37,0,53,18,53,45r-48,225v-7,34,15,50,52,45r-9,42v-40,-4,-63,11,-71,45r-52,242v-5,27,-43,47,-71,47r8,-42v10,0,18,-3,21,-5","w":183},"\u00a0":{"w":257}}});
