/*!
 * The following copyright notice may not be removed under any circumstances.
 * 
 * Copyright:
 * Llicència gratuïta / Free License (La Tipomatika)
 * 
 * Trademark:
 * Please refer to the Copyright section for the font trademark attribution
 * notices.
 * 
 * Full name:
 * CicleSemiItalic
 * 
 * Manufacturer:
 * La Tipomatika
 * 
 * Designer:
 * La Tipomatika (Digital Type Foundry)
 */
Cufon.registerFont({"w":690,"face":{"font-family":"Cicle Semi Italic","font-weight":400,"font-style":"italic","font-stretch":"normal","units-per-em":"1000","panose-1":"2 0 0 0 0 0 0 0 0 0","ascent":"800","descent":"-200","x-height":"195","bbox":"-3 -827 1071 195","underline-thickness":"50","underline-position":"-50","unicode-range":"U+0020-U+00FF"},"glyphs":{" ":{"w":257},"e":{"d":"394,-35v-52,23,-95,42,-159,44v-117,2,-188,-121,-158,-258v31,-142,146,-258,256,-258v112,0,175,110,144,253r-6,30r-343,0v-15,102,35,178,118,179v40,0,100,-21,137,-38xm140,-277r289,0v13,-100,-33,-174,-108,-174v-71,0,-147,77,-181,174","w":456},"f":{"d":"455,-687r-28,55v-16,-4,-29,-4,-39,-4v-60,2,-117,70,-127,147r128,0r-11,55r-128,0r-92,434r-52,0r92,-434r-73,0r11,-55r72,0v15,-109,105,-200,191,-201v18,0,32,0,56,3","w":328},"g":{"d":"303,-158v-31,1,-52,-10,-77,-11v-12,0,-27,4,-30,19v-7,39,35,22,63,22v113,0,188,71,169,160v-19,89,-125,163,-238,163v-109,0,-185,-74,-166,-163v12,-57,64,-110,127,-137v-5,-35,9,-77,29,-94v-38,-33,-52,-78,-40,-132v25,-115,169,-207,310,-164r182,0r-64,54r-47,0v19,29,29,68,20,110v-21,97,-127,173,-238,173xm77,32v-13,59,45,110,124,110v85,0,162,-51,175,-110v12,-58,-43,-110,-128,-110v-79,0,-159,52,-171,110xm194,-331v-14,66,40,121,120,121v84,0,161,-55,175,-121v15,-69,-39,-122,-123,-122v-80,0,-157,53,-172,122","w":551},"p":{"d":"175,-404r-66,311v2,25,59,47,129,47v104,0,207,-93,231,-206v24,-111,-41,-201,-144,-201v-77,0,-144,22,-150,49xm196,-499r-5,23v37,-17,94,-33,146,-33v133,0,216,117,186,257v-31,144,-162,260,-296,260v-54,0,-102,-12,-131,-32r-46,214r-53,0r125,-594v0,0,15,-78,3,-95r71,0","w":506},"y":{"d":"7,189r20,-56v7,8,23,8,36,8v43,0,95,-30,128,-86r58,-94r-91,-467r58,0r74,398r243,-398r58,0r-288,467r-67,114v-44,76,-124,120,-187,120v-14,0,-29,-2,-42,-6","w":535},"R":{"d":"386,0r-222,-330r-70,330r-55,0r146,-691r201,0v110,0,182,77,162,174v-21,98,-126,177,-236,177r-83,0r228,340r-71,0xm373,-639r-144,0r-52,244r146,0v78,0,156,-53,170,-122v14,-66,-40,-122,-120,-122","w":474},"d":{"d":"299,-47v76,0,141,-27,147,-53r65,-305v-2,-25,-54,-46,-128,-46v-104,0,-206,92,-229,199v-23,110,40,205,145,205xm425,-3r5,-22v-38,17,-92,32,-144,32v-131,0,-215,-117,-185,-259v30,-140,162,-253,294,-254v56,0,98,9,130,32r45,-212r54,0r-124,586v0,0,-18,82,-2,97r-73,0","w":534},"h":{"d":"188,-688r54,0r-52,242v42,-39,89,-61,142,-61v95,0,151,82,131,184r-65,320r-54,0r68,-320v13,-73,-30,-130,-97,-130v-57,0,-121,55,-148,116r-71,337r-54,0","w":455},"i":{"d":"59,0r106,-500r53,0r-106,500r-53,0xm186,-639v4,-18,22,-33,42,-33v18,0,32,15,28,33v-3,17,-24,33,-42,33v-20,0,-31,-16,-28,-33","w":177},"j":{"d":"321,-634v5,-20,20,-33,41,-33v15,0,30,13,25,33v-4,18,-24,33,-39,33v-21,0,-31,-15,-27,-33xm21,137r43,3v0,-2,1,-3,1,-3v56,0,112,-56,127,-123r109,-515r54,0r-111,524v-26,92,-104,167,-186,170r-53,-4","w":354},"k":{"d":"256,-686r-72,340r208,-148r84,0r-186,131r131,363r-64,0r-117,-327v-23,17,-46,35,-71,52r-58,275r-69,0v7,-6,20,-27,25,-51r135,-635r54,0","w":440},"l":{"d":"59,0r145,-686r54,0r-145,686r-54,0","w":162},"m":{"d":"199,-500r-12,56v41,-39,89,-61,140,-61v65,0,112,42,130,97v46,-70,117,-99,171,-99v94,0,152,81,131,184r-66,321r-55,0r68,-321v13,-71,-27,-129,-93,-129v-61,0,-135,51,-149,115r-71,335r-54,0r68,-319v13,-73,-29,-129,-97,-129v-58,0,-132,50,-146,115r-71,335r-54,0r94,-446v5,-20,2,-48,-3,-54r69,0","w":739},"n":{"d":"194,-496r-11,50v42,-40,90,-62,142,-62v94,0,153,82,132,185r-66,323r-55,0r68,-323v15,-73,-28,-130,-95,-130v-59,0,-122,54,-149,116r-71,337r-54,0r95,-448v4,-20,0,-42,-5,-48r69,0","w":433},"o":{"d":"126,-247v-24,111,37,202,137,202v98,0,197,-91,221,-202v24,-113,-37,-204,-135,-204v-100,0,-199,91,-223,204xm71,-247v30,-143,161,-259,290,-259v129,0,208,116,178,259v-30,141,-159,257,-288,257v-129,0,-210,-116,-180,-257","w":513},"q":{"d":"502,-477r4,-17r53,0r-146,684r-53,0r49,-232v-39,22,-87,32,-141,32v-126,0,-208,-113,-180,-248v29,-136,159,-248,285,-248v55,0,100,10,129,29xm424,-109r62,-295v6,-27,-49,-49,-124,-49v-98,0,-198,87,-221,195v-23,108,40,196,138,196v70,0,131,-23,145,-47","w":513},"r":{"d":"360,-501r-25,54v-13,-4,-17,-4,-23,-4v-59,0,-133,50,-147,116r-71,335r-54,0r94,-446v5,-20,2,-46,-10,-55r76,0r-12,57v40,-40,89,-62,141,-62v8,0,19,0,31,5","w":279},"s":{"d":"470,-437r-50,32v-24,-29,-67,-45,-113,-45v-62,0,-116,31,-126,76v-9,44,30,86,95,96v88,13,141,79,125,151v-17,80,-103,135,-193,135v-61,0,-122,-26,-149,-71r48,-32v22,28,63,49,109,49v63,0,120,-33,131,-81v9,-43,-35,-89,-92,-100v-86,-16,-143,-81,-129,-148v17,-78,106,-130,197,-130v62,0,118,28,147,68","w":417},"t":{"d":"263,-686r55,0r-41,193r131,0r-11,55r-131,0r-93,438r-53,0r93,-438r-74,0r11,-55r72,0","w":340},"u":{"d":"343,0r11,-53v-40,37,-90,62,-141,62v-93,0,-149,-82,-130,-184v-1,-2,-2,-3,-2,-4r67,-319r54,0r-67,316v-12,74,28,134,96,135v60,0,132,-52,146,-116r72,-337r54,0r-95,446v-5,22,-1,48,4,54r-69,0","w":450},"v":{"d":"219,0r-95,-500r57,0r82,418r258,-418r60,0r-310,500r-52,0","w":500},"w":{"d":"778,-500r-310,500r-53,-3r-33,-179r-115,182r-51,-3r-96,-497r58,0r81,417r107,-173v-14,-79,-32,-166,-46,-244r62,0r78,417r258,-417r60,0","w":705},"x":{"d":"235,-259r-102,-241r68,0r80,194r165,-194r67,0r-209,249r103,251r-66,0r-85,-203r-168,203r-66,0","w":444},"z":{"d":"41,0r11,-52r379,-393r-293,0r12,-55r368,0r-11,52r-380,393r296,0r-11,55r-371,0","w":452},"A":{"d":"278,-336r189,0r-41,-254xm25,0r400,-691r45,0r108,691r-57,0r-46,-281r-229,0r-164,281r-57,0","w":596},"B":{"d":"272,-2v-70,3,-150,0,-223,2r146,-691r223,0v103,2,169,81,150,173v-14,64,-63,119,-121,151v55,33,82,98,67,168v-23,106,-129,193,-242,197xm407,-638r-168,0r-52,243r168,0v75,-2,143,-54,158,-123v13,-62,-33,-120,-106,-120xm283,-55v82,-4,160,-68,176,-144v15,-73,-35,-141,-115,-141r-168,0r-61,285r168,0","w":512},"C":{"d":"686,-594r-46,37v-39,-52,-96,-83,-164,-83v-141,0,-287,131,-322,295v-34,161,46,298,195,298v68,0,136,-31,198,-82r30,37v-72,62,-157,101,-239,101v-166,0,-281,-160,-240,-354v39,-186,214,-350,389,-350v83,0,155,39,199,101","w":590},"D":{"d":"425,-636r-202,0r-124,581v68,0,138,-2,205,-2v103,0,214,-132,247,-290v34,-158,-22,-289,-126,-289xm33,0r146,-691r257,0v135,2,210,155,170,344v-40,189,-178,347,-314,347r-259,0","w":575},"E":{"d":"476,-395r-11,55r-298,0r-61,285r349,0r-11,55r-404,0r146,-691r404,0r-11,53r-349,0r-52,243r298,0","w":485},"F":{"d":"480,-395r-11,55r-298,0r-72,340r-55,0r146,-691r404,0r-11,52r-349,0r-52,244r298,0","w":487},"G":{"d":"575,-93r-3,8v-70,59,-153,94,-236,94v-174,0,-283,-158,-242,-351v41,-194,217,-353,391,-353v83,0,153,38,200,101r-46,38v-39,-52,-98,-83,-166,-83v-144,0,-290,131,-325,297v-35,164,55,298,199,298v62,0,125,-26,177,-66r39,-184r-187,0r11,-53r242,0","w":604},"H":{"d":"532,-340r-360,0r-72,340r-55,0r146,-691r55,0r-63,296r360,0r63,-296r54,0r-146,691r-54,0","w":558},"I":{"d":"244,-691r-146,691r-55,0r146,-691r55,0","w":138},"J":{"d":"394,-691r-110,519v-21,98,-99,181,-171,181v-33,0,-60,-20,-79,-48r44,-38v12,18,28,31,46,31v42,0,88,-52,104,-124r110,-521r56,0","w":305},"K":{"d":"186,-691r55,0r-76,357r382,-357r73,0r-322,301r251,390r-71,0r-225,-348r-105,98r-53,250r-55,0","w":583},"L":{"d":"240,-691r-135,636r331,0r-11,55r-385,0r146,-691r54,0","w":453},"M":{"d":"371,-320r294,-371r53,0r-146,691r-56,0r122,-578r-268,338r-34,0r-129,-338r-122,578r-55,0r146,-691r52,0","w":623},"N":{"d":"189,-691r51,0r218,576r122,-576r55,0r-146,691r-52,0r-217,-579r-123,579r-54,0","w":537},"O":{"d":"675,-345v34,-161,-49,-294,-199,-294v-144,0,-286,130,-321,294v-35,166,50,298,195,298v149,0,290,-132,325,-298xm577,-88v-71,61,-153,97,-238,97v-169,0,-283,-153,-240,-354v41,-194,215,-350,389,-350v180,0,281,155,240,350v-22,104,-77,192,-151,257"},"P":{"d":"322,-339r-147,0r-72,339r-54,0r146,-691r201,0v110,0,182,78,162,173v-22,100,-126,179,-236,179xm383,-638r-145,0r-52,244r147,0v78,0,155,-53,170,-124v13,-65,-40,-120,-120,-120","w":480},"Q":{"d":"643,-368v32,-147,-45,-278,-181,-278v-131,0,-266,124,-299,278v-31,148,42,270,170,277v-3,-16,-16,-29,-38,-28r10,-49v50,-1,83,31,83,73v115,-26,226,-138,255,-273xm696,-368v-34,155,-159,291,-317,322v-1,34,8,60,25,60v12,0,24,-12,34,-27r32,34v-27,27,-52,45,-78,45v-42,0,-67,-49,-65,-108v-150,-9,-253,-148,-215,-326v39,-186,204,-327,360,-327v158,0,264,143,224,327","w":665},"S":{"d":"58,-91r51,-35v22,49,69,80,135,80v80,0,163,-55,178,-127v15,-69,-36,-131,-115,-141v-111,-15,-180,-96,-160,-193v23,-107,136,-187,255,-187v78,0,133,30,169,82r-53,36v-24,-41,-69,-66,-127,-66v-82,0,-170,58,-186,131v-15,72,35,133,120,143v109,12,175,97,155,192v-22,103,-133,185,-249,185v-83,0,-146,-41,-173,-100","w":485},"T":{"d":"670,-638r-220,0r-135,638r-55,0r135,-638r-222,0r11,-53r497,0","w":575},"U":{"d":"243,-691r-109,515v-6,68,68,129,174,129v101,0,210,-58,225,-129r109,-515r55,0r-109,515v-26,101,-157,185,-291,185v-140,0,-242,-85,-221,-185r109,-515r58,0","w":598},"V":{"d":"291,0r-108,-691r57,0r96,603r351,-603r58,0r-401,691r-53,0","w":639},"W":{"d":"1007,-691r-400,691r-55,0r-44,-274r-158,274r-54,0r-109,-691r58,0r96,604r155,-270r-51,-334r57,0r96,603r350,-603r59,0","w":915},"X":{"d":"310,-353r-126,-338r62,0r111,288r232,-288r63,0r-274,344r128,347r-63,0r-114,-298r-238,298r-62,0","w":541},"Y":{"d":"723,-691r72,0r-364,380r-66,311r-56,0r66,-311r-204,-380r73,0r169,326","w":681},"Z":{"d":"665,-691r-530,636r355,0r-11,55r-455,0r532,-636r-362,0r11,-55r460,0","w":548},"{":{"d":"165,-53v0,-1,7,-1,17,-1r-11,54v-29,0,-68,-21,-61,-53r50,-235v4,-21,-8,-37,-28,-37r-27,0r11,-54v38,4,64,-7,71,-37r48,-225v10,-27,46,-45,81,-45r-12,56v-9,0,-16,0,-16,-3r-49,230v-11,19,-27,35,-50,37r-5,27v19,3,32,17,34,36","w":223},"}":{"d":"53,-56r53,-246v9,-22,26,-36,47,-37v1,-9,4,-17,7,-27v-19,-4,-32,-20,-33,-37r48,-227r-19,0r12,-56v42,1,70,20,63,51r-46,219v-4,20,5,37,25,37r27,0r-11,54v-37,-4,-62,6,-68,37r-50,235v-7,31,-52,53,-85,53r11,-54v11,0,16,-1,19,-2","w":188},",":{"d":"71,-9r15,-67r60,0r-16,72r-104,75r-7,-17","w":173},".":{"d":"36,0r16,-76r76,0r-16,76r-76,0","w":145},"0":{"d":"166,-341v-35,164,27,295,136,295v111,0,226,-131,261,-295v35,-163,-25,-294,-136,-294v-109,0,-226,131,-261,294xm111,-341v41,-193,189,-349,328,-349v140,0,219,156,178,349v-41,192,-186,350,-326,350v-139,0,-221,-158,-180,-350","w":586},"1":{"d":"180,-541r-30,-37r153,-108r50,0r-145,686r-55,0r130,-613","w":263},"2":{"d":"443,-330r-303,276r303,0r-11,54r-380,0r10,-50r353,-319v31,-28,54,-65,63,-106v19,-90,-39,-160,-131,-160v-43,0,-89,19,-128,50r-31,-39v52,-38,113,-66,171,-66v121,0,199,97,173,215v-12,57,-46,106,-89,145","w":475},"3":{"d":"32,-65r46,-38v25,35,67,60,118,60v86,0,170,-64,187,-142v14,-66,-44,-138,-116,-138r-96,0r12,-54r97,0v83,-5,159,-62,173,-129v16,-73,-43,-130,-128,-130v-51,0,-105,20,-145,57r-30,-40v52,-45,120,-71,186,-71v117,0,197,82,175,184v-14,68,-72,126,-140,157v53,34,82,94,67,164v-23,109,-137,196,-254,196v-67,0,-121,-31,-152,-76","w":431},"4":{"d":"332,-247r-247,0r13,-50r309,-391r41,26r-284,360r180,0r31,-149r55,0r-31,149r96,0r-12,55r-96,0r-52,247r-55,0","w":473},"5":{"d":"169,-342r-52,0r97,-344r372,0r-11,55r-319,0v-21,66,-37,122,-60,190v45,-36,97,-54,154,-54v124,0,199,110,170,246v-29,137,-151,249,-275,249v-72,0,-131,-41,-159,-103r48,-39v20,53,64,88,122,88v93,0,186,-87,209,-195v23,-108,-34,-193,-127,-193v-64,0,-129,40,-169,100","w":504},"6":{"d":"343,-410v117,-2,198,90,170,211v-27,117,-137,207,-254,207v-111,0,-182,-87,-164,-203v17,-109,39,-226,76,-316v40,-99,141,-180,245,-180v72,0,130,33,164,94r-59,32v-22,-43,-65,-71,-115,-71v-77,0,-157,59,-188,140v-19,50,-36,107,-48,165v45,-46,107,-78,173,-79xm272,-45v88,-1,174,-72,189,-161v14,-85,-39,-150,-125,-150v-87,0,-169,75,-187,160v-17,83,40,151,123,151","w":506},"7":{"d":"36,0r428,-631r-268,0r11,-55r357,0r-465,686r-63,0","w":443},"8":{"d":"69,-193v16,-75,75,-142,140,-177v-43,-30,-63,-82,-50,-145v20,-96,118,-175,216,-175v102,0,165,79,145,175v-13,63,-53,115,-112,145v55,35,81,101,65,177v-24,111,-132,202,-246,202v-110,0,-181,-91,-158,-202xm213,-515v-14,66,31,120,99,120v70,0,138,-54,152,-120v14,-67,-31,-120,-101,-120v-68,0,-136,53,-150,120xm124,-193v-17,79,35,147,114,147v83,0,164,-68,181,-147v17,-81,-35,-148,-118,-148v-79,0,-160,67,-177,148","w":459},"9":{"d":"300,-275v-112,1,-189,-94,-163,-207v26,-114,137,-209,253,-209v113,0,185,95,168,206v-16,107,-39,221,-76,313v-42,106,-151,179,-258,179v-66,0,-122,-36,-153,-88r58,-41v23,46,65,73,114,73v83,0,160,-58,192,-136v21,-50,33,-108,46,-165v-47,43,-115,75,-181,75xm188,-477v-15,82,41,148,123,148v88,0,172,-68,191,-155v17,-82,-42,-151,-123,-151v-89,0,-175,74,-191,158","w":489},"\u00bf":{"d":"322,-686r57,0r26,319r-11,51r-103,0v-71,2,-141,61,-157,135v-16,73,31,135,104,135v48,0,97,-30,134,-74r31,40v-47,53,-111,90,-177,90v-102,0,-167,-87,-145,-191v22,-102,124,-191,222,-191r45,0xm379,-771v-4,19,-22,34,-39,34v-21,0,-31,-15,-27,-34v5,-21,21,-35,42,-35v17,0,29,14,24,35","w":432},"\u00e6":{"d":"673,-35v-52,23,-95,44,-160,44v-59,0,-106,-27,-134,-73v-5,31,-6,53,6,64r-73,0r6,-30v-34,24,-78,40,-119,40v-90,0,-149,-69,-131,-154v18,-86,107,-155,197,-155r105,0v3,-8,8,-19,11,-26v14,-71,-18,-126,-71,-126v-40,0,-81,5,-120,16r-3,-52v45,-12,90,-19,136,-19v57,0,98,39,112,96v49,-60,114,-97,176,-97v112,0,176,110,145,253r-6,30r-338,0r-8,36v4,79,51,143,120,143v41,0,100,-21,137,-38xm424,-277r283,0v13,-100,-33,-174,-108,-174v-73,0,-151,73,-175,174xm342,-144v7,-30,5,-67,14,-101r-102,0v-61,0,-118,46,-130,101v-12,55,26,98,87,98v60,0,118,-43,131,-98","w":743},"a":{"d":"310,0r6,-30v-34,24,-78,40,-120,40v-89,0,-148,-69,-130,-154v19,-90,111,-155,203,-155r104,0v20,-73,-1,-153,-65,-152v-40,0,-81,5,-121,16r-2,-52v44,-12,89,-19,136,-19v83,1,133,87,112,183v0,3,-74,299,-54,323r-69,0xm340,-144r22,-101r-104,0v-63,0,-124,41,-137,101v-12,55,27,98,87,98v61,0,120,-43,132,-98","w":406},"b":{"d":"194,-404r-65,306v-6,28,52,53,129,53v101,0,206,-93,229,-204v23,-108,-42,-202,-143,-202v-70,0,-135,22,-150,47xm113,-23r-4,23r-68,0v15,-17,36,-98,36,-98r125,-588r55,0r-45,211v40,-20,90,-31,144,-31v133,0,215,118,185,257v-30,141,-161,259,-295,259v-57,0,-102,-13,-133,-33","w":523},"c":{"d":"525,-423r-47,40v-26,-41,-71,-68,-124,-68v-102,0,-204,90,-228,203v-23,111,40,202,142,202v51,0,104,-24,149,-65r32,38v-59,50,-125,82,-192,82v-130,0,-215,-116,-185,-257v30,-142,164,-258,294,-258v69,0,125,34,159,83","w":478},"?":{"d":"238,0r-58,0r-23,-317r10,-49r99,0v73,-2,141,-60,157,-133v16,-76,-30,-137,-102,-137v-48,0,-97,31,-132,75r-31,-39v46,-54,110,-90,174,-90v102,0,167,86,144,191v-21,100,-120,187,-221,187r-43,0xm178,87v5,-38,75,-48,65,0v-4,19,-19,35,-39,35v-17,0,-29,-16,-26,-35","w":410},"\u00b4":{"d":"326,-636r-143,98r-38,0r95,-98r86,0","w":209},"`":{"d":"251,-538r-102,-98r87,0r52,98r-37,0","w":204},"\u00e0":{"d":"310,0r6,-30v-34,24,-78,40,-120,40v-89,0,-148,-69,-130,-154v19,-90,111,-155,203,-155r104,0v20,-73,-1,-153,-65,-152v-40,0,-81,5,-121,16r-2,-52v44,-12,89,-19,136,-19v83,1,133,87,112,183v0,3,-74,299,-54,323r-69,0xm340,-144r22,-101r-104,0v-63,0,-124,41,-137,101v-12,55,27,98,87,98v61,0,120,-43,132,-98xm311,-538r-102,-98r87,0r52,98r-37,0","w":406},"\u00e1":{"d":"310,0r6,-30v-34,24,-78,40,-120,40v-89,0,-148,-69,-130,-154v19,-90,111,-155,203,-155r104,0v20,-73,-1,-153,-65,-152v-40,0,-81,5,-121,16r-2,-52v44,-12,89,-19,136,-19v83,1,133,87,112,183v0,3,-74,299,-54,323r-69,0xm340,-144r22,-101r-104,0v-63,0,-124,41,-137,101v-12,55,27,98,87,98v61,0,120,-43,132,-98xm461,-636r-143,98r-38,0r95,-98r86,0","w":406},"\u00c0":{"d":"278,-336r189,0r-41,-254xm25,0r400,-691r45,0r108,691r-57,0r-46,-281r-229,0r-164,281r-57,0xm451,-729r-102,-98r87,0r52,98r-37,0","w":596},"\u00c1":{"d":"278,-336r189,0r-41,-254xm25,0r400,-691r45,0r108,691r-57,0r-46,-281r-229,0r-164,281r-57,0xm613,-827r-143,98r-38,0r95,-98r86,0","w":596},"\u00c2":{"d":"278,-336r189,0r-41,-254xm25,0r400,-691r45,0r108,691r-57,0r-46,-281r-229,0r-164,281r-57,0","w":596},"\u00c8":{"d":"476,-395r-11,55r-298,0r-61,285r349,0r-11,55r-404,0r146,-691r404,0r-11,53r-349,0r-52,243r298,0xm382,-729r-102,-98r87,0r52,98r-37,0","w":485},"\u00c9":{"d":"476,-395r-11,55r-298,0r-61,285r349,0r-11,55r-404,0r146,-691r404,0r-11,53r-349,0r-52,243r298,0xm530,-827r-143,98r-38,0r95,-98r86,0","w":485},"\u00d2":{"d":"675,-345v34,-161,-49,-294,-199,-294v-144,0,-286,130,-321,294v-35,166,50,298,195,298v149,0,290,-132,325,-298xm577,-88v-71,61,-153,97,-238,97v-169,0,-283,-153,-240,-354v41,-194,215,-350,389,-350v180,0,281,155,240,350v-22,104,-77,192,-151,257xm473,-729r-102,-98r87,0r52,98r-37,0"},"\u00d3":{"d":"675,-345v34,-161,-49,-294,-199,-294v-144,0,-286,130,-321,294v-35,166,50,298,195,298v149,0,290,-132,325,-298xm577,-88v-71,61,-153,97,-238,97v-169,0,-283,-153,-240,-354v41,-194,215,-350,389,-350v180,0,281,155,240,350v-22,104,-77,192,-151,257xm668,-827r-143,98r-38,0r95,-98r86,0"},"\u00d9":{"d":"243,-691r-109,515v-6,68,68,129,174,129v101,0,210,-58,225,-129r109,-515r55,0r-109,515v-26,101,-157,185,-291,185v-140,0,-242,-85,-221,-185r109,-515r58,0xm445,-729r-102,-98r87,0r52,98r-37,0","w":598},"\u00da":{"d":"243,-691r-109,515v-6,68,68,129,174,129v101,0,210,-58,225,-129r109,-515r55,0r-109,515v-26,101,-157,185,-291,185v-140,0,-242,-85,-221,-185r109,-515r58,0xm609,-827r-143,98r-38,0r95,-98r86,0","w":598},"\u00dd":{"d":"723,-691r72,0r-364,380r-66,311r-56,0r66,-311r-204,-380r73,0r169,326xm659,-827r-143,98r-38,0r95,-98r86,0","w":681},"\u00e8":{"d":"394,-35v-52,23,-95,42,-159,44v-117,2,-188,-121,-158,-258v31,-142,146,-258,256,-258v112,0,175,110,144,253r-6,30r-343,0v-15,102,35,178,118,179v40,0,100,-21,137,-38xm140,-277r289,0v13,-100,-33,-174,-108,-174v-71,0,-147,77,-181,174xm340,-538r-102,-98r87,0r52,98r-37,0","w":456},"\u00e9":{"d":"394,-35v-52,23,-95,42,-159,44v-117,2,-188,-121,-158,-258v31,-142,146,-258,256,-258v112,0,175,110,144,253r-6,30r-343,0v-15,102,35,178,118,179v40,0,100,-21,137,-38xm140,-277r289,0v13,-100,-33,-174,-108,-174v-71,0,-147,77,-181,174xm490,-636r-143,98r-38,0r95,-98r86,0","w":456},"\u00ec":{"d":"88,0r106,-500r53,0r-106,500r-53,0xm238,-545r-102,-98r87,0r52,98r-37,0","w":211},"\u00ed":{"d":"59,0r106,-500r54,0r-106,500r-54,0xm336,-643r-143,98r-38,0r95,-98r86,0","w":211},"\u00f2":{"d":"126,-247v-24,111,37,202,137,202v98,0,197,-91,221,-202v24,-113,-37,-204,-135,-204v-100,0,-199,91,-223,204xm71,-247v30,-143,161,-259,290,-259v129,0,208,116,178,259v-30,141,-159,257,-288,257v-129,0,-210,-116,-180,-257xm376,-538r-102,-98r87,0r52,98r-37,0","w":527},"\u00f3":{"d":"126,-247v-24,111,37,202,137,202v98,0,197,-91,221,-202v24,-113,-37,-204,-135,-204v-100,0,-199,91,-223,204xm71,-247v30,-143,161,-259,290,-259v129,0,208,116,178,259v-30,141,-159,257,-288,257v-129,0,-210,-116,-180,-257xm532,-636r-143,98r-38,0r95,-98r86,0","w":527},"\u00f9":{"d":"343,0r11,-53v-40,37,-90,62,-141,62v-93,0,-149,-82,-130,-184v-1,-2,-2,-3,-2,-4r67,-319r54,0r-67,316v-12,74,28,134,96,135v60,0,132,-52,146,-116r72,-337r54,0r-95,446v-5,22,-1,48,4,54r-69,0xm339,-538r-102,-98r87,0r52,98r-37,0","w":450},"\u00fa":{"d":"343,0r11,-53v-40,37,-90,62,-141,62v-93,0,-149,-82,-130,-184v-1,-2,-2,-3,-2,-4r67,-319r54,0r-67,316v-12,74,28,134,96,135v60,0,132,-52,146,-116r72,-337r54,0r-95,446v-5,22,-1,48,4,54r-69,0xm479,-636r-143,98r-38,0r95,-98r86,0","w":450},"\u00fd":{"d":"7,189r20,-56v7,8,23,8,36,8v43,0,95,-30,128,-86r58,-94r-91,-467r58,0r74,398r243,-398r58,0r-288,467r-67,114v-44,76,-124,120,-187,120v-14,0,-29,-2,-42,-6xm542,-636r-143,98r-38,0r95,-98r86,0","w":535},":":{"d":"54,0r16,-76r76,0r-16,76r-76,0xm144,-424r16,-76r76,0r-16,76r-76,0","w":182},";":{"d":"144,-424r16,-76r75,0r-16,76r-75,0xm60,-9r15,-67r61,0r-16,72r-105,75r-7,-17","w":169},"=":{"d":"146,-383r12,-57r339,0r-12,57r-339,0xm106,-195r12,-56r339,0r-12,56r-339,0","w":440},"\u00c7":{"d":"711,-593r-47,36v-39,-53,-97,-85,-163,-85v-146,0,-291,137,-326,300v-34,159,52,298,199,298v66,0,137,-32,196,-83r32,37v-75,65,-160,98,-246,99v-2,2,-5,8,-7,11v17,6,43,30,37,59v-5,20,-23,43,-70,66r-45,-39v13,0,66,-6,69,-29v3,-22,-30,-24,-53,-23r12,-52v-133,-34,-214,-173,-178,-344v42,-199,217,-353,391,-353v83,0,153,38,199,102","w":634},"\u00e7":{"d":"289,9r-8,14v16,6,42,30,36,60v-4,19,-24,42,-69,67r-40,-38v21,-2,59,-12,61,-27v3,-29,-27,-29,-52,-27r13,-53v-107,-22,-171,-126,-144,-254v30,-141,162,-257,296,-257v68,0,124,32,159,84r-46,38v-29,-41,-74,-67,-125,-67v-103,0,-205,90,-229,202v-24,113,40,203,143,203v50,0,104,-24,149,-63r31,38v-51,44,-114,74,-175,80","w":493},"\u00a2":{"d":"337,-503r15,-67r59,0r-15,67v56,7,99,38,129,80r-47,40v-20,-33,-53,-59,-93,-65r-85,400v41,-6,80,-30,118,-63r31,38v-51,43,-104,73,-161,80r-14,66r-59,0r14,-67v-114,-15,-184,-124,-157,-254v28,-131,145,-240,265,-255xm126,-248v-21,100,29,185,115,200r85,-400v-92,15,-178,99,-200,200","w":478},"|":{"d":"50,-1r151,-710r39,0r-151,710r-39,0","w":131},"$":{"d":"282,-372r55,-260v-68,16,-129,67,-142,126v-13,60,22,116,87,134xm322,-308r-55,259v68,-10,130,-59,144,-123v14,-64,-23,-121,-89,-136xm358,-731r54,0r-9,42v70,2,122,34,155,82r-52,35v-22,-36,-65,-62,-114,-65r-59,276v96,22,155,96,136,186v-20,93,-113,167,-214,181r-12,58r-54,0r12,-56v-74,-5,-126,-45,-152,-98r51,-35v18,38,59,76,112,79r57,-269v-97,-21,-151,-96,-132,-187v20,-94,108,-166,211,-184","w":466},"\"":{"d":"156,-543r20,-143r59,0r-6,69r-61,89xm229,-543r20,-143r59,0r-6,69r-61,89","w":217},"\u00aa":{"d":"239,-311v-18,-1,-41,2,-57,-1v-47,18,-95,-13,-83,-60v11,-42,52,-67,109,-61v2,-17,-5,-35,-17,-35v-16,0,-29,2,-52,9r1,-39v20,-5,37,-8,59,-8v32,0,54,30,45,74v-7,34,-24,91,-5,121xm200,-396r-29,0v-16,0,-32,13,-34,24v-3,13,7,26,23,26v26,-1,38,-24,40,-50","w":179},"\u00ba":{"d":"144,-402v-6,30,15,61,44,61v26,0,59,-31,65,-61v7,-34,-12,-66,-38,-66v-29,0,-64,32,-71,66xm106,-402v13,-60,63,-104,117,-104v50,0,82,44,69,104v-12,55,-62,99,-112,99v-54,0,-86,-44,-74,-99","w":232},"\u00b2":{"d":"167,-351r152,0r-9,43r-217,0r8,-39r190,-171v15,-13,28,-35,32,-52v8,-41,-23,-76,-63,-76v-19,0,-45,11,-72,33r-26,-34v36,-26,71,-43,107,-43v69,0,111,54,97,120v-7,31,-29,66,-50,85","w":280},"\u00b3":{"d":"116,-377r13,0v12,17,34,31,57,31v36,0,79,-29,87,-65v7,-35,-21,-68,-54,-68r-58,0r9,-43r59,0v35,-2,74,-32,81,-62v6,-30,-23,-59,-60,-59v-23,0,-51,12,-78,36r-25,-34v34,-30,72,-45,112,-45v65,0,109,45,97,102v-8,38,-30,67,-65,85v20,21,32,54,25,88v-13,60,-75,107,-139,107v-42,0,-72,-18,-93,-47","w":265},"\u00a8":{"d":"168,-639v4,-18,23,-33,42,-33v18,0,32,15,28,33v-3,17,-24,33,-42,33v-19,0,-31,-16,-28,-33xm298,-639v4,-18,23,-33,42,-33v19,0,32,15,28,33v-3,17,-23,33,-42,33v-19,0,-31,-16,-28,-33","w":263},"\u00e4":{"d":"245,-639v4,-18,22,-33,42,-33v18,0,32,15,28,33v-3,17,-24,33,-42,33v-20,0,-31,-16,-28,-33xm375,-639v4,-18,23,-33,42,-33v19,0,32,15,28,33v-3,17,-23,33,-42,33v-19,0,-31,-16,-28,-33xm314,-7r6,-30v-34,24,-78,40,-120,40v-89,0,-148,-69,-130,-154v19,-90,111,-155,203,-155r104,0v20,-73,-1,-153,-65,-152v-40,0,-81,5,-121,16r-2,-52v44,-12,89,-19,136,-19v83,1,133,87,112,183v0,3,-74,299,-54,323r-69,0xm344,-151r22,-101r-104,0v-63,0,-124,41,-137,101v-12,55,27,98,87,98v61,0,120,-43,132,-98","w":406},"\u00eb":{"d":"394,-35v-52,23,-95,42,-159,44v-117,2,-188,-121,-158,-258v31,-142,146,-258,256,-258v112,0,175,110,144,253r-6,30r-343,0v-15,102,35,178,118,179v40,0,100,-21,137,-38xm140,-277r289,0v13,-100,-33,-174,-108,-174v-71,0,-147,77,-181,174xm261,-639v4,-18,23,-33,42,-33v18,0,32,15,28,33v-3,17,-24,33,-42,33v-19,0,-31,-16,-28,-33xm391,-639v4,-18,23,-33,42,-33v19,0,32,15,28,33v-3,17,-23,33,-42,33v-19,0,-31,-16,-28,-33","w":456},"\u00f6":{"d":"126,-247v-24,111,37,202,137,202v98,0,197,-91,221,-202v24,-113,-37,-204,-135,-204v-100,0,-199,91,-223,204xm71,-247v30,-143,161,-259,290,-259v129,0,208,116,178,259v-30,141,-159,257,-288,257v-129,0,-210,-116,-180,-257xm302,-639v4,-18,23,-33,42,-33v18,0,32,15,28,33v-3,17,-24,33,-42,33v-19,0,-31,-16,-28,-33xm432,-639v4,-18,23,-33,42,-33v19,0,32,15,28,33v-3,17,-23,33,-42,33v-19,0,-31,-16,-28,-33","w":527},"\u00fc":{"d":"343,0r11,-53v-40,37,-90,62,-141,62v-93,0,-149,-82,-130,-184v-1,-2,-2,-3,-2,-4r67,-319r54,0r-67,316v-12,74,28,134,96,135v60,0,132,-52,146,-116r72,-337r54,0r-95,446v-5,22,-1,48,4,54r-69,0xm258,-639v4,-18,23,-33,42,-33v18,0,32,15,28,33v-3,17,-24,33,-42,33v-19,0,-31,-16,-28,-33xm388,-639v4,-18,23,-33,42,-33v19,0,32,15,28,33v-3,17,-23,33,-42,33v-19,0,-31,-16,-28,-33","w":450},"\u00ff":{"d":"7,189r20,-56v7,8,23,8,36,8v43,0,95,-30,128,-86r58,-94r-91,-467r58,0r74,398r243,-398r58,0r-288,467r-67,114v-44,76,-124,120,-187,120v-14,0,-29,-2,-42,-6xm311,-639v4,-18,23,-33,42,-33v18,0,32,15,28,33v-3,17,-24,33,-42,33v-19,0,-31,-16,-28,-33xm441,-639v4,-18,23,-33,42,-33v19,0,32,15,28,33v-3,17,-23,33,-42,33v-19,0,-31,-16,-28,-33","w":535},"\u00ef":{"d":"59,0r106,-500r53,0r-106,500r-53,0xm141,-639v4,-18,23,-33,42,-33v19,0,32,15,28,33v-3,17,-23,33,-42,33v-19,0,-31,-16,-28,-33xm233,-639v4,-18,22,-33,42,-33v18,0,32,15,28,33v-3,17,-24,33,-42,33v-20,0,-31,-16,-28,-33","w":177},"\u00f1":{"d":"301,-650v38,0,50,16,84,17v25,0,57,-11,79,-26r12,42v-43,24,-107,41,-154,16r1,1v-39,-15,-80,0,-112,19r-10,-42v26,-16,64,-27,100,-27xm198,-503r-11,50v42,-40,90,-62,142,-62v94,0,153,82,132,185r-66,323r-55,0r68,-323v15,-73,-28,-130,-95,-130v-59,0,-122,54,-149,116r-71,337r-54,0r95,-448v4,-20,0,-42,-5,-48r69,0","w":433},"\u00f5":{"d":"126,-247v-24,111,37,202,137,202v98,0,197,-91,221,-202v24,-113,-37,-204,-135,-204v-100,0,-199,91,-223,204xm71,-247v30,-143,161,-259,290,-259v129,0,208,116,178,259v-30,141,-159,257,-288,257v-129,0,-210,-116,-180,-257xm333,-635v56,0,68,27,118,28v21,0,44,-7,63,-18r6,43v-43,24,-114,28,-151,0v-33,-13,-75,-10,-108,9r-7,-43v26,-12,53,-19,79,-19","w":513},"\u00f8":{"d":"71,-247v30,-143,161,-259,290,-259v66,0,120,33,154,85r-50,36v-26,-41,-68,-66,-116,-66v-100,0,-199,91,-223,204v-8,37,-8,73,2,104r-49,36v-14,-44,-18,-91,-8,-140xm484,-247v9,-43,5,-83,-10,-119r51,-36v19,46,26,100,14,155v-30,141,-159,257,-288,257v-72,0,-130,-37,-162,-97r48,-36v25,48,71,78,126,78v98,0,197,-91,221,-202","w":513},"!":{"d":"90,-51v19,0,26,13,23,30v-3,16,-19,30,-35,30v-17,0,-27,-14,-24,-30v4,-17,19,-30,36,-30xm76,-96r125,-590r48,0r-125,590r-48,0","w":176},"\u00a1":{"d":"213,-630v-20,0,-25,-13,-22,-30v3,-16,18,-30,35,-30v16,0,27,14,24,30v-4,17,-21,30,-37,30xm228,-586r-124,586r-48,0r124,-586r48,0","w":160},"'":{"d":"178,-614r6,-67r61,-5r-7,70r-96,84r-11,-14","w":121},"(":{"d":"306,-696r11,61v-62,61,-123,195,-155,347v-36,167,-27,308,18,362r-43,53v-57,-71,-74,-230,-35,-415v38,-177,120,-335,204,-408","w":260},")":{"d":"198,-635r36,-61v54,74,71,232,33,408v-39,185,-125,344,-211,415r-22,-53v68,-54,137,-195,173,-362v32,-152,29,-286,-9,-347","w":246},"~":{"d":"198,-349v39,0,57,18,93,19v28,0,62,-9,84,-25r10,43v-43,27,-114,42,-161,14r1,1v-41,-14,-87,-3,-117,19r-14,-43v30,-18,69,-28,104,-28","w":347},"\u00bc":{"d":"340,-351r27,15r-142,178r82,0r16,-74r34,0r-16,74r48,0r-7,34r-48,0r-26,124r-34,0r26,-124r-123,0r6,-29xm140,-426r-18,-22r81,-58r29,0r-64,299r-34,0r54,-251v-15,11,-33,22,-48,32","w":382},"\u00bd":{"d":"128,-427r-18,-22r81,-58r29,0r-64,300r-34,0r54,-252v-15,11,-33,22,-48,32xm330,-165r-146,132r149,0r-7,33r-197,0r6,-29r178,-161v13,-12,26,-32,30,-50v9,-44,-19,-77,-63,-77v-21,0,-43,10,-65,26r-19,-24v29,-22,61,-36,91,-36v63,0,103,49,90,111v-7,29,-26,55,-47,75","w":355},"\u00b7":{"d":"122,-312v6,-27,38,-56,70,-56v32,0,54,29,48,56v-6,28,-40,54,-72,54v-32,0,-52,-26,-46,-54","w":225},"\u00b0":{"d":"186,-587v-6,31,18,61,51,61v28,0,65,-30,71,-61v7,-33,-16,-65,-44,-65v-33,0,-71,32,-78,65xm145,-587v12,-59,67,-103,127,-103v55,0,89,44,77,103v-12,55,-65,100,-120,100v-60,0,-96,-45,-84,-100","w":250},"\u00a6":{"d":"173,-399r-39,0r67,-312r39,0xm123,-348r39,0r-73,347r-39,0","w":131},"\u00a7":{"d":"174,-467v12,-126,155,-175,266,-116r-34,51v-61,-39,-152,-26,-173,38v53,-13,97,-4,147,19r-34,51v-38,-20,-69,-27,-111,-18v9,24,30,47,59,63v62,34,93,95,80,155v-7,35,-29,65,-58,88v-16,127,-158,182,-268,118r34,-46v65,35,152,21,176,-43v-56,15,-102,9,-150,-18r34,-48v39,18,76,27,117,13v-8,-28,-29,-49,-59,-66v-98,-53,-116,-183,-26,-241xm307,-196v35,-47,6,-109,-48,-139v-33,-19,-61,-44,-73,-76v-35,50,-12,106,48,139v34,19,62,45,73,76","w":356},"\u00be":{"d":"66,-192r30,-22v11,18,32,30,57,30v42,0,82,-30,90,-67v10,-49,-44,-75,-107,-65r7,-35r52,0v40,-2,76,-28,83,-60v7,-35,-21,-63,-62,-63v-25,0,-51,11,-72,30r-19,-24v28,-25,64,-39,98,-39v60,0,101,42,90,96v-7,34,-33,62,-67,77v26,18,38,48,31,83v-12,56,-71,101,-132,101v-35,0,-62,-17,-79,-42xm374,-125r-123,0r6,-30r159,-198r26,15r-139,178r79,0r15,-74r35,0r-15,74r48,0r-8,35r-48,0r-26,123r-35,0","w":458},"\u00b6":{"d":"478,-685r-145,683r-52,0r145,-683r52,0xm416,-686r-145,686r-90,0r74,-352v-83,-7,-142,-80,-123,-167v20,-93,109,-167,201,-167r83,0xm256,-410r48,-226v-55,2,-105,51,-118,113v-13,60,16,111,70,113","w":382},"\u00c4":{"d":"278,-336r189,0r-41,-254xm25,0r400,-691r45,0r108,691r-57,0r-46,-281r-229,0r-164,281r-57,0xm355,-752v4,-18,23,-33,42,-33v18,0,32,15,28,33v-3,17,-24,33,-42,33v-19,0,-31,-16,-28,-33xm485,-752v4,-18,23,-33,42,-33v19,0,32,15,28,33v-3,17,-23,33,-42,33v-19,0,-31,-16,-28,-33","w":596},"\u00cb":{"d":"476,-395r-11,55r-298,0r-61,285r349,0r-11,55r-404,0r146,-691r404,0r-11,53r-349,0r-52,243r298,0xm299,-753v4,-18,23,-33,42,-33v18,0,32,15,28,33v-3,17,-24,33,-42,33v-19,0,-31,-16,-28,-33xm429,-753v4,-18,23,-33,42,-33v19,0,32,15,28,33v-3,17,-23,33,-42,33v-19,0,-31,-16,-28,-33","w":485},"\u00cf":{"d":"244,-691r-146,691r-55,0r146,-691r55,0xm127,-752v4,-18,23,-33,42,-33v18,0,32,15,28,33v-3,17,-24,33,-42,33v-19,0,-31,-16,-28,-33xm257,-752v4,-18,23,-33,42,-33v19,0,32,15,28,33v-3,17,-23,33,-42,33v-19,0,-31,-16,-28,-33","w":138},"\u00d6":{"d":"675,-345v34,-161,-49,-294,-199,-294v-144,0,-286,130,-321,294v-35,166,50,298,195,298v149,0,290,-132,325,-298xm577,-88v-71,61,-153,97,-238,97v-169,0,-283,-153,-240,-354v41,-194,215,-350,389,-350v180,0,281,155,240,350v-22,104,-77,192,-151,257xm402,-753v4,-18,23,-33,42,-33v18,0,32,15,28,33v-3,17,-24,33,-42,33v-19,0,-31,-16,-28,-33xm532,-753v4,-18,23,-33,42,-33v19,0,32,15,28,33v-3,17,-23,33,-42,33v-19,0,-31,-16,-28,-33"},"\u00dc":{"d":"243,-691r-109,515v-6,68,68,129,174,129v101,0,210,-58,225,-129r109,-515r55,0r-109,515v-26,101,-157,185,-291,185v-140,0,-242,-85,-221,-185r109,-515r58,0xm356,-752v4,-18,23,-33,42,-33v18,0,32,15,28,33v-3,17,-24,33,-42,33v-19,0,-31,-16,-28,-33xm486,-752v4,-18,23,-33,42,-33v19,0,32,15,28,33v-3,17,-23,33,-42,33v-19,0,-31,-16,-28,-33","w":598},"\u00ce":{"d":"244,-691r-146,691r-55,0r146,-691r55,0","w":138},"\u00cd":{"d":"244,-691r-146,691r-55,0r146,-691r55,0xm384,-827r-143,98r-38,0r95,-98r86,0","w":154},"\u00cc":{"d":"252,-691r-146,691r-55,0r146,-691r55,0xm235,-729r-102,-98r87,0r52,98r-37,0","w":131},"\u00d1":{"d":"189,-691r51,0r218,576r122,-576r55,0r-146,691r-52,0r-217,-579r-123,579r-54,0xm372,-793v56,0,68,27,118,28v21,0,44,-7,63,-18r6,43v-43,24,-114,28,-151,0v-33,-13,-75,-10,-108,9r-7,-43v26,-12,53,-19,79,-19","w":537},"\u00b9":{"d":"180,-541r-30,-37r153,-108r50,0r-65,306r-55,0r50,-233","w":263},"+":{"d":"308,-266r-31,148r-54,0r31,-148r-147,0r12,-54r147,0r31,-147r54,0r-31,147r148,0r-12,54r-148,0","w":452},"-":{"d":"442,-266r-349,0r12,-54r349,0","w":421},"\/":{"d":"491,-686r-395,686r-59,0r396,-686r58,0","w":378},"&":{"d":"466,-101v-62,59,-145,101,-221,101v-120,0,-187,-88,-167,-190v15,-80,101,-157,217,-201v-4,-4,-6,-10,-8,-14v-53,-72,-54,-107,-46,-143v15,-72,92,-142,188,-142v88,0,133,62,120,136v-11,61,-80,122,-175,165r110,187v24,-34,44,-60,64,-106r59,13v-29,54,-61,105,-90,138v-1,6,-4,11,-6,16v16,36,20,46,50,75r-14,65v-44,-31,-57,-60,-81,-100xm511,-140r0,-1r0,1xm488,-553v11,-52,-17,-94,-73,-94v-77,-1,-151,95,-93,171r34,53r10,-5r-1,0v85,-44,113,-76,123,-125xm314,-358r-12,7v-101,52,-146,101,-158,156v-15,70,27,146,111,146v57,0,129,-38,175,-90r0,1v1,-2,5,-7,8,-9","w":597},"\u00d5":{"d":"675,-345v34,-161,-49,-294,-199,-294v-144,0,-286,130,-321,294v-35,166,50,298,195,298v149,0,290,-132,325,-298xm577,-88v-71,61,-153,97,-238,97v-169,0,-283,-153,-240,-354v41,-194,215,-350,389,-350v180,0,281,155,240,350v-22,104,-77,192,-151,257xm448,-794v56,0,68,27,118,28v21,0,44,-7,63,-18r6,43v-43,24,-114,28,-151,0v-33,-13,-75,-10,-108,9r-7,-43v26,-12,53,-19,79,-19"},"\u00d0":{"d":"163,-269r-66,0r11,-54r66,0r78,-368r257,0v135,2,210,155,170,344v-40,189,-178,347,-314,347r-259,0xm498,-636r-202,0r-67,313r171,0r-11,54r-171,0r-46,214v68,0,138,-2,205,-2v103,0,214,-132,247,-290v34,-158,-22,-289,-126,-289","w":653},"\u00b1":{"d":"347,-447r-32,147r-54,0r32,-147r-147,0r11,-55r147,0r31,-147r54,0r-31,147r148,0r-11,55r-148,0xm430,-150r-349,0r12,-54r349,0","w":452},"*":{"d":"364,-487r-23,110r-54,0r23,-108r-93,75r-31,-37r94,-78r-108,0r12,-54r108,0r-61,-77r46,-39r61,77r23,-109r54,0r-23,109r93,-77r31,38r-93,77r109,0r-12,55r-110,0r62,78r-46,37","w":471},"\u00d7":{"d":"234,-274r-127,104r-30,-38r126,-105r-81,-103r45,-39r83,104r126,-104r31,38r-127,104r83,105r-46,38","w":367},"_":{"d":"460,0r-423,0r11,-54r423,0","w":513},"\\":{"d":"287,0r-105,-686r58,0r106,686r-59,0","w":371},"\u00f7":{"d":"197,-136r17,-76r76,0r-17,76r-76,0xm248,-376r17,-76r76,0r-17,76r-76,0xm441,-273r-349,0r12,-54r349,0","w":425},"@":{"d":"543,-194v27,0,88,-39,126,-93v20,-29,44,-91,51,-124v25,-116,-52,-215,-196,-215v-162,0,-310,127,-346,296v-36,166,51,265,236,265v114,0,209,-47,262,-107r75,0r-9,15v-61,81,-186,156,-340,156v-209,0,-333,-111,-288,-323v44,-207,217,-366,426,-366v159,0,280,103,243,280v-26,121,-137,273,-258,273v-20,0,-56,-3,-69,-25v-26,17,-57,28,-87,28v-72,0,-117,-60,-102,-134v16,-75,89,-132,163,-132r71,0v9,-49,13,-95,-19,-95v-28,0,-41,1,-67,10r-14,1r-2,-57v36,-5,54,-14,96,-12v62,2,72,66,61,141r2,0r-39,169v-8,25,-14,49,24,49xm478,-268r17,-79r-77,0v-47,0,-93,33,-103,79v-9,45,20,81,65,81v44,0,89,-36,98,-81","w":754},"\u00a5":{"d":"196,-144r12,-56r142,0r5,-24r-142,0r12,-56r142,0r6,-28r-202,-378r73,0r166,324r309,-324r72,0r-362,378r-6,28r142,0r-12,56r-142,0r-5,24r142,0r-12,56r-142,0r-30,144r-56,0r30,-144r-142,0","w":681},"\u00a3":{"d":"433,-293r-178,0r-51,239r328,0r-11,54r-382,0r62,-293r-117,0r11,-54r117,0r72,-339r54,0r-72,339r178,0","w":556},"\u00fe":{"d":"259,-687r-46,212v41,-20,88,-33,144,-33v134,0,217,117,187,257v-31,144,-162,260,-296,260v-55,0,-97,-17,-131,-34r-46,216r-54,0r187,-878r55,0xm196,-405r-63,307v-8,27,50,52,126,52v102,0,206,-93,230,-204v23,-108,-42,-202,-143,-202v-70,0,-135,22,-150,47","w":517},"\u00d8":{"d":"577,-88v-93,80,-203,121,-329,81v-1,2,-2,6,-2,7r-60,0r17,-30v-87,-55,-134,-175,-104,-315v41,-194,215,-350,389,-350v31,0,64,6,91,15v2,-4,4,-9,5,-11r58,0r-18,33v92,62,133,177,104,313v-22,104,-76,193,-151,257xm675,-345v25,-114,-13,-212,-81,-260r-316,546v23,9,45,12,72,12v149,0,290,-132,325,-298xm476,-639v-144,0,-286,130,-321,294v-25,115,8,213,77,263r316,-545v-22,-9,-46,-12,-72,-12"},"\u00ac":{"d":"699,-390r-49,231r-54,0r38,-177r-524,0r11,-54r578,0","w":662},"\u00bb":{"d":"166,-504r219,226r-281,267r-33,-36r237,-224r-187,-191xm331,-504r219,226r-281,267r-33,-36r237,-224r-187,-191","w":524},">":{"d":"175,-497r194,249r-299,246r-31,-40r253,-206r-164,-211","w":336},"<":{"d":"73,-248r299,-249r32,38r-254,211r165,206r-47,40","w":330},"\u00de":{"d":"260,-692r-46,214v41,-21,89,-34,145,-34v135,0,218,118,188,259v-31,145,-163,262,-298,262v-55,0,-98,-17,-132,-34r-46,217r-54,0r188,-884r55,0xm196,-408r-62,309v-9,27,49,53,126,53v103,0,207,-94,231,-206v23,-109,-42,-204,-144,-204v-71,0,-136,23,-151,48","w":535},"^":{"d":"119,-443r301,-246r193,247r-48,39r-161,-209r-256,209","w":551},"\u00ea":{"d":"394,-35v-52,23,-95,42,-159,44v-117,2,-188,-121,-158,-258v31,-142,146,-258,256,-258v112,0,175,110,144,253r-6,30r-343,0v-15,102,35,178,118,179v40,0,100,-21,137,-38xm140,-277r289,0v13,-100,-33,-174,-108,-174v-71,0,-147,77,-181,174xm229,-559r138,-113r91,114r-42,34r-63,-81r-98,81","w":456},"\u00c3":{"d":"434,-821v37,-1,55,17,86,17v29,0,60,-8,80,-22r12,40v-43,27,-107,37,-155,15r1,1v-37,-14,-82,-2,-110,16r-13,-40v29,-16,64,-27,99,-27xm282,-343r189,0r-41,-254xm29,-7r400,-691r45,0r108,691r-57,0r-46,-281r-229,0r-164,281r-57,0","w":596},"\u00c6":{"d":"591,-336r73,-302r-213,0r-171,302r311,0xm427,-691r644,0r-11,53r-350,0r-52,243r299,0r-11,55r-299,0r-61,285r350,0r-11,55r-405,0r59,-281r-331,0r-164,281r-58,0","w":1081},"\u00e2":{"d":"310,0r6,-30v-34,24,-78,40,-120,40v-89,0,-148,-69,-130,-154v19,-90,111,-155,203,-155r104,0v20,-73,-1,-153,-65,-152v-40,0,-81,5,-121,16r-2,-52v44,-12,89,-19,136,-19v83,1,133,87,112,183v0,3,-74,299,-54,323r-69,0xm340,-144r22,-101r-104,0v-63,0,-124,41,-137,101v-12,55,27,98,87,98v61,0,120,-43,132,-98xm204,-559r138,-113r91,114r-42,34r-63,-81r-98,81","w":406},"\u00df":{"d":"405,-633r-167,0r-51,241r167,0v73,-2,141,-54,156,-122v13,-62,-33,-119,-105,-119xm175,-338r-107,506r-55,0r181,-854r222,0v102,2,168,81,149,172v-14,64,-62,118,-121,150v56,32,82,97,67,167v-22,105,-128,193,-240,195r-86,0r-41,-52r138,0v81,-4,158,-68,174,-143v16,-73,-35,-141,-131,-141r-150,0","w":520},"\u00ab":{"d":"248,-278r315,-226r27,42r-269,191r141,224r-47,36xm83,-278r315,-226r27,42r-269,191r141,224r-47,36","w":532},"\u00fb":{"d":"343,0r11,-53v-40,37,-90,62,-141,62v-93,0,-149,-82,-130,-184v-1,-2,-2,-3,-2,-4r67,-319r54,0r-67,316v-12,74,28,134,96,135v60,0,132,-52,146,-116r72,-337r54,0r-95,446v-5,22,-1,48,4,54r-69,0xm226,-559r138,-113r91,114r-42,34r-63,-81r-98,81","w":450},"\u00f4":{"d":"126,-247v-24,111,37,202,137,202v98,0,197,-91,221,-202v24,-113,-37,-204,-135,-204v-100,0,-199,91,-223,204xm71,-247v30,-143,161,-259,290,-259v129,0,208,116,178,259v-30,141,-159,257,-288,257v-129,0,-210,-116,-180,-257xm258,-559r138,-113r91,114r-42,34r-63,-81r-98,81","w":513},"\u00f0":{"d":"300,-275v-112,1,-189,-94,-163,-207v26,-114,137,-209,253,-209v113,0,185,95,168,206v-16,107,-39,221,-76,313v-42,106,-151,179,-258,179v-66,0,-122,-36,-153,-88r58,-41v23,46,65,73,114,73v83,0,160,-58,192,-136v21,-50,33,-108,46,-165v-47,43,-115,75,-181,75xm188,-477v-15,82,41,148,123,148v88,0,172,-68,191,-155v17,-82,-42,-151,-123,-151v-89,0,-175,74,-191,158","w":489},"\u00ee":{"d":"59,0r106,-500r53,0r-106,500r-53,0xm95,-566r138,-113r91,114r-42,34r-63,-81r-98,81","w":177},"#":{"d":"68,-215r58,-56r100,0r74,-126r-194,0r57,-56r168,0r111,-187r58,0r-108,187r218,0r110,-187r58,0r-108,187r118,0r-57,56r-92,0v-25,42,-51,83,-75,126r186,0r-59,56r-160,0r-122,215r-60,0r124,-215r-220,0r-123,215r-59,0r124,-215r-127,0xm360,-397r-74,126r219,0r73,-126r-218,0","w":714},"\u00e3":{"d":"280,-608v34,-1,51,16,79,16v29,0,63,-10,85,-26r11,39v-44,29,-104,42,-154,20r1,1v-38,-12,-81,0,-109,20r-15,-40v29,-17,68,-30,102,-30xm314,-7r6,-30v-34,24,-78,40,-120,40v-89,0,-148,-69,-130,-154v19,-90,111,-155,203,-155r104,0v20,-73,-1,-153,-65,-152v-40,0,-81,5,-121,16r-2,-52v44,-12,89,-19,136,-19v83,1,133,87,112,183v0,3,-74,299,-54,323r-69,0xm344,-151r22,-101r-104,0v-63,0,-124,41,-137,101v-12,55,27,98,87,98v61,0,120,-43,132,-98","w":406},"[":{"d":"165,-53v0,-1,7,-1,17,-1r-11,54v-29,0,-68,-21,-61,-53r50,-235v4,-21,-8,-37,-28,-37r-27,0r11,-54v38,4,64,-7,71,-37r48,-225v10,-27,46,-45,81,-45r-12,56v-9,0,-16,0,-16,-3r-49,230v-11,19,-27,35,-50,37r-5,27v19,3,32,17,34,36","w":210},"]":{"d":"53,-56r53,-246v9,-22,26,-36,47,-37v1,-9,4,-17,7,-27v-19,-4,-32,-20,-33,-37r48,-227r-19,0r12,-56v42,1,70,20,63,51r-46,219v-4,20,5,37,25,37r27,0r-11,54v-37,-4,-62,6,-68,37r-50,235v-7,31,-52,53,-85,53r11,-54v11,0,16,-1,19,-2","w":183},"\u00a0":{"w":257}}});
