/*!
 * The following copyright notice may not be removed under any circumstances.
 * 
 * Copyright:
 * Llicència gratuïta / Free License (La Tipomatika)
 * 
 * Trademark:
 * Please refer to the Copyright section for the font trademark attribution
 * notices.
 * 
 * Full name:
 * CicleFina
 * 
 * Manufacturer:
 * La Tipomatika
 * 
 * Designer:
 * La Tipomatika (Digital Type Foundry)
 */
Cufon.registerFont({"w":690,"face":{"font-family":"Cicle","font-weight":400,"font-stretch":"normal","units-per-em":"1000","panose-1":"2 0 0 0 0 0 0 0 0 0","ascent":"800","descent":"-200","x-height":"200","bbox":"-27 -831 932 200","underline-thickness":"50","underline-position":"-50","unicode-range":"U+0020-U+00FF"},"glyphs":{" ":{"w":257},"e":{"d":"239,-32v43,0,97,-21,130,-37r17,37v-41,21,-86,41,-147,41v-115,0,-211,-112,-210,-258v0,-142,90,-258,199,-258v118,1,205,121,197,277r-353,0v6,111,78,197,167,198xm72,-271r313,0v-8,-108,-75,-193,-157,-193v-80,0,-147,85,-156,193","w":456},"f":{"d":"305,-693r-12,41v-96,-16,-146,58,-141,163r132,0r0,43r-132,0r1,446r-39,0v0,0,-1,-295,-1,-446r-76,0r0,-43r74,0v3,-11,-1,-27,0,-38v5,-91,68,-168,146,-168v17,0,32,0,48,2","w":328},"g":{"d":"158,-147v0,46,42,29,76,29v112,0,201,70,201,158v0,87,-89,160,-201,160v-109,0,-200,-73,-200,-160v0,-59,42,-112,104,-138v-17,-28,-13,-83,10,-101v-46,-33,-74,-81,-74,-134v0,-95,88,-173,199,-173v29,0,52,5,75,11r173,0r-41,42r-63,0v35,30,55,71,55,120v0,95,-89,171,-199,171v-33,0,-58,-12,-82,-12v-15,0,-33,6,-33,27xm74,40v0,65,74,120,160,120v91,0,162,-55,162,-120v0,-64,-71,-120,-162,-120v-86,0,-160,56,-160,120xm115,-333v0,72,71,131,158,131v90,0,160,-59,160,-131v0,-75,-70,-133,-160,-133v-87,0,-158,58,-158,133","w":551},"p":{"d":"81,-87v7,29,74,54,150,54v110,0,199,-99,199,-219v0,-118,-89,-214,-199,-214v-83,0,-150,26,-150,58r0,321xm81,-499r0,30v34,-22,89,-40,150,-40v134,0,241,116,241,257v0,144,-107,260,-241,260v-58,0,-115,-16,-149,-39r0,226r-41,0r0,-603v0,0,-3,-83,-10,-91r50,0","w":506},"y":{"d":"53,195r5,-43v5,8,20,6,33,7v47,0,96,-33,120,-92r40,-99r-193,-474r45,0r169,422r166,-422r45,0r-192,471r-44,117r-2,9v-32,70,-94,109,-156,109v-12,0,-24,-2,-36,-5","w":535},"R":{"d":"87,-347r-2,0r1,347r-42,0r-1,-691r198,0v109,0,196,76,196,171v0,96,-87,173,-196,173r-99,0r306,347r-54,0xm241,-652r-156,0r0,263r156,0v84,0,154,-57,154,-131v0,-72,-70,-132,-154,-132","w":474},"d":{"d":"439,-411v-8,-29,-69,-53,-148,-53v-111,0,-199,98,-199,212v0,118,88,218,201,218v81,0,146,-31,146,-62r0,-315xm439,-3r0,-29v-34,23,-88,39,-148,39v-132,0,-240,-116,-240,-259v0,-141,108,-254,242,-254v59,0,109,13,146,39r0,-224r42,0r0,595v0,0,0,87,7,93r-49,0","w":534},"h":{"d":"46,-693r42,0r0,264v32,-49,81,-78,139,-78v94,0,167,81,168,182r3,322r-42,0r0,-322v-3,-79,-62,-141,-135,-141v-65,0,-133,54,-133,126r1,340r-42,0","w":455},"i":{"d":"66,0r-1,-500r41,0r1,500r-41,0xm57,-650v0,-14,13,-27,29,-27v15,0,29,13,29,27v0,14,-14,27,-29,27v-16,0,-29,-13,-29,-27","w":177},"j":{"d":"196,-645v0,-16,11,-27,28,-27v13,0,26,11,26,27v0,15,-13,27,-26,27v-17,0,-28,-12,-28,-27xm52,194r4,-39v15,0,30,3,44,3r2,-3v57,0,102,-61,102,-134r0,-522r42,0r0,532v-7,91,-67,165,-146,167v-17,0,-34,-3,-48,-4","w":354},"k":{"d":"103,-691r0,357r191,-160r64,0r-152,126r211,368r-49,0r-194,-338r-71,59r1,279r-47,0v1,-2,4,-19,4,-45r0,-646r42,0","w":440},"l":{"d":"66,0r-1,-691r42,0r1,691r-42,0","w":162},"m":{"d":"83,-500r0,73v32,-49,81,-78,137,-78v70,0,129,47,156,111v27,-80,96,-113,153,-113v94,0,167,80,168,182r2,323r-42,0r0,-323v-2,-77,-61,-140,-132,-140v-67,0,-134,55,-134,125r0,338r-42,0r0,-321v-2,-79,-61,-140,-134,-140v-66,0,-132,53,-132,125r1,338r-42,0r-1,-451v0,-23,-3,-47,-5,-49r47,0","w":739},"n":{"d":"81,-496r0,67v32,-50,82,-79,139,-79v94,0,168,81,169,183r3,325r-42,0r-1,-325v-2,-79,-62,-141,-134,-141v-67,0,-134,53,-134,126r1,340r-42,0r-1,-454v0,-22,-3,-40,-5,-42r47,0","w":433},"o":{"d":"64,-247v0,118,86,215,193,215v104,0,189,-97,189,-215v0,-120,-85,-217,-189,-217v-107,0,-193,97,-193,217xm22,-247v0,-143,106,-259,235,-259v128,0,232,116,232,259v0,141,-104,257,-232,257v-129,0,-235,-116,-235,-257","w":513},"q":{"d":"415,-470r0,-24r40,0r0,689r-40,0r0,-244v-36,25,-86,40,-146,39v-126,-2,-231,-112,-231,-248v0,-136,105,-248,231,-248v60,0,113,14,146,36xm415,-103r0,-305v1,-32,-68,-59,-146,-58v-105,0,-191,93,-191,208v0,115,86,208,191,208v77,0,139,-24,146,-53","w":513},"r":{"d":"249,-503r-10,41v-81,-12,-152,46,-152,124r1,338r-42,0r-1,-452v0,-22,-2,-47,-5,-49r47,0r0,74v37,-55,90,-88,162,-76","w":279},"s":{"d":"374,-443r-34,25v-30,-29,-77,-45,-126,-45v-68,0,-120,35,-120,86v0,48,52,94,124,105v91,14,157,77,157,148v0,79,-75,132,-163,132v-62,0,-126,-24,-160,-65r32,-25v28,28,75,49,125,49v69,0,124,-37,124,-91v0,-50,-52,-98,-123,-109v-92,-13,-159,-78,-159,-146v0,-76,77,-126,167,-126v62,0,121,26,156,62","w":417},"t":{"d":"125,-691r42,0r0,198r135,0r0,43r-135,0r1,450r-40,0v0,0,-1,-297,-1,-450r-76,0r0,-43r74,0r0,-198","w":340},"u":{"d":"356,0r-1,-70v-30,46,-81,79,-138,79v-93,0,-165,-82,-167,-184r-3,-5r0,-318r41,0r0,318r2,5v2,77,62,141,134,141v67,0,131,-57,131,-126r0,-340r42,0r0,452v0,24,3,46,6,48r-47,0","w":450},"v":{"d":"226,0r-202,-500r45,0r179,442r178,-442r48,0r-203,500r-45,0","w":500},"w":{"d":"675,-500r-203,500r-46,-3r-78,-195r-82,198r-46,-3r-201,-497r45,0r179,442r80,-198r-98,-244r48,0r176,442r178,-442r48,0","w":705},"x":{"d":"190,-259r-153,-241r53,0r128,206r131,-206r52,0r-155,249r156,251r-50,0r-137,-216r-132,216r-50,0","w":444},"z":{"d":"46,0r-1,-43r312,-414r-309,0r0,-43r364,0r0,43r-312,414r312,0r1,43r-367,0","w":452},"A":{"d":"197,-329r213,0r-107,-288xm32,0r254,-691r35,0r256,691r-44,0r-108,-287r-243,0r-106,287r-44,0","w":596},"B":{"d":"274,-2v-69,3,-148,0,-220,2r-1,-691r221,0v101,2,183,80,183,170v0,68,-40,125,-99,155v69,29,113,96,113,170v0,104,-86,190,-197,194xm415,-521v0,-72,-67,-130,-159,-130r-161,0r0,262r179,0v79,-2,141,-59,141,-132xm95,-42r179,0v86,-4,155,-72,155,-154v0,-79,-69,-151,-155,-151r-179,0r0,305","w":512},"C":{"d":"557,-599r-28,31r0,-3v-49,-51,-115,-82,-186,-82v-148,0,-271,137,-271,308v0,168,115,311,271,311v71,0,134,-31,184,-81r28,28v-56,59,-130,96,-212,96v-165,0,-314,-160,-314,-354v0,-186,139,-350,314,-350v82,0,160,37,214,96","w":590},"D":{"d":"292,-649r-213,0r0,607r215,0r0,-2v109,-3,197,-138,197,-303v0,-164,-88,-302,-199,-302xm38,0r-1,-691r255,0v134,2,241,155,241,344v0,189,-105,342,-239,345r1,2r-257,0","w":575},"E":{"d":"391,-389r0,42r-305,0r0,305r357,0r1,42r-399,0r-1,-691r399,0r0,40r-357,0r0,262r305,0","w":485},"F":{"d":"395,-389r0,42r-305,0r1,347r-42,0r-1,-691r399,0r0,39r-357,0r0,263r305,0","w":487},"G":{"d":"556,-340r0,255v-57,59,-132,94,-215,94v-174,0,-316,-158,-316,-351v0,-194,142,-353,316,-353v83,0,158,36,215,96r-28,29v-49,-51,-116,-82,-187,-82v-151,0,-274,137,-274,310v0,171,123,311,274,311v66,0,128,-28,173,-71r0,-198r-191,0r0,-40r233,0","w":604},"H":{"d":"472,-347r-381,0r1,347r-42,0r-1,-691r42,0r0,302r381,0r0,-302r42,0r1,691r-42,0","w":558},"I":{"d":"91,-691r1,691r-42,0r-1,-691r42,0","w":138},"J":{"d":"244,-691r0,523v0,96,-60,177,-129,177v-31,0,-59,-17,-81,-42r27,-29v62,70,140,2,140,-104r0,-525r43,0","w":305},"K":{"d":"44,-691r42,0r0,376r322,-376r57,0r-258,300r335,391r-54,0r-308,-359r-94,109r1,250r-42,0","w":583},"L":{"d":"86,-691r0,649r337,0r1,42r-379,0r-1,-691r42,0","w":453},"M":{"d":"305,-305r224,-386r43,0r1,691r-43,0r-1,-610r-212,365r-26,0r-215,-365r1,610r-42,0r-1,-691r42,0","w":623},"N":{"d":"47,-691r41,0r358,607r0,-607r42,0r1,691r-42,0r-359,-610r1,610r-41,0","w":537},"O":{"d":"530,-570v-48,-51,-114,-82,-187,-82v-150,0,-271,136,-271,307v0,173,119,311,271,311v156,0,274,-138,274,-311v0,-90,-34,-169,-87,-225xm657,-345v0,192,-131,354,-314,354v-168,0,-314,-153,-314,-354v0,-194,141,-350,314,-350v180,0,314,155,314,350"},"P":{"d":"252,-346r-157,0r1,346r-42,0r-1,-691r199,0v108,0,195,77,195,170v0,98,-87,175,-195,175xm252,-651r-157,0r0,263r157,0v83,0,152,-57,152,-133v0,-71,-69,-130,-152,-130","w":480},"Q":{"d":"579,-368v1,-153,-104,-291,-252,-291v-137,0,-252,129,-252,291v0,157,112,285,250,289v-2,-24,-21,-43,-47,-42r0,-36v46,-1,81,31,87,76v118,-24,214,-144,214,-287xm526,-133v-44,47,-99,78,-161,87v5,61,49,100,77,51r28,24v-17,23,-36,38,-59,38v-41,0,-76,-49,-84,-109v-155,-4,-290,-145,-290,-326v0,-186,135,-327,290,-327v157,0,292,143,292,327v0,92,-38,176,-93,235","w":665},"S":{"d":"45,-85r34,-27v32,48,87,79,157,79v86,0,161,-59,161,-136v0,-77,-65,-143,-154,-151v-115,-11,-199,-93,-199,-190v0,-105,95,-184,213,-184v76,0,136,28,179,77r-34,27v-33,-40,-85,-65,-145,-65v-88,0,-169,62,-169,141v0,77,69,143,160,153v111,13,194,94,194,188v0,102,-93,182,-208,182v-81,0,-151,-39,-189,-94","w":485},"T":{"d":"535,-651r-225,0r1,651r-42,0r-1,-651r-226,0r0,-40r493,0r0,40","w":575},"U":{"d":"88,-691r0,518v5,77,98,139,213,139v110,0,208,-62,208,-139r0,-518r42,0r0,518v-4,99,-116,182,-250,182v-139,0,-258,-83,-258,-182r0,-518r45,0","w":598},"V":{"d":"299,0r-256,-691r44,0r233,629r233,-629r44,0r-254,691r-44,0","w":639},"W":{"d":"863,-691r-253,691r-46,0r-110,-295r-107,295r-45,0r-256,-691r44,0r234,629r108,-295r-123,-334r44,0r233,629r232,-629r45,0","w":915},"X":{"d":"244,-354r-197,-337r47,0r180,302r178,-302r49,0r-202,344r203,347r-49,0r-185,-312r-182,312r-47,0","w":541},"Y":{"d":"588,-691r56,0r-283,378r1,313r-43,0r-1,-313r-283,-378r57,0r246,338","w":681},"Z":{"d":"513,-691r-403,649r368,0r1,42r-444,0r404,-649r-376,0r0,-42r450,0","w":548},"{":{"d":"149,-47v0,2,7,5,17,5r1,42v-24,0,-61,-19,-61,-47r0,-242v-1,-33,-26,-49,-64,-45r0,-42v38,4,63,-12,64,-45r0,-230v4,-24,31,-40,60,-40r0,43v-10,0,-17,0,-17,2r0,237v-6,17,-23,33,-43,33r0,42v20,0,37,12,43,32r0,255","w":223},"}":{"d":"48,-47r0,-255v4,-20,20,-32,40,-32r2,-42v-22,0,-38,-16,-42,-33r0,-237v-3,-2,-10,-2,-20,-2r0,-43v34,0,56,17,60,40v1,2,2,2,2,5r0,225v1,33,24,50,62,45r0,42v-38,-4,-61,11,-62,45r0,242v0,27,-33,47,-61,47r-1,-42v10,0,17,-3,20,-5","w":188},",":{"d":"78,0r-1,-64r48,0r1,64r-83,69r-5,-6","w":173},".":{"d":"43,0r-1,-64r64,0r1,64r-64,0","w":145},"0":{"d":"84,-344v0,173,96,311,212,311v118,0,211,-138,211,-311v0,-171,-93,-309,-211,-309v-116,0,-212,138,-212,309xm42,-344v0,-194,115,-351,254,-351v140,0,252,157,252,351v0,194,-112,353,-252,353v-139,0,-254,-159,-254,-353","w":586},"1":{"d":"66,-558r-30,-29r126,-104r42,0r1,691r-42,0r-1,-637","w":263},"2":{"d":"374,-337r-262,296r321,0r1,41r-377,0r-1,-41r291,-326v27,-30,44,-70,44,-114v0,-97,-78,-172,-176,-172v-47,0,-90,19,-122,49r-30,-30v40,-36,93,-61,152,-61v120,0,218,96,218,214v0,56,-25,105,-59,144","w":475},"3":{"d":"26,-60r29,-29v30,34,79,59,133,59v93,0,169,-69,169,-153v0,-77,-69,-141,-155,-149r-93,0r0,-42r93,0v88,-5,157,-66,157,-139v0,-79,-76,-141,-168,-141v-55,0,-104,20,-136,55r-29,-30v39,-42,99,-66,165,-66v117,0,213,81,213,182v0,71,-50,132,-118,161v68,32,113,96,113,169v0,108,-94,194,-211,194v-66,0,-125,-29,-162,-71","w":431},"4":{"d":"291,-254r-254,0r0,-42r2,0r228,-395r36,20r-217,375r205,0r0,-154r42,0r0,154r99,0r0,42r-99,0r1,254r-42,0","w":473},"5":{"d":"91,-352r-42,0r24,-339r369,0r0,42r-327,0r-24,224v38,-43,94,-70,156,-70v124,0,222,110,222,246v0,137,-97,249,-221,249v-71,0,-138,-39,-177,-98r29,-29v31,52,85,85,147,85v100,0,180,-92,180,-207v0,-115,-80,-205,-180,-205v-69,0,-128,41,-156,102","w":504},"6":{"d":"258,-407v118,0,215,84,215,209v0,117,-93,206,-209,206v-112,-1,-201,-87,-206,-202v-5,-109,-10,-226,9,-323v19,-99,103,-179,206,-179v72,0,136,31,179,87r-42,26v-31,-43,-82,-71,-136,-71v-82,0,-155,64,-170,150v-10,57,-15,125,-12,192v34,-56,96,-95,166,-95xm432,-196v0,-99,-74,-170,-168,-170v-94,0,-165,80,-165,171v0,90,77,163,167,163v91,0,166,-74,166,-164","w":506},"7":{"d":"45,0r301,-649r-280,0r0,-42r350,0r-321,691r-50,0","w":443},"8":{"d":"32,-191v0,-81,47,-149,112,-182v-53,-29,-90,-85,-90,-149v0,-95,80,-173,177,-173v101,0,180,78,180,173v0,64,-35,120,-91,149v69,33,113,101,113,182v0,110,-89,200,-202,200v-109,0,-199,-90,-199,-200xm96,-522v0,71,61,130,135,130v76,0,137,-59,137,-130v0,-73,-61,-131,-137,-131v-74,0,-135,58,-135,131xm74,-191v0,85,72,158,157,158v89,0,160,-73,160,-158v0,-88,-71,-160,-160,-160v-85,0,-157,72,-157,160","w":459},"9":{"d":"244,-283v-112,-1,-206,-88,-206,-205v0,-114,93,-208,208,-208v117,1,206,90,210,204v4,109,9,223,-9,321v-19,105,-112,178,-219,178v-66,0,-129,-34,-168,-82r41,-33v32,45,82,72,134,72v89,0,159,-63,175,-146v11,-58,12,-124,11,-192v-37,55,-101,91,-177,91xm78,-483v0,88,78,159,166,159v95,0,170,-73,170,-167v0,-88,-79,-162,-167,-162v-95,0,-169,79,-169,170","w":489},"\u00bf":{"d":"188,-691r43,0r94,323r0,43r-99,0v-76,2,-138,67,-138,146v0,79,64,146,143,146v53,0,96,-29,123,-72r30,31v-33,49,-88,84,-153,84v-100,0,-184,-86,-184,-189v0,-101,82,-189,179,-189r56,0xm211,-786v0,16,-12,28,-26,28v-17,0,-28,-12,-28,-28v0,-17,11,-29,28,-29v14,0,26,12,26,29","w":432},"\u00e6":{"d":"323,0r-1,-40v-31,31,-73,50,-121,50v-88,0,-161,-68,-161,-151v0,-84,73,-152,161,-152r115,0v1,-11,3,-22,6,-32v-1,-77,-49,-139,-107,-139v-42,0,-82,5,-116,15r-10,-40v38,-11,81,-18,127,-17v59,1,111,45,134,107v37,-65,96,-108,162,-108v118,1,205,121,197,277r-347,0r0,46v21,87,85,152,161,152v43,0,97,-21,130,-37r17,37v-41,21,-86,41,-147,41v-64,0,-122,-35,-160,-91v1,45,2,79,7,82r-47,0xm363,-271r306,0v-8,-108,-75,-193,-157,-193v-80,0,-149,83,-149,193xm322,-172v-7,-24,-10,-50,-9,-80r-112,0v-66,0,-118,50,-118,111v0,60,52,108,118,108v66,0,121,-48,121,-108r0,-31","w":743},"a":{"d":"323,0r-1,-40v-31,31,-73,50,-121,50v-88,0,-161,-68,-161,-151v0,-89,77,-152,168,-152r114,0v5,-93,-36,-171,-107,-171v-42,0,-82,5,-116,15r-10,-40v38,-11,81,-18,127,-17v80,2,148,80,148,181v0,4,-7,320,6,325r-47,0xm322,-141r0,-111r-114,0v-69,0,-125,45,-125,111v0,60,52,108,118,108v66,0,121,-48,121,-108","w":406},"b":{"d":"100,-410r0,316v0,32,68,62,151,62v108,0,198,-99,198,-217v0,-115,-90,-215,-198,-215v-77,0,-143,24,-151,54xm100,-30r1,30r-49,0v5,-8,9,-94,9,-94r0,-597r42,0r0,224v35,-25,89,-39,148,-39v133,0,240,118,240,257v0,142,-107,259,-240,259v-62,0,-116,-18,-151,-40","w":523},"c":{"d":"434,-428r-30,31v-34,-40,-85,-67,-142,-67v-109,0,-197,96,-197,216v0,118,88,215,197,215v54,0,104,-24,140,-64r30,29v-45,47,-104,77,-170,77v-130,0,-239,-116,-239,-257v0,-142,109,-258,239,-258v69,0,130,32,172,78","w":478},"?":{"d":"232,0r-44,0r-92,-321r0,-41r94,0v78,-2,139,-66,139,-144v0,-82,-64,-148,-142,-148v-52,0,-96,30,-121,72r-29,-29v32,-50,88,-84,150,-84v101,0,183,85,183,189v0,99,-80,185,-180,185r-53,0xm206,96v0,-16,13,-26,27,-26v16,0,26,10,26,26v0,16,-10,29,-26,29v-14,0,-27,-13,-27,-29","w":410},"\u00b4":{"d":"175,-640r-109,87r-23,0r66,-87r66,0","w":209},"`":{"d":"140,-553r-109,-87r66,0r66,87r-23,0","w":204},"\u00e0":{"d":"323,0r-1,-40v-31,31,-73,50,-121,50v-88,0,-161,-68,-161,-151v0,-89,77,-152,168,-152r114,0v5,-93,-36,-171,-107,-171v-42,0,-82,5,-116,15r-10,-40v38,-11,81,-18,127,-17v80,2,148,80,148,181v0,4,-7,320,6,325r-47,0xm322,-141r0,-111r-114,0v-69,0,-125,45,-125,111v0,60,52,108,118,108v66,0,121,-48,121,-108xm200,-553r-109,-87r66,0r66,87r-23,0","w":406},"\u00e1":{"d":"323,0r-1,-40v-31,31,-73,50,-121,50v-88,0,-161,-68,-161,-151v0,-89,77,-152,168,-152r114,0v5,-93,-36,-171,-107,-171v-42,0,-82,5,-116,15r-10,-40v38,-11,81,-18,127,-17v80,2,148,80,148,181v0,4,-7,320,6,325r-47,0xm322,-141r0,-111r-114,0v-69,0,-125,45,-125,111v0,60,52,108,118,108v66,0,121,-48,121,-108xm310,-640r-109,87r-23,0r66,-87r66,0","w":406},"\u00c0":{"d":"197,-329r213,0r-107,-288xm32,0r254,-691r35,0r256,691r-44,0r-108,-287r-243,0r-106,287r-44,0xm299,-744r-109,-87r66,0r66,87r-23,0","w":596},"\u00c1":{"d":"197,-329r213,0r-107,-288xm32,0r254,-691r35,0r256,691r-44,0r-108,-287r-243,0r-106,287r-44,0xm421,-831r-109,87r-23,0r66,-87r66,0","w":596},"\u00c2":{"d":"197,-329r213,0r-107,-288xm32,0r254,-691r35,0r256,691r-44,0r-108,-287r-243,0r-106,287r-44,0","w":596},"\u00c8":{"d":"391,-389r0,42r-305,0r0,305r357,0r1,42r-399,0r-1,-691r399,0r0,40r-357,0r0,262r305,0xm230,-744r-109,-87r66,0r66,87r-23,0","w":485},"\u00c9":{"d":"391,-389r0,42r-305,0r0,305r357,0r1,42r-399,0r-1,-691r399,0r0,40r-357,0r0,262r305,0xm338,-831r-109,87r-23,0r66,-87r66,0","w":485},"\u00d2":{"d":"530,-570v-48,-51,-114,-82,-187,-82v-150,0,-271,136,-271,307v0,173,119,311,271,311v156,0,274,-138,274,-311v0,-90,-34,-169,-87,-225xm657,-345v0,192,-131,354,-314,354v-168,0,-314,-153,-314,-354v0,-194,141,-350,314,-350v180,0,314,155,314,350xm321,-744r-109,-87r66,0r66,87r-23,0"},"\u00d3":{"d":"530,-570v-48,-51,-114,-82,-187,-82v-150,0,-271,136,-271,307v0,173,119,311,271,311v156,0,274,-138,274,-311v0,-90,-34,-169,-87,-225xm657,-345v0,192,-131,354,-314,354v-168,0,-314,-153,-314,-354v0,-194,141,-350,314,-350v180,0,314,155,314,350xm476,-831r-109,87r-23,0r66,-87r66,0"},"\u00d9":{"d":"88,-691r0,518v5,77,98,139,213,139v110,0,208,-62,208,-139r0,-518r42,0r0,518v-4,99,-116,182,-250,182v-139,0,-258,-83,-258,-182r0,-518r45,0xm293,-744r-109,-87r66,0r66,87r-23,0","w":598},"\u00da":{"d":"88,-691r0,518v5,77,98,139,213,139v110,0,208,-62,208,-139r0,-518r42,0r0,518v-4,99,-116,182,-250,182v-139,0,-258,-83,-258,-182r0,-518r45,0xm417,-831r-109,87r-23,0r66,-87r66,0","w":598},"\u00dd":{"d":"588,-691r56,0r-283,378r1,313r-43,0r-1,-313r-283,-378r57,0r246,338xm467,-831r-109,87r-23,0r66,-87r66,0","w":681},"\u00e8":{"d":"239,-32v43,0,97,-21,130,-37r17,37v-41,21,-86,41,-147,41v-115,0,-211,-112,-210,-258v0,-142,90,-258,199,-258v118,1,205,121,197,277r-353,0v6,111,78,197,167,198xm72,-271r313,0v-8,-108,-75,-193,-157,-193v-80,0,-147,85,-156,193xm229,-553r-109,-87r66,0r66,87r-23,0","w":456},"\u00e9":{"d":"239,-32v43,0,97,-21,130,-37r17,37v-41,21,-86,41,-147,41v-115,0,-211,-112,-210,-258v0,-142,90,-258,199,-258v118,1,205,121,197,277r-353,0v6,111,78,197,167,198xm72,-271r313,0v-8,-108,-75,-193,-157,-193v-80,0,-147,85,-156,193xm339,-640r-109,87r-23,0r66,-87r66,0","w":456},"\u00ec":{"d":"96,0r-1,-500r41,0r1,500r-41,0xm124,-553r-109,-87r66,0r66,87r-23,0","w":211},"\u00ed":{"d":"66,0r-1,-500r41,0r1,500r-41,0xm183,-640r-109,87r-23,0r66,-87r66,0","w":211},"\u00f2":{"d":"64,-247v0,118,86,215,193,215v104,0,189,-97,189,-215v0,-120,-85,-217,-189,-217v-107,0,-193,97,-193,217xm22,-247v0,-143,106,-259,235,-259v128,0,232,116,232,259v0,141,-104,257,-232,257v-129,0,-235,-116,-235,-257xm265,-553r-109,-87r66,0r66,87r-23,0","w":527},"\u00f3":{"d":"64,-247v0,118,86,215,193,215v104,0,189,-97,189,-215v0,-120,-85,-217,-189,-217v-107,0,-193,97,-193,217xm22,-247v0,-143,106,-259,235,-259v128,0,232,116,232,259v0,141,-104,257,-232,257v-129,0,-235,-116,-235,-257xm381,-640r-109,87r-23,0r66,-87r66,0","w":527},"\u00f9":{"d":"356,0r-1,-70v-30,46,-81,79,-138,79v-93,0,-165,-82,-167,-184r-3,-5r0,-318r41,0r0,318r2,5v2,77,62,141,134,141v67,0,131,-57,131,-126r0,-340r42,0r0,452v0,24,3,46,6,48r-47,0xm228,-553r-109,-87r66,0r66,87r-23,0","w":450},"\u00fa":{"d":"356,0r-1,-70v-30,46,-81,79,-138,79v-93,0,-165,-82,-167,-184r-3,-5r0,-318r41,0r0,318r2,5v2,77,62,141,134,141v67,0,131,-57,131,-126r0,-340r42,0r0,452v0,24,3,46,6,48r-47,0xm328,-640r-109,87r-23,0r66,-87r66,0","w":450},"\u00fd":{"d":"53,195r5,-43v5,8,20,6,33,7v47,0,96,-33,120,-92r40,-99r-193,-474r45,0r169,422r166,-422r45,0r-192,471r-44,117r-2,9v-32,70,-94,109,-156,109v-12,0,-24,-2,-36,-5xm391,-640r-109,87r-23,0r66,-87r66,0","w":535},":":{"d":"61,0r-1,-64r64,0r1,64r-64,0xm60,-436r0,-64r64,0r0,64r-64,0","w":182},";":{"d":"60,-436r0,-64r64,0r0,64r-64,0xm67,0r-1,-64r48,0r1,64r-83,69r-5,-6","w":169},"=":{"d":"69,-394r0,-44r335,0r0,44r-335,0xm69,-200r0,-44r335,0r0,44r-335,0","w":440},"\u00c7":{"d":"554,-570v-49,-52,-116,-85,-186,-85v-153,0,-274,143,-274,313v0,166,120,311,274,311v70,0,135,-32,183,-82r30,28v-60,64,-137,94,-224,94r-9,23v11,0,52,23,52,56v0,18,-12,38,-49,59r-33,-25v10,0,49,-8,49,-36v0,-28,-37,-32,-59,-31r1,-51v-144,-31,-256,-172,-256,-346v0,-199,142,-353,315,-353v82,0,161,36,215,97","w":634},"\u00e7":{"d":"289,9r-8,27v11,0,52,23,52,56v0,18,-13,39,-50,61r-32,-26v18,-2,48,-13,48,-33v0,-32,-37,-37,-60,-34r2,-54v-115,-20,-203,-125,-203,-255v0,-141,106,-257,240,-257v67,0,129,30,172,79r-29,29v-37,-40,-88,-66,-143,-66v-110,0,-198,96,-198,215v0,120,88,216,198,216v54,0,104,-24,139,-62r30,29v-40,43,-95,71,-158,75","w":493},"\u00a2":{"d":"240,-504r0,-68r47,0r0,68v58,6,110,36,147,76r-30,31v-29,-34,-70,-59,-117,-65r0,428v44,-6,84,-29,115,-63r30,29v-40,41,-89,69,-145,75r0,68r-47,0r0,-68v-120,-11,-217,-122,-217,-255v0,-134,97,-244,217,-256xm65,-248v0,110,76,202,175,214r0,-428v-99,12,-175,103,-175,214","w":478},"|":{"d":"56,-1r0,-716r26,0r0,716r-26,0","w":131},"$":{"d":"211,-366r0,-286v-72,14,-132,71,-132,139v0,69,55,130,132,147xm253,-318r0,283v73,-10,135,-64,135,-135v0,-71,-57,-133,-135,-148xm211,-737r42,0r0,43v73,0,132,30,174,77r-34,27v-32,-38,-83,-65,-140,-65r0,296v103,20,180,96,180,186v0,94,-79,168,-180,180r0,59r-42,0r0,-57v-78,-5,-138,-42,-175,-94r34,-27v27,41,80,79,141,79r0,-290v-103,-19,-176,-95,-176,-186v0,-95,74,-168,176,-183r0,-45","w":466},"\"":{"d":"47,-554r-11,-137r48,0r7,63r-38,80xm122,-554r-11,-137r48,0r7,63r-38,80","w":217},"\u00aa":{"d":"158,-320r-34,0r0,-6v-39,26,-99,-2,-99,-49v0,-31,27,-56,64,-56r35,0v2,-26,-13,-50,-32,-50v-17,0,-31,1,-45,6r-5,-25v14,-4,29,-6,50,-6v30,0,56,28,56,69v0,12,-3,112,10,117xm124,-407r-37,0v-20,0,-37,17,-37,32v0,17,17,33,37,33v19,0,37,-16,37,-33r0,-32","w":179},"\u00ba":{"d":"51,-406v0,34,32,69,66,69v29,0,60,-35,60,-69v0,-39,-31,-75,-60,-75v-34,0,-66,36,-66,75xm26,-406v0,-58,39,-100,91,-100v47,0,86,42,86,100v0,52,-39,95,-86,95v-52,0,-91,-43,-91,-95","w":232},"\u00b2":{"d":"78,-347r164,0r0,30r-209,0r0,-30r155,-173v15,-16,24,-40,24,-59v0,-46,-43,-85,-88,-85v-22,0,-46,10,-67,31r-24,-25v26,-23,55,-37,91,-37v66,0,118,52,118,116v0,31,-15,64,-31,82","w":280},"\u00b3":{"d":"37,-374r8,0v16,18,43,32,68,32v41,0,82,-33,82,-74v0,-39,-37,-76,-75,-76r-54,0r0,-31r54,0v39,-2,76,-35,76,-70v0,-35,-40,-68,-82,-68v-25,0,-53,11,-73,33r-23,-24v24,-26,57,-39,96,-39v63,0,115,43,115,98v0,40,-19,69,-56,86v29,20,53,55,53,91v0,58,-51,104,-113,104v-40,0,-72,-16,-95,-42","w":265},"\u00a8":{"d":"38,-650v0,-14,13,-27,29,-27v15,0,29,13,29,27v0,14,-14,27,-29,27v-16,0,-29,-13,-29,-27xm172,-650v0,-14,13,-27,29,-27v15,0,29,13,29,27v0,14,-14,27,-29,27v-16,0,-29,-13,-29,-27","w":263},"\u00e4":{"d":"116,-650v0,-14,13,-27,29,-27v15,0,29,13,29,27v0,14,-14,27,-29,27v-16,0,-29,-13,-29,-27xm250,-650v0,-14,13,-27,29,-27v15,0,29,13,29,27v0,14,-14,27,-29,27v-16,0,-29,-13,-29,-27xm323,0r-1,-40v-31,31,-73,50,-121,50v-88,0,-161,-68,-161,-151v0,-89,77,-152,168,-152r114,0v5,-93,-36,-171,-107,-171v-42,0,-82,5,-116,15r-10,-40v38,-11,81,-18,127,-17v80,2,148,80,148,181v0,4,-7,320,6,325r-47,0xm322,-141r0,-111r-114,0v-69,0,-125,45,-125,111v0,60,52,108,118,108v66,0,121,-48,121,-108","w":406},"\u00eb":{"d":"239,-32v43,0,97,-21,130,-37r17,37v-41,21,-86,41,-147,41v-115,0,-211,-112,-210,-258v0,-142,90,-258,199,-258v118,1,205,121,197,277r-353,0v6,111,78,197,167,198xm72,-271r313,0v-8,-108,-75,-193,-157,-193v-80,0,-147,85,-156,193xm131,-650v0,-14,13,-27,29,-27v15,0,29,13,29,27v0,14,-14,27,-29,27v-16,0,-29,-13,-29,-27xm265,-650v0,-14,13,-27,29,-27v15,0,29,13,29,27v0,14,-14,27,-29,27v-16,0,-29,-13,-29,-27","w":456},"\u00f6":{"d":"64,-247v0,118,86,215,193,215v104,0,189,-97,189,-215v0,-120,-85,-217,-189,-217v-107,0,-193,97,-193,217xm22,-247v0,-143,106,-259,235,-259v128,0,232,116,232,259v0,141,-104,257,-232,257v-129,0,-235,-116,-235,-257xm172,-650v0,-14,13,-27,29,-27v15,0,29,13,29,27v0,14,-14,27,-29,27v-16,0,-29,-13,-29,-27xm306,-650v0,-14,13,-27,29,-27v15,0,29,13,29,27v0,14,-14,27,-29,27v-16,0,-29,-13,-29,-27","w":527},"\u00fc":{"d":"356,0r-1,-70v-30,46,-81,79,-138,79v-93,0,-165,-82,-167,-184r-3,-5r0,-318r41,0r0,318r2,5v2,77,62,141,134,141v67,0,131,-57,131,-126r0,-340r42,0r0,452v0,24,3,46,6,48r-47,0xm128,-650v0,-14,13,-27,29,-27v15,0,29,13,29,27v0,14,-14,27,-29,27v-16,0,-29,-13,-29,-27xm262,-650v0,-14,13,-27,29,-27v15,0,29,13,29,27v0,14,-14,27,-29,27v-16,0,-29,-13,-29,-27","w":450},"\u00ff":{"d":"53,195r5,-43v5,8,20,6,33,7v47,0,96,-33,120,-92r40,-99r-193,-474r45,0r169,422r166,-422r45,0r-192,471r-44,117r-2,9v-32,70,-94,109,-156,109v-12,0,-24,-2,-36,-5xm181,-650v0,-14,13,-27,29,-27v15,0,29,13,29,27v0,14,-14,27,-29,27v-16,0,-29,-13,-29,-27xm315,-650v0,-14,13,-27,29,-27v15,0,29,13,29,27v0,14,-14,27,-29,27v-16,0,-29,-13,-29,-27","w":535},"\u00ef":{"d":"66,0r-1,-500r41,0r1,500r-41,0xm11,-650v0,-14,13,-27,29,-27v15,0,29,13,29,27v0,14,-14,27,-29,27v-16,0,-29,-13,-29,-27xm105,-650v0,-14,13,-27,29,-27v15,0,29,13,29,27v0,14,-14,27,-29,27v-16,0,-29,-13,-29,-27","w":177},"\u00f1":{"d":"253,-605v-35,0,-56,-18,-92,-18v-29,0,-54,10,-71,22r-14,-29v21,-15,54,-24,88,-24v37,0,56,17,90,17v28,0,58,-9,73,-22r15,29v-22,15,-56,25,-89,25xm81,-496r0,67v32,-50,82,-79,139,-79v94,0,168,81,169,183r3,325r-42,0r-1,-325v-2,-79,-62,-141,-134,-141v-67,0,-134,53,-134,126r1,340r-42,0r-1,-454v0,-22,-3,-40,-5,-42r47,0","w":433},"\u00f5":{"d":"64,-247v0,118,86,215,193,215v104,0,189,-97,189,-215v0,-120,-85,-217,-189,-217v-107,0,-193,97,-193,217xm22,-247v0,-143,106,-259,235,-259v128,0,232,116,232,259v0,141,-104,257,-232,257v-129,0,-235,-116,-235,-257xm251,-597v-28,-16,-85,-13,-110,4r-12,-30v19,-10,43,-16,70,-16v53,0,74,29,126,29v23,0,44,-5,58,-14r11,30v-37,22,-107,18,-143,-3","w":513},"\u00f8":{"d":"22,-247v0,-143,106,-259,235,-259v65,0,124,31,166,79r-32,28v-34,-40,-82,-65,-134,-65v-107,0,-193,97,-193,217v0,38,9,74,24,105r-32,28v-22,-39,-34,-84,-34,-133xm446,-247v0,-45,-12,-86,-33,-121r33,-28v27,42,43,94,43,149v0,141,-104,257,-232,257v-72,0,-136,-35,-179,-91r31,-27v35,47,88,76,148,76v104,0,189,-97,189,-215","w":513},"!":{"d":"103,-15v0,13,-10,24,-23,24v-13,0,-24,-11,-24,-24v0,-13,11,-23,24,-23v14,0,22,10,23,23xm62,-99r0,-592r36,0r0,592r-36,0","w":176},"\u00a1":{"d":"57,-671v0,-13,10,-24,23,-24v13,0,24,11,24,24v0,13,-11,23,-24,23v-14,0,-22,-10,-23,-23xm98,-588r1,588r-36,0r-1,-588r36,0","w":160},"'":{"d":"54,-623r-7,-63r48,-5r7,63r-74,78r-6,-6","w":121},"(":{"d":"158,-695r19,49v-50,62,-83,200,-83,357v0,174,39,320,96,374r-25,42v-69,-68,-119,-228,-119,-416v0,-179,47,-336,112,-406","w":260},")":{"d":"71,-646r19,-49v65,70,112,227,112,406v0,188,-50,348,-119,416r-25,-42v57,-54,96,-200,96,-374v0,-157,-33,-295,-83,-357","w":246},"~":{"d":"227,-291v-40,0,-62,-20,-102,-20v-32,0,-59,8,-76,22r-17,-31v23,-16,58,-25,92,-25v40,0,62,20,100,20v30,0,61,-8,78,-22r14,30v-22,16,-54,26,-89,26","w":347},"\u00bc":{"d":"273,-345r18,10r-109,187r103,0r0,-77r21,0r0,77r49,0r0,21r-49,0r1,127r-21,0r-1,-127r-127,0r0,-21xm49,-440r-15,-14r63,-52r21,0r0,293r-21,0r0,-266","w":382},"\u00bd":{"d":"37,-441r-15,-14r63,-52r21,0r0,294r-21,0r0,-267xm295,-168r-131,148r161,0r1,20r-189,0r-1,-20r146,-163v13,-14,22,-36,22,-57v0,-49,-39,-86,-88,-86v-24,0,-45,9,-61,24r-15,-15v20,-18,46,-30,76,-30v60,0,109,48,109,107v0,29,-13,53,-30,72","w":355},"\u00b7":{"d":"62,-314v0,-25,24,-50,53,-50v28,0,54,25,54,50v0,25,-26,49,-54,49v-29,0,-53,-24,-53,-49","w":225},"\u00b0":{"d":"54,-596v0,34,35,69,73,69v32,0,66,-35,66,-69v0,-38,-34,-74,-66,-74v-38,0,-73,36,-73,74xm26,-596v0,-57,43,-99,101,-99v52,0,95,42,95,99v0,52,-43,95,-95,95v-58,0,-101,-43,-101,-95","w":250},"\u00a6":{"d":"82,-410r-26,0r0,-307r26,0r0,307xm56,-344r26,0r0,343r-26,0r0,-343","w":131},"\u00a7":{"d":"275,-478r-18,40v-41,-20,-82,-27,-125,-13v15,27,43,56,81,74v101,47,154,162,72,241v19,129,-127,179,-233,121r18,-35v69,36,175,19,176,-63v-53,20,-106,12,-156,-12r18,-37v42,19,87,26,129,9v-14,-31,-43,-60,-81,-78v-71,-33,-116,-97,-116,-155v0,-34,15,-64,42,-84v-25,-126,124,-173,231,-119r-18,40v-66,-37,-175,-25,-174,58v52,-17,103,-8,154,13xm269,-180v9,-10,15,-28,15,-45v0,-43,-35,-92,-91,-118v-43,-19,-75,-50,-94,-84v-11,11,-16,29,-16,45v0,41,35,88,92,115v43,20,76,52,94,87","w":356},"\u00be":{"d":"32,-190r15,-14v15,17,39,29,66,29v47,0,85,-34,85,-76v0,-55,-62,-85,-124,-75r0,-21r46,0v44,-2,79,-33,79,-69v0,-40,-38,-71,-84,-71v-28,0,-52,10,-68,28r-15,-15v20,-21,50,-33,83,-33v58,0,106,40,106,91v0,35,-25,66,-59,80v34,16,57,48,57,85v0,54,-47,97,-106,97v-33,0,-62,-15,-81,-36xm361,-129r-127,0r0,-21r115,-197r18,10r-108,187r102,0r0,-77r21,0r0,77r50,0r0,21r-50,0r0,127r-21,0r0,-127","w":458},"\u00b6":{"d":"332,-690r0,688r-40,0r0,-688r40,0xm268,-691r1,691r-78,0r-1,-362v-91,0,-164,-74,-164,-165v0,-91,73,-164,164,-164r78,0xm177,-407r0,-247v-61,0,-110,54,-110,123v0,68,49,124,110,124","w":382},"\u00c4":{"d":"197,-329r213,0r-107,-288xm32,0r254,-691r35,0r256,691r-44,0r-108,-287r-243,0r-106,287r-44,0xm200,-763v0,-14,13,-27,29,-27v15,0,29,13,29,27v0,14,-14,27,-29,27v-16,0,-29,-13,-29,-27xm334,-763v0,-14,13,-27,29,-27v15,0,29,13,29,27v0,14,-14,27,-29,27v-16,0,-29,-13,-29,-27","w":596},"\u00cb":{"d":"391,-389r0,42r-305,0r0,305r357,0r1,42r-399,0r-1,-691r399,0r0,40r-357,0r0,262r305,0xm144,-764v0,-14,13,-27,29,-27v15,0,29,13,29,27v0,14,-14,27,-29,27v-16,0,-29,-13,-29,-27xm278,-764v0,-14,13,-27,29,-27v15,0,29,13,29,27v0,14,-14,27,-29,27v-16,0,-29,-13,-29,-27","w":485},"\u00cf":{"d":"91,-691r1,691r-42,0r-1,-691r42,0xm-27,-763v0,-14,13,-27,29,-27v15,0,29,13,29,27v0,14,-14,27,-29,27v-16,0,-29,-13,-29,-27xm107,-763v0,-14,13,-27,29,-27v15,0,29,13,29,27v0,14,-14,27,-29,27v-16,0,-29,-13,-29,-27","w":138},"\u00d6":{"d":"530,-570v-48,-51,-114,-82,-187,-82v-150,0,-271,136,-271,307v0,173,119,311,271,311v156,0,274,-138,274,-311v0,-90,-34,-169,-87,-225xm657,-345v0,192,-131,354,-314,354v-168,0,-314,-153,-314,-354v0,-194,141,-350,314,-350v180,0,314,155,314,350xm247,-764v0,-14,13,-27,29,-27v15,0,29,13,29,27v0,14,-14,27,-29,27v-16,0,-29,-13,-29,-27xm381,-764v0,-14,13,-27,29,-27v15,0,29,13,29,27v0,14,-14,27,-29,27v-16,0,-29,-13,-29,-27"},"\u00dc":{"d":"88,-691r0,518v5,77,98,139,213,139v110,0,208,-62,208,-139r0,-518r42,0r0,518v-4,99,-116,182,-250,182v-139,0,-258,-83,-258,-182r0,-518r45,0xm201,-763v0,-14,13,-27,29,-27v15,0,29,13,29,27v0,14,-14,27,-29,27v-16,0,-29,-13,-29,-27xm335,-763v0,-14,13,-27,29,-27v15,0,29,13,29,27v0,14,-14,27,-29,27v-16,0,-29,-13,-29,-27","w":598},"\u00ce":{"d":"91,-691r1,691r-42,0r-1,-691r42,0","w":138},"\u00cd":{"d":"91,-691r1,691r-42,0r-1,-691r42,0xm192,-831r-109,87r-23,0r66,-87r66,0","w":154},"\u00cc":{"d":"99,-691r1,691r-42,0r-1,-691r42,0xm84,-744r-109,-87r66,0r66,87r-23,0","w":131},"\u00d1":{"d":"47,-691r41,0r358,607r0,-607r42,0r1,691r-42,0r-359,-610r1,610r-41,0xm256,-755v-28,-16,-85,-13,-110,4r-12,-30v19,-10,43,-16,70,-16v53,0,74,29,126,29v23,0,44,-5,58,-14r11,30v-37,22,-107,18,-143,-3","w":537},"\u00b9":{"d":"66,-558r-30,-29r126,-104r42,0r0,300r-42,0r0,-246","w":263},"+":{"d":"248,-273r0,152r-42,0r0,-152r-151,0r0,-42r151,0r0,-151r42,0r0,151r152,0r0,42r-152,0","w":452},"-":{"d":"386,-273r-345,0r0,-42r345,0r0,42","w":421},"\/":{"d":"342,-691r-251,691r-46,0r252,-691r45,0","w":378},"&":{"d":"483,-137v22,38,31,48,67,79r0,51v-39,-25,-65,-62,-98,-100v-49,62,-125,107,-204,107v-120,0,-207,-87,-207,-188v0,-75,51,-144,157,-193r26,-12r-18,-21v-67,-72,-76,-107,-76,-142v0,-70,61,-139,156,-139v86,0,146,60,146,132v0,58,-38,108,-125,156r-22,12r165,206v18,-35,37,-69,46,-113r50,11v-16,51,-38,101,-61,134xm383,-561v0,-58,-41,-104,-102,-104v-56,0,-103,44,-103,100v0,58,58,107,89,146r15,-8v79,-46,101,-81,101,-134xm241,-370r-16,10v-94,55,-131,107,-131,167v0,74,62,157,153,157v65,0,139,-48,174,-108","w":597},"\u00d5":{"d":"530,-570v-48,-51,-114,-82,-187,-82v-150,0,-271,136,-271,307v0,173,119,311,271,311v156,0,274,-138,274,-311v0,-90,-34,-169,-87,-225xm657,-345v0,192,-131,354,-314,354v-168,0,-314,-153,-314,-354v0,-194,141,-350,314,-350v180,0,314,155,314,350xm332,-756v-28,-16,-85,-13,-110,4r-12,-30v19,-10,43,-16,70,-16v53,0,74,29,126,29v23,0,44,-5,58,-14r11,30v-37,22,-107,18,-143,-3"},"\u00d0":{"d":"111,-274r-68,0r0,-42r68,0r0,-375r255,0v134,2,241,155,241,344v0,189,-105,342,-239,345r1,2r-257,0xm366,-649r-213,0r0,333r174,0r0,42r-174,0r0,232r215,0r0,-2v109,-3,197,-138,197,-303v0,-164,-88,-302,-199,-302","w":653},"\u00b1":{"d":"248,-460r0,152r-42,0r0,-152r-151,0r0,-42r151,0r0,-151r42,0r0,151r152,0r0,42r-152,0xm399,-154r-345,0r0,-42r345,0r0,42","w":452},"*":{"d":"257,-510r0,122r-42,0r0,-121r-86,85r-30,-29r86,-87r-120,0r0,-41r121,0r-86,-86r29,-30r86,86r0,-122r42,0r0,122r86,-86r30,29r-86,86r122,0r0,42r-122,0r86,87r-29,29","w":471},"\u00d7":{"d":"177,-285r-107,107r-30,-29r107,-108r-106,-106r29,-30r107,107r107,-107r30,29r-107,107r107,108r-29,29","w":367},"_":{"d":"462,0r-420,0r-1,-42r420,0","w":513},"\\":{"d":"297,0r-253,-691r45,0r254,691r-46,0","w":371},"\u00f7":{"d":"177,-140r0,-64r64,0r0,64r-64,0xm177,-387r0,-64r64,0r0,64r-64,0xm380,-273r-345,0r0,-42r345,0r0,42","w":425},"@":{"d":"296,-542v30,-8,49,-13,86,-12v63,2,85,71,88,150r1,-13v0,0,-2,79,-2,151v0,37,-18,81,41,81v29,0,87,-43,115,-100v15,-31,26,-97,26,-130v0,-124,-103,-229,-255,-229v-171,0,-298,134,-298,312v0,174,114,279,308,279v122,0,209,-49,250,-110r63,0v-44,87,-151,162,-312,162v-211,0,-359,-112,-359,-325v0,-209,140,-369,351,-369v159,0,303,103,303,281v0,121,-82,273,-200,273v-21,0,-59,-4,-74,-30v-22,21,-51,33,-84,33v-70,0,-127,-58,-127,-130v0,-74,59,-129,131,-129r80,0v0,-58,-6,-112,-47,-112v-33,-1,-47,3,-74,11xm434,-268r0,-89r-86,0v-52,0,-95,37,-95,89v0,50,41,90,91,90v49,0,90,-40,90,-90","w":754},"\u00a5":{"d":"172,-148r0,-44r146,0r0,-38r-146,0r0,-44r146,0r0,-39r-283,-378r57,0r246,338r250,-338r56,0r-283,378r0,39r146,0r0,44r-146,0r0,38r146,0r0,44r-146,0r1,148r-43,0r-1,-148r-146,0","w":681},"\u00a3":{"d":"370,-301r-183,0r0,259r337,0r1,42r-379,0r-1,-301r-120,0r0,-42r120,0r0,-348r42,0r0,348r183,0r0,42","w":556},"\u00fe":{"d":"104,-692r0,223v36,-22,89,-39,148,-39v134,0,241,116,241,257v0,144,-107,260,-241,260v-61,0,-108,-19,-149,-39r0,226r-41,0r0,-888r42,0xm101,-411r3,316v-3,32,65,62,148,62v108,0,198,-99,198,-217v0,-115,-90,-215,-198,-215v-77,0,-143,24,-151,54","w":517},"\u00d8":{"d":"657,-345v0,192,-131,352,-314,354v-35,0,-68,-7,-99,-18r-2,9r-46,0r9,-27v-101,-54,-176,-176,-176,-318v0,-227,189,-406,414,-333r5,-13r45,0r-11,30v109,61,175,177,175,316xm617,-345v1,-123,-64,-226,-150,-275r-209,571v198,65,359,-95,359,-296xm428,-637v-194,-64,-356,93,-356,292v0,122,61,228,147,279"},"\u00ac":{"d":"622,-387r0,224r-42,0r0,-182r-539,0r0,-42r581,0","w":662},"\u00bb":{"d":"57,-501r264,223r-221,264r-32,-28r194,-231r-233,-196xm227,-501r264,223r-221,264r-32,-28r194,-231r-233,-196","w":524},">":{"d":"69,-494r243,246r-244,243r-30,-31r215,-212r-215,-217","w":336},"<":{"d":"28,-248r243,-246r31,29r-215,217r215,212r-30,31","w":330},"\u00de":{"d":"104,-692r0,223v36,-22,89,-39,148,-39v134,0,241,116,241,257v0,144,-107,260,-241,260v-61,0,-108,-19,-149,-39r0,226r-41,0r0,-888r42,0xm101,-411r3,316v-3,32,65,62,148,62v108,0,198,-99,198,-217v0,-115,-90,-215,-198,-215v-77,0,-143,24,-151,54","w":535},"^":{"d":"31,-448r246,-243r243,244r-31,30r-212,-215r-217,215","w":551},"\u00ea":{"d":"239,-32v43,0,97,-21,130,-37r17,37v-41,21,-86,41,-147,41v-115,0,-211,-112,-210,-258v0,-142,90,-258,199,-258v118,1,205,121,197,277r-353,0v6,111,78,197,167,198xm72,-271r313,0v-8,-108,-75,-193,-157,-193v-80,0,-147,85,-156,193xm119,-568r107,-106r108,107r-26,25r-82,-83r-83,83","w":456},"\u00c3":{"d":"355,-774v-36,0,-57,-19,-94,-18v-29,0,-55,8,-71,20r-15,-28v22,-14,52,-24,86,-24v37,0,58,18,92,18v30,0,58,-7,74,-20r14,28v-22,15,-52,24,-86,24xm197,-329r213,0r-107,-288xm32,0r254,-691r35,0r256,691r-44,0r-108,-287r-243,0r-106,287r-44,0","w":596},"\u00c6":{"d":"532,-329r9,-322r-229,0r-115,322r335,0xm286,-691r645,0r0,40r-357,0r0,262r305,0r0,42r-305,0r0,305r357,0r1,42r-399,0r-1,-287r-350,0r-106,287r-44,0","w":1081},"\u00e2":{"d":"323,0r-1,-40v-31,31,-73,50,-121,50v-88,0,-161,-68,-161,-151v0,-89,77,-152,168,-152r114,0v5,-93,-36,-171,-107,-171v-42,0,-82,5,-116,15r-10,-40v38,-11,81,-18,127,-17v80,2,148,80,148,181v0,4,-7,320,6,325r-47,0xm322,-141r0,-111r-114,0v-69,0,-125,45,-125,111v0,60,52,108,118,108v66,0,121,-48,121,-108xm94,-568r107,-106r108,107r-26,25r-82,-83r-83,83","w":406},"\u00df":{"d":"415,-521v0,-72,-67,-130,-159,-130r-161,0r0,262r179,0v79,-2,141,-59,141,-132xm95,-347r0,520r-42,0r0,-864r221,0v101,2,183,80,183,170v0,68,-40,125,-99,155v69,29,113,96,113,170v0,104,-86,192,-197,194r-85,0r-40,-40r125,0v86,-4,155,-72,155,-154v0,-79,-69,-151,-173,-151r-161,0","w":520},"\u00ab":{"d":"199,-278r264,-223r28,32r-233,196r194,231r-32,28xm29,-278r264,-223r28,32r-233,196r194,231r-32,28","w":532},"\u00fb":{"d":"356,0r-1,-70v-30,46,-81,79,-138,79v-93,0,-165,-82,-167,-184r-3,-5r0,-318r41,0r0,318r2,5v2,77,62,141,134,141v67,0,131,-57,131,-126r0,-340r42,0r0,452v0,24,3,46,6,48r-47,0xm116,-568r107,-106r108,107r-26,25r-82,-83r-83,83","w":450},"\u00f4":{"d":"64,-247v0,118,86,215,193,215v104,0,189,-97,189,-215v0,-120,-85,-217,-189,-217v-107,0,-193,97,-193,217xm22,-247v0,-143,106,-259,235,-259v128,0,232,116,232,259v0,141,-104,257,-232,257v-129,0,-235,-116,-235,-257xm148,-568r107,-106r108,107r-26,25r-82,-83r-83,83","w":513},"\u00f0":{"d":"244,-283v-112,-1,-206,-88,-206,-205v0,-114,93,-208,208,-208v117,1,206,90,210,204v4,109,9,223,-9,321v-19,105,-112,178,-219,178v-66,0,-129,-34,-168,-82r41,-33v32,45,82,72,134,72v89,0,159,-63,175,-146v11,-58,12,-124,11,-192v-37,55,-101,91,-177,91xm78,-483v0,88,78,159,166,159v95,0,170,-73,170,-167v0,-88,-79,-162,-167,-162v-95,0,-169,79,-169,170","w":489},"\u00ee":{"d":"66,0r-1,-500r41,0r1,500r-41,0xm-20,-568r107,-106r108,107r-26,25r-82,-83r-83,83","w":177},"#":{"d":"32,-221r36,-44r106,0r52,-143r-194,0r35,-44r175,0r71,-192r45,0r-70,192r240,0r71,-192r45,0r-70,192r116,0r-35,44r-97,0r-53,143r186,0r-36,44r-166,0r-79,221r-46,0r80,-221r-241,0r-79,221r-46,0r80,-221r-126,0xm272,-408r-53,143r241,0r52,-143r-240,0","w":714},"\u00e3":{"d":"241,-563v-35,0,-54,-17,-89,-16v-28,0,-58,9,-73,22r-16,-28v21,-15,54,-26,88,-26v35,0,55,16,86,16v30,0,61,-9,78,-23r14,28v-21,17,-55,27,-88,27xm323,0r-1,-40v-31,31,-73,50,-121,50v-88,0,-161,-68,-161,-151v0,-89,77,-152,168,-152r114,0v5,-93,-36,-171,-107,-171v-42,0,-82,5,-116,15r-10,-40v38,-11,81,-18,127,-17v80,2,148,80,148,181v0,4,-7,320,6,325r-47,0xm322,-141r0,-111r-114,0v-69,0,-125,45,-125,111v0,60,52,108,118,108v66,0,121,-48,121,-108","w":406},"[":{"d":"149,-47v0,2,7,5,17,5r1,42v-24,0,-61,-19,-61,-47r0,-242v-1,-33,-26,-49,-64,-45r0,-42v38,4,63,-12,64,-45r0,-230v4,-24,31,-40,60,-40r0,43v-10,0,-17,0,-17,2r0,237v-6,17,-23,33,-43,33r0,42v20,0,37,12,43,32r0,255","w":210},"]":{"d":"48,-47r0,-255v4,-20,20,-32,40,-32r2,-42v-22,0,-38,-16,-42,-33r0,-237v-3,-2,-10,-2,-20,-2r0,-43v34,0,56,17,60,40v1,2,2,2,2,5r0,225v1,33,24,50,62,45r0,42v-38,-4,-61,11,-62,45r0,242v0,27,-33,47,-61,47r-1,-42v10,0,17,-3,20,-5","w":183},"\u00a0":{"w":257}}});
